1.068068291533045069e-02,3.784397172959442016e-03,-2.589018286677191756e-03,-4.397340647270952564e-03,9.999948128316515916e-01,-6.771115967847728123e-02,3.439933332142859276e-04,2.038957961238987967e-06
1.652651195433056108e-01,1.243732090498007314e-01,-7.020945644324949955e-03,1.721099613036365314e-02,-1.933675872678373292e-02,6.015827964335623834e-02,-6.958301391891197514e-03,8.949577519059791333e-06
5.181293769370326485e-02,2.098917419993964750e-01,-2.839275947515584875e-02,-9.137186399602486783e-03,-4.627332337623206449e-02,-2.290900935259824675e-02,7.282007107236934673e-02,5.743216524667524260e-04
1.160283293582562436e-01,8.329607648215588134e-02,2.275131684496442715e-03,-1.465473865573067858e-02,-1.820888145363786653e-02,-2.786402169002606399e-01,3.005115677056151530e-04,2.857957067601432318e-04
1.518427624761665940e-03,1.490755927684278004e-01,8.200343911626670201e-02,7.270966694286755058e-03,-1.771682598064643760e-02,5.668907944655612180e-02,-6.247882359993548601e-02,5.214271648700779648e-04
1.088641748297519696e-01,5.881201202681253515e-02,5.102107547537344800e-02,-2.352642175542729065e-03,-1.876456150716578411e-02,1.787415140447428663e-01,2.635729102760637522e-03,-2.846108401839924005e-05
6.803833210007162458e-02,7.311850479972170636e-02,-8.024808197293674394e-02,2.049479821164767145e-03,-1.959089096603381513e-02,2.701666325639847516e-02,6.978243833532168927e-03,-5.895621228897139935e-04
-5.484712909897956346e-01,2.633801159243468470e-01,-7.947469907253437715e-02,3.097935368862341724e-03,1.039027893432434638e-02,3.086388552567880146e-03,-3.185968738061408824e-03,-6.840884791190978829e-07
-5.655695255842132368e-02,1.028029355569708425e-01,2.108064553668977936e-01,-2.636401806740536159e-04,-1.791655410817554524e-03,4.690367503209963429e-02,1.068866032906463058e-02,-5.800131381064396871e-04
2.315046992712663232e-02,2.973568414203557331e-01,4.894967394367394919e-01,2.085088499823944952e-02,-3.838746014007271014e-04,-8.624267963204501619e-02,-2.212953282476256504e-03,2.863489851738490921e-04
-7.794564430379537223e-02,1.533183752457102644e-01,2.037637042818460920e-01,-3.705823778762611272e-03,-3.628565346284980987e-04,1.906852960439328268e-02,5.521219270330295428e-03,-5.800979380851227236e-04
-1.017251108549579036e-01,3.847581575976527501e-02,-2.350015407616147523e-02,5.560467305175490491e-04,-2.936211233033871808e-04,-3.274408189869854741e-02,7.942982425542486355e-04,-2.518255744197173248e-06
-5.564659155537766966e-02,4.869073635639026287e-02,4.722408756002226260e-02,-2.745864487267006201e-02,5.595324915312819940e-04,-2.932857778631369622e-02,-9.248129112144419083e-04,5.768634988990755308e-04
3.053758154102825112e-02,2.403929370955871017e-02,-1.550050128969285013e-01,7.782653425948270198e-03,-3.039019612685712286e-04,3.066026341563198726e-02,2.021865243933318283e-03,1.084336567194955263e-05
-4.199886765607880462e-02,-8.551460089903690706e-03,2.890454283029356142e-02,-3.619351029690570654e-02,-1.946362117544913046e-06,2.197987219793414142e-03,5.171502435305243804e-03,9.831519463788608212e-07
-4.209284283528803849e-02,1.610971431495459849e-01,8.713325474445028640e-02,3.351352098105344311e-03,-6.017737854057771986e-04,-3.629677148698392392e-02,2.625513476684552400e-03,9.866570305438494419e-06
1.349574267185979851e-02,2.836783563588175447e-02,1.770210641538117607e-02,3.872020140939536753e-02,2.803135072564260505e-02,7.747356588496731589e-02,-7.209204336158158907e-03,-1.636385327461377425e-03
1.318775124102580798e-01,5.232887732781449364e-02,-1.421807725945029854e-01,-1.156781219685982208e-02,4.617970820805633987e-05,-4.338800587595718905e-02,-4.479660699901649550e-03,-4.601665406822010326e-06
-5.051308581082667587e-02,-3.336850686573693270e-02,1.982700008200726227e-01,9.260260670560179624e-03,2.740983420029438318e-04,-5.937340977352133231e-02,-7.643405936789852972e-02,2.914914317361938382e-04
-6.015733561657589899e-03,-4.188136220356546147e-02,1.920060749746967388e-01,9.116514659248747213e-04,-2.647765858180555648e-04,-4.845305007749469567e-02,-7.518677438031841354e-02,3.027586633518670111e-04
-3.030827038203817714e-02,-3.062781491504099063e-02,1.812163632805023350e-01,3.372423866851238187e-03,2.371077993354344499e-04,1.903973760403927518e-01,-6.976579115566389211e-02,-2.855326125666525841e-02
4.981595680887183908e-02,-2.839333374923912884e-02,2.247067264080659932e-01,-2.905331765458309817e-02,8.483661056272911224e-04,-8.762366284233448488e-02,-8.157966483598365348e-02,2.777052475663004658e-04
6.196922268772444564e-01,-3.229013669698419962e-04,4.545159272172490279e-03,1.418974406476894955e-02,-2.877223110698979430e-02,9.943845343786355054e-03,2.925855644502000589e-03,-5.394283499413221215e-04
2.262187184482805924e-01,1.022737872685975345e-02,2.981439494689685013e-02,-5.380606212748502724e-05,-2.983427822953397786e-04,1.591370767750016971e-02,-7.363343763582099518e-04,-1.878166453894320676e-05
-1.812264265425897192e-01,2.656722969531543077e-01,-2.611928905326242265e-02,-7.219704374807514417e-03,-1.073671346456415640e-03,-6.271102151694094018e-02,-5.902492979113673887e-04,2.891693518707244884e-04
-2.477560942717982884e-01,1.755717752007952825e-01,5.495024437231471603e-02,6.421533650441617336e-03,1.098833511344684492e-03,6.067112114536030859e-02,-9.407897590517503086e-03,-2.788610603802747670e-04
-2.524638139602133902e-01,1.797844557672994559e-01,9.024484650683003983e-02,-1.515503343845282791e-02,5.350890747606937151e-04,1.452767930021505415e-02,7.233115139600413291e-04,4.891442567071411884e-06
1.111551539491252745e-02,5.217525005860441933e-02,9.673782805873594459e-02,-6.342066515985803066e-03,8.762358083408314610e-06,9.237495789112655509e-03,-5.033230523582376756e-03,5.537298886862621495e-04
-5.932188195216506893e-02,-1.517747392480657820e-01,1.561978633352742972e-02,-1.977652837459712570e-02,-5.426421658064990716e-02,1.506646817742705001e-02,1.990454451625923715e-01,-7.649822081234709196e-04
-2.274383031141628386e-03,-2.037425045326261563e-01,-2.892891372724287757e-02,6.107948358758978451e-03,-2.574683244025037163e-02,-3.010533161875509657e-03,8.242119847551906964e-02,2.120336255177463993e-05
1.498462945408852165e-01,-1.715599969655321605e-02,6.275722775942400682e-03,-1.669560070959463099e-02,-1.098809797580647214e-03,-8.817646038434479722e-03,2.357016260448342032e-02,-2.857453292804277428e-02
1.389411301565316448e-01,-2.035158388314850172e-02,1.403710185884315953e-02,-2.583422995168632025e-02,-8.225890558227254377e-04,-7.142770268821778748e-03,-6.045134617037876273e-02,2.825789727730430162e-04
1.389411301565316448e-01,-2.035158388314850172e-02,1.403710185884315953e-02,-2.583422995168632025e-02,-8.225890558227254377e-04,-7.142770268821778748e-03,-6.045134617037876273e-02,2.825789727730430162e-04
1.389411301565316448e-01,-2.035158388314850172e-02,1.403710185884315953e-02,-2.583422995168632025e-02,-8.225890558227254377e-04,-7.142770268821778748e-03,-6.045134617037876273e-02,2.825789727730430162e-04
1.889732439170445366e-01,-3.070509233924471545e-02,-5.174038583994521046e-02,-2.387380346970975273e-02,-7.973167072656371776e-04,-9.025260890570161246e-03,-4.992230363763068557e-02,2.830526835567930910e-04
1.389411301565316448e-01,-2.035158388314850172e-02,1.403710185884315953e-02,-2.583422995168632025e-02,-8.225890558227254377e-04,-7.142770268821778748e-03,-6.045134617037876273e-02,2.825789727730430162e-04
2.787163173804064684e-02,-2.026829380698356997e-02,2.793164761065669577e-02,-1.963809726305033171e-02,-8.141535053644675815e-04,3.032168284430003524e-02,-5.694031415158562481e-02,5.708130742820086969e-04
-4.411831604927542866e-02,-1.327861324423512679e-01,-1.230087693645405683e-01,2.445790804133926577e-01,-3.658623020220186969e-05,4.391351095444595565e-02,-5.733095344452282527e-02,-5.022707588219887417e-06
6.605607366204774289e-02,-6.491796328114032670e-03,4.444211384693984301e-02,-7.200183433760065817e-03,-1.692002683249060153e-03,-1.167930766242350135e-02,-5.436373055833704226e-02,2.836328529418866325e-04
-4.263750119442226427e-02,-8.655370093403788948e-03,1.547323035644892607e-03,-5.204121961674809151e-03,5.398890468974670235e-04,3.183303148597358967e-01,-2.250436315177891528e-02,-5.666833141549333045e-04
-1.608494729071871868e-02,-2.734494556111976074e-02,-1.024422525470399838e-02,4.686641407409491630e-03,2.494945913311084895e-04,3.429652482344806019e-01,-1.815968260616001098e-02,-5.658310600662513814e-04
-9.429749446547223968e-03,-2.704268900353334892e-02,-6.113985191051252675e-03,-1.278656493872063274e-02,5.691614316225210302e-04,-1.444044500480748672e-01,-2.213963674794918249e-02,2.882829200342568177e-02
3.085764675706973922e-02,-6.492877431485895301e-02,-3.664665392894083523e-02,1.585429636668516384e-01,-8.807637768438930431e-04,1.390652380302735136e-01,-8.767469031310677618e-02,3.025373961199074938e-06
-1.999922740115663358e-02,1.500052037307932906e-01,2.040695559684274074e-01,2.237041947676577519e-02,2.922881028510060093e-04,-1.458807396035857462e-01,-2.079312285620387411e-03,2.805087713089170773e-04
-2.266740158085317480e-02,1.291469234302393132e-01,1.250125134713891695e-01,8.553440010950777439e-03,8.711609043052358919e-04,-1.787506839983656615e-01,-1.619852980303244146e-03,8.222038001365900971e-04
-2.529873362357173971e-02,9.016639587941367717e-02,3.621591780119526871e-01,7.670198980744566755e-03,-2.973459297064807126e-04,-2.336772116711824943e-01,-4.398691871971982395e-04,7.995730638523384115e-06
2.294491173945675117e-02,-8.617594771854577337e-04,5.714074060024309717e-03,1.975554241181323376e-02,-6.948494043893451854e-05,-8.090760095390850393e-02,9.244001291328938575e-04,-1.079304583216354014e-03
7.017431779517672996e-02,-3.777159394715979418e-02,5.373371445050943024e-02,-3.607873106517326539e-02,2.883957694611235536e-04,-3.465233671149191286e-02,1.217555282883619246e-03,2.051851145487008281e-06
-1.075299429514886829e-01,1.452445907955254509e-02,1.295020726606234684e-01,-1.482914012751545760e-02,9.447252648232209343e-06,-2.939077343217973842e-02,-6.628284008078880359e-03,2.934222856261610121e-04
-2.127300601306109373e-01,7.131775785771278520e-02,2.667834699664961562e-01,1.618761734874168273e-02,2.892939266707975337e-04,-1.001404421207157183e-02,-5.354329063356420490e-03,6.102728488060174102e-06
8.214714402889175537e-02,2.124547470972866156e-02,1.399574463176126923e-02,1.121566626904842677e-02,-1.154037628702955524e-05,-3.198306263766204777e-02,-4.112146772064134530e-03,1.420513978676416461e-06
6.457779471441726926e-02,2.773480008868863325e-02,1.718648017533875097e-03,-3.037037082927165899e-02,5.400541833176083703e-04,-2.107903155713881233e-02,-8.181944828549629969e-04,2.617423514919240223e-05
1.238443609894526558e-02,-2.698752997160834208e-02,-1.152714815523420977e-01,3.170540805707487697e-02,-3.284582999485419039e-06,-1.020351815772455560e-02,7.360105232375330209e-02,2.861477452169877787e-04
-8.507049885779507936e-03,-6.755311945747402569e-02,3.469278944844831347e-01,4.140048123237696776e-02,-5.726929524283641201e-04,-6.716678308813202325e-02,-1.246294322400293532e-03,-5.262574249753937562e-06
-1.977641368155654347e-02,-3.849374648044119607e-02,-8.976066687971778757e-02,2.964678933324229118e-02,-2.270108935947939550e-06,-7.937051073823293487e-03,2.605035684428878059e-03,-8.904985020169164922e-06
-2.248596346432131174e-02,1.513376396078562960e-02,3.416260298841043708e-02,-2.418014956184111885e-01,9.604697227482693502e-06,-4.925451549133342405e-02,9.455234896780237430e-02,-5.321537209196543386e-06
2.285972073284019482e-02,-3.083819769278568421e-02,3.848740319068960636e-02,9.449423338067877709e-02,-2.799180307125080300e-02,-3.889232933239146484e-02,2.009410890271479035e-03,2.802032625799515705e-04
-4.083020240871232387e-02,1.488498018168468440e-01,3.887162356769981869e-02,-9.997871772052070033e-03,-2.666780845319043818e-04,1.376327964249191363e-02,-6.493847207304753733e-03,4.994258402764599133e-05
-2.258296433000202622e-02,7.167917329423886819e-02,-5.526405965886027616e-02,6.383032244527721277e-03,-5.879414087448773824e-04,-2.976614163527152579e-02,-1.644662084780499484e-04,3.440734242928786300e-06
3.128580194763756761e-02,-3.432110687122064130e-02,-9.176905893524447966e-02,-4.166909772736779316e-02,2.887419052266826380e-02,4.276571960519161275e-02,6.415567764846398513e-03,-5.995748843328659039e-04
-3.573990078193629155e-02,6.818844113649705219e-02,-1.513329748607156744e-01,-6.616395650256271964e-04,2.947180645470014984e-04,6.359005549613758190e-02,3.897610958799599314e-03,-6.407869856019045548e-06
-1.037312329514800541e-01,7.576505735919922269e-02,1.081315144059726355e-02,-1.539508906796915357e-02,-1.596205710739170489e-03,1.115214946512756572e-01,1.271025448596312633e-02,-2.708166643757150367e-04
5.825111063682808163e-03,4.397464500162881831e-03,6.523822712597537876e-02,-1.064060311259560840e-02,1.558481749642071470e-05,-4.899367833534509081e-02,-2.818989238715244230e-03,5.441770182317346586e-06
-7.963576491048957040e-02,2.456290365320989988e-02,1.469625858351899031e-02,1.137452903371336324e-02,2.796139320490228489e-06,-1.682411122516666580e-02,-4.310262328469103080e-03,-2.594559538664940430e-06
2.988541198185016290e-01,-7.284715380955827935e-02,-5.022968850317463194e-03,5.770294453042129623e-02,1.810756638586022015e-04,-1.226217601881237317e-02,-2.869603667496632357e-02,-2.667292371196313848e-04
5.999823385899348549e-02,1.998139837262702043e-02,3.791288428898981731e-03,-8.134026714428277752e-03,-2.285395412909736136e-05,-6.848485961093686916e-03,-8.496184578554222050e-04,-2.767015331055127703e-04
2.018442201096582247e-02,1.364263796015056061e-02,3.901542879727981465e-03,2.223594502809228199e-02,-5.571407128545010365e-04,-2.061945948683356188e-03,-6.665075700770497959e-04,-4.017923419969893842e-06
-7.711706200999246530e-02,1.950879191964905446e-01,2.235780761515386485e-03,1.288719507631008211e-02,-2.969217158694234309e-04,1.049124762898713883e-02,8.983204513219707676e-04,4.199566858308346511e-06
-4.623949572184074211e-05,-2.979734261244932833e-02,-3.191830914512687467e-02,-2.138961670281529486e-03,-3.064799727268305253e-04,1.096220286136298377e-01,3.538476471846571832e-03,-8.248989800383820677e-06
-2.301971198055910717e-01,1.654949390400141940e-01,1.388122006173465525e-02,-9.872612169653387920e-03,2.961444646688493804e-04,2.705488416870254625e-02,4.205247815768600739e-03,-9.270300388884725198e-06
-6.590481105881110246e-02,3.744810657389998076e-01,-3.821903792999738116e-03,3.883553742533734678e-04,-2.882980385081482244e-02,1.012814362385925336e-02,1.764933647001696736e-04,1.337810238903281571e-05
4.141200994781306655e-01,1.253737126618259812e-01,3.317476136878007298e-02,-5.520124627699353817e-03,-2.152152904874377742e-03,4.006265089811030314e-03,-1.290437944936096912e-02,-2.752097139066695124e-04
-6.457804955330541385e-02,-6.914296090819008200e-02,-2.921806938130450809e-02,2.801259362917217152e-02,-2.939432469172403861e-02,-4.200543438181530975e-01,7.918577775636959082e-02,2.831011792699632615e-02
1.198557850139055914e-01,-1.194842192625385213e-01,-7.486272345788286264e-02,-1.146725328584205505e-02,-2.831551896748162392e-02,2.453850534919698456e-01,8.189582279223325822e-02,-2.991761193682242995e-04
4.065899290012152389e-02,-7.371968270844761473e-02,1.227560512471890554e-02,-1.253428619650741663e-02,-2.718296014850058590e-02,-4.859334314717652856e-03,7.030378563603684183e-02,-5.557927365139904690e-04
5.587495270874038092e-03,-3.005629170341535608e-02,7.222787260069196691e-02,1.030178285587804998e-01,-5.666885795987516763e-04,2.032037925954758573e-01,-6.345525163371432131e-02,-2.798954747945511801e-02
2.272755124156557519e-02,-3.650690949921982231e-02,-2.538567137662093784e-02,1.684869968407970153e-01,-8.580409726959042005e-04,-2.391665357230884636e-01,-6.927587708699622926e-02,8.441754145563507960e-04
1.714153460992441647e-02,-2.157118721713107909e-02,-2.708669763894945917e-02,1.686610007111121745e-01,6.623600479930488196e-05,-7.576924877062141128e-02,-6.112949910566158052e-02,3.010432261044605371e-04
1.652515752641717239e-01,-5.076224778986670148e-03,-8.333066969394821444e-02,6.412708989072198051e-02,2.501211471697936716e-04,-1.092204064724210284e-02,-1.406086881829142834e-02,1.552360584544857662e-06
-4.214902701045468436e-02,-2.794878296184306193e-02,-3.728320114615444464e-02,4.197380704067978086e-02,2.951904560962802888e-04,-1.865351496517504964e-03,-6.124121344643032594e-03,2.463541328860809976e-05
2.762800333859655177e-02,-3.119733148453467456e-02,-3.503864633303181708e-02,7.182089833700579067e-03,-2.584676673910903805e-02,9.695013105418370802e-02,-3.704965751024469345e-02,-2.771769340902425702e-02
-8.402997595854178655e-04,-1.435194060954828911e-02,2.558439064373275312e-02,2.038316340895055673e-02,2.774204167733416515e-04,1.932049589775739883e-03,-6.626424390221288992e-03,7.581351774233208213e-06
-8.730252767006979608e-03,-2.742941751448364947e-03,2.202626409161199256e-02,1.386795323393436585e-01,-2.772189666912040426e-02,-1.051571763009048893e-01,-5.825389044188089213e-03,7.886521485408028173e-06
-6.874830855961870657e-02,-2.373146928373764605e-02,2.476514991334733892e-02,2.543709629040323272e-01,-1.577087100445053038e-05,-4.507115491343045149e-02,-9.420406994603937323e-02,-2.665433402177735489e-04
1.229083390946842796e-01,-3.190761637995277560e-03,-1.015807272944867397e-02,1.758557256353659726e-01,-2.798658093751963533e-02,-3.024425912623976420e-02,-6.869957259670889278e-03,-3.002312259162987764e-04
-1.734443766562170086e-01,4.019709635552844162e-02,-3.587169223383074312e-02,5.438689679953849498e-02,-2.674604914352846823e-04,2.612046697570782894e-02,-7.691810008648982885e-03,-2.969589339692618995e-04
-1.247101085969160444e-01,2.186610585094301840e-01,-1.298381960588784441e-03,-1.807638763737668963e-01,2.882761550276522616e-02,3.626435366383072567e-02,-1.916113980605641713e-04,1.774345662318080502e-06
-1.122921792960046294e-01,1.908250716701781202e-01,-4.856056585513360106e-03,-1.606811909994827481e-01,2.772588602576371228e-02,-3.167090420887958002e-02,3.581237930009054278e-03,-5.533395560143128476e-04
2.623691623136999440e-01,1.837671251799222749e-01,-3.439241667097989869e-02,-1.576150774730024073e-01,2.820617938353611048e-02,-3.763135969893065258e-02,-1.038263278281507940e-02,8.904859313763576666e-06
-2.561530152958435558e-02,1.196406186445774233e-01,9.268311389063480649e-03,-6.442154063271507414e-02,3.280542681033494037e-04,-2.242669137052497735e-02,7.104435245334118034e-06,-3.652496670327763806e-06
1.139844457291164098e-01,-5.734517315379356918e-03,1.765500676344132491e-02,-4.194032655600146015e-02,5.038962132322571431e-04,-1.032241770593195565e-02,-8.388343086757453493e-02,1.400835669389580630e-06
1.338745487031746673e-01,-3.465380464527509363e-02,2.178434582044895540e-02,-1.554802784567734311e-02,9.540878316384645294e-04,2.035273356706627720e-02,7.594869186174828344e-04,4.734685253405094304e-04
-3.399448314993042813e-02,-1.625994615669630258e-02,1.036677434867085482e-02,8.459164668877221238e-02,-2.129334263661888417e-03,-7.175453698305647721e-02,-1.139577651653148234e-03,7.958568415194084691e-04
-2.102082623134099437e-02,-2.935082350372423821e-01,3.563859448029406685e-01,7.670636813958407740e-02,-2.802087115589509819e-02,-3.629208199186826191e-04,8.055989194715003831e-04,1.309926543480980571e-05
2.532510081411065705e-02,-1.868794509725603958e-01,4.285014696210506235e-01,-7.798237739118573167e-03,-2.854045287404301592e-02,-5.145793543055721120e-02,-7.813773736603876405e-03,1.094056104552438195e-05
-5.869962589992169105e-03,4.835902135773570421e-02,-3.689510130964752249e-02,8.113581975293852541e-03,-2.829083024453751122e-02,-4.686387580019877458e-02,8.125865716462742083e-02,8.059000567440993608e-06
-1.094009675006328217e-02,-9.138702959250155286e-03,-4.567307239187667900e-02,5.936955121426419971e-03,6.499631296595581662e-05,1.099123078288328087e-01,9.072400680979501517e-03,-2.896837275598755711e-04
7.345463134551173667e-02,-6.071062241661893955e-02,-2.203946169449764146e-03,-1.463787427980132484e-02,-1.329748845097638091e-03,3.101877026097652618e-02,6.706186717156751784e-03,6.673808248579213637e-06
-1.310593456420224533e-02,-5.054475316214841751e-02,7.134955280862795290e-02,1.691314062400686019e-02,-1.690285968995192166e-03,-7.295112010679152825e-02,-1.164819096013087552e-03,2.704407581821748177e-05
9.363280754554462182e-03,1.760975617147899838e-02,-6.144123769335090024e-02,-3.923206707008686789e-01,5.735999205383143090e-02,-1.667798084296890151e-02,1.541430637676936485e-02,2.761506089146780829e-04
4.156021535452915083e-01,1.530035116263235269e-03,-3.059986400765763448e-01,4.999548717484292998e-02,-5.833436133424515363e-04,9.378988392085485168e-03,6.693288833562904827e-03,-4.477654532803103435e-06
-1.342580183324375287e-01,-1.397077508870199491e-02,2.222707624140594918e-01,3.471461867525042072e-02,-1.084812968948974327e-03,3.228081357701303306e-02,5.936348079485502527e-03,7.662515764686407992e-08
2.743815922057419310e-01,1.067803583378894132e-02,-1.547677453451356266e-01,4.761950388759901565e-02,-6.104561087076179919e-04,-4.094526589959339435e-03,-4.318989844146989797e-03,-5.963928622539704452e-06
3.372167092996958271e-01,9.945489397888867752e-03,-2.122998273839480365e-01,2.617113236744888008e-02,-5.942506338640666467e-04,2.340813714275948726e-02,-7.144668923119765376e-03,2.869081156322394587e-04
5.414381005767424787e-02,1.006349749239082297e-01,-1.544841333262351735e-01,-3.201041827374734999e-02,-3.213030991638963292e-04,2.330239192914437471e-03,-1.866793583271102869e-02,-8.265732575601887145e-04
7.325560832107046172e-02,-8.897771997478363948e-02,1.548088937059938740e-02,6.956434523782502669e-03,-2.666257102227215518e-04,-3.457791284444435877e-03,6.465470710044827693e-03,1.321363259505674165e-05
3.710396259774830646e-02,-1.939730076747391355e-02,-1.607252669477712143e-02,2.157156487187828625e-02,-5.263307058098482677e-04,-1.534157488641230659e-02,1.365600598547615438e-02,9.207663335980902731e-06
4.420001766772249652e-02,2.413729911759202734e-02,-8.386398594804687912e-02,8.489775462233910275e-02,1.667028203843319914e-03,4.070941407630699477e-02,-6.723934554722191259e-02,2.492646034544193190e-04
1.859397547031401698e-01,-6.702174340466068511e-03,-1.491128605448057698e-01,-2.774348138028475547e-02,5.202929168444919272e-04,-8.843993545797129360e-03,7.495232030759101105e-03,6.582256625902089407e-06
-2.274524268137540634e-02,-5.056239131605710924e-02,5.487692984033044896e-02,-2.733822367858803129e-02,1.032570957214489112e-03,-3.909043817820989641e-02,-4.404410530241230359e-03,2.770052549467403495e-04
4.745119564213989144e-02,-1.257312420738285717e-02,-3.393753688458399365e-02,-1.510054707141016486e-02,1.189922429674250548e-03,-1.106641339372172600e-02,-9.027489878292577208e-03,2.705711576479280186e-04
-2.274524268137540634e-02,-5.056239131605710924e-02,5.487692984033044896e-02,-2.733822367858803129e-02,1.032570957214489112e-03,-3.909043817820989641e-02,-4.404410530241230359e-03,2.770052549467403495e-04
1.359076409426272503e-01,3.651334115630142183e-03,-8.333537284601735817e-02,-2.970390786226131952e-02,4.950205682874036671e-04,-6.961502924048739924e-03,-3.033810501988981698e-03,6.108545842152014568e-06
2.272375374891308711e-02,-1.110368289750127656e-02,8.855128045155549743e-03,-2.540170651792715215e-02,5.264444687040291913e-04,-7.068663170702381426e-02,-4.988489942919204119e-03,2.844017824523179341e-04
1.000193073629565832e-01,-1.054533943872201437e-02,-1.445992340040778458e-02,-2.640806756138246517e-02,-1.888312235769808254e-03,2.089204257655203900e-01,7.325956418168590167e-02,-2.746251939150213400e-02
1.359076409426272503e-01,3.651334115630142183e-03,-8.333537284601735817e-02,-2.970390786226131952e-02,4.950205682874036671e-04,-6.961502924048739924e-03,-3.033810501988981698e-03,6.108545842152014568e-06
1.359076409426272503e-01,3.651334115630142183e-03,-8.333537284601735817e-02,-2.970390786226131952e-02,4.950205682874036671e-04,-6.961502924048739924e-03,-3.033810501988981698e-03,6.108545842152014568e-06
-1.055423633676937784e-01,-5.357321079488844978e-02,1.264767492990149546e-02,-1.196777485588779860e-02,8.721134134919910708e-04,6.021576893449516465e-02,-2.375541915001935876e-03,-8.253862311497682730e-04
4.793123560916677517e-02,5.921105358629792821e-03,-4.065188930033540593e-02,-4.128056851511427948e-03,5.174179961245428195e-04,3.408130602775195223e-02,3.476546741102638088e-03,-1.696847262795393502e-06
6.974683654539179378e-02,-3.404725924951376714e-04,-3.731973861779288443e-02,-2.774265314918820773e-03,9.661367034652843227e-04,-1.501229774673767080e-02,2.437277809434392623e-03,-7.599535696710699260e-04
8.373106799620275154e-02,1.565210053179017652e-02,-7.181006153680694060e-02,-2.988374769951103981e-03,5.510156230209043663e-04,3.379231444593235045e-02,-2.158094411719733118e-03,-2.892643897747936726e-04
7.633299021795851569e-02,1.022870662611792634e-03,-3.188841207049121496e-02,-1.571984908827252919e-02,1.514808282655289232e-03,-4.405234134038554100e-02,-5.088366150605831001e-02,-4.777805263673200881e-04
1.272437588386182983e-01,-1.162725695315161741e-02,-6.256513077379054211e-02,-9.062034501644278262e-03,1.119152444662505595e-03,-3.687730855003800573e-02,-6.568884664690593893e-03,-1.084339222078373541e-05
1.272437588386182983e-01,-1.162725695315161741e-02,-6.256513077379054211e-02,-9.062034501644278262e-03,1.119152444662505595e-03,-3.687730855003800573e-02,-6.568884664690593893e-03,-1.084339222078373541e-05
1.272437588386182983e-01,-1.162725695315161741e-02,-6.256513077379054211e-02,-9.062034501644278262e-03,1.119152444662505595e-03,-3.687730855003800573e-02,-6.568884664690593893e-03,-1.084339222078373541e-05
2.320592337594418186e-01,-1.996921384743539571e-02,-1.237771359661681558e-01,-1.402835224933986734e-02,-4.814987314210238080e-04,4.650720969615795147e-02,-3.900961070832731272e-03,5.511936565265012134e-06
-1.384552345651886840e-01,2.278908190181640550e-02,-4.535136795128400129e-03,-9.783742355188851641e-04,1.414888208746269182e-03,2.234295267703219345e-02,-1.010023483330882259e-02,3.615043926134727794e-06
2.472280844434339431e-01,2.518090688813414552e-02,-6.157194308444026778e-03,2.648816783399234390e-02,-2.579766271813179607e-02,-5.521407030404899829e-02,-2.341686054236183714e-02,2.529179634786371211e-05
-2.571430272314845916e-02,2.738458268420005878e-02,2.369131036615488781e-02,9.932225814298735467e-03,-2.660790053189449750e-02,-2.509684186035788384e-02,-4.093197032899792941e-03,2.700060123091191540e-04
-1.166442164510941015e-01,1.639587753198798181e-01,-2.262171830211913426e-02,-1.266904489066967079e-02,-2.945977449616289092e-04,-8.487452123875415064e-04,1.186793584395311185e-02,-2.258164255406576779e-05
1.485944977507409892e-02,7.578670405827345191e-02,-2.944798198527508876e-02,-1.705083889817125397e-03,-1.047873594126612655e-03,-1.523140475171561384e-02,9.771016186790859245e-03,-4.833361143861714419e-04
4.845710876456542360e-02,9.427045141125023342e-02,-4.187989447298568445e-03,1.216845975109936452e-02,-1.356041548082912275e-03,2.717979390118736502e-02,6.581110062538926553e-03,-2.969353943532164761e-06
-1.691532741076144306e-02,8.590045699505829968e-02,2.316675593076075040e-02,-1.362677229865003926e-02,-1.090947814760150720e-03,9.395099878102495736e-03,4.882421863241248085e-03,2.820116506181829532e-04
5.186838219765851216e-02,1.181532855021303133e-02,7.091361138186590141e-02,-7.567546390844009582e-03,-8.449643976704531226e-04,-4.077326775139007817e-04,4.106571918096330563e-03,1.462517446207406633e-05
-2.088699773396388848e-01,1.131771761794744674e-01,-2.399760204416602830e-02,8.504083718084379240e-03,-1.132057847206406490e-03,-2.650481462263371002e-02,2.236039648519909731e-02,2.836833090859241331e-04
-1.799909713941867384e-01,3.430637806249656890e-02,-8.687614344130051292e-02,2.820925709344350354e-03,2.952191770473099118e-04,-6.820181506531658444e-02,1.964493868839563978e-03,-6.941285892951998965e-06
-1.545553163023290731e-02,3.159829219526107125e-02,7.319446540266605176e-03,4.641998626217920879e-03,5.120307071627337682e-04,2.240102832711604042e-01,-6.028940532956300396e-04,-2.857600334168243841e-02
-6.149517606456990360e-02,4.113801338331159185e-02,-5.702133127268889726e-03,1.634532833361927034e-02,1.137787681822432628e-03,-1.338397750757572280e-01,7.524764243304941924e-02,-2.769454753463406263e-02
2.590377203589522837e-01,-1.915996145508035153e-01,-1.741160070117423603e-02,-4.006863855912108641e-02,-1.088497962065945474e-03,4.726365586218713929e-03,-7.846461024047745453e-03,-2.727380115473014891e-04
5.027090782176292516e-02,-1.765143222548368890e-02,-1.543259408021097068e-02,3.425262097845468978e-02,-7.750656295170685935e-04,-5.454322235459783258e-02,-1.025062518443955930e-03,2.003188547675133162e-05
6.417082765318608828e-02,-2.626681627144129144e-02,-1.851169784575985508e-02,-1.388839016831537945e-02,-4.832637309694752135e-04,2.581080709512695998e-02,3.189268254322343010e-03,5.651847274048285114e-06
1.048115810912940982e-01,-3.856681417679241192e-02,-1.443444564895908500e-02,-2.520482862158186441e-02,-9.620656835150627039e-04,-1.172095987760695887e-02,-1.601357635205949718e-04,-5.639638996925609108e-04
2.764377144442276002e-01,-1.256989595243429049e-02,-1.719777558462264391e-02,-1.980967821726921374e-02,8.243433284533776195e-04,8.329447460842106035e-03,4.398316147686121350e-03,-1.905500169978454903e-05
-6.804346364034222217e-02,9.368013978495988436e-02,-7.265059738899869168e-02,-2.794647427946589380e-02,1.370393588705306424e-03,4.136509856999656155e-03,-2.951360370655640823e-03,-2.144213200173831162e-05
-1.643231373478939439e-01,1.176400955444924651e-01,-5.007964850681213831e-02,-3.376476468850736663e-04,-8.253717535591121191e-04,3.866942245954006242e-03,2.738127525484659180e-03,6.929165031666894843e-06
1.995508723299721163e-02,-2.260286326296262471e-02,1.070887905215462954e-01,2.800182823285290654e-03,-2.254761865233083351e-05,9.741588846388305606e-03,5.720556955950766367e-03,-4.544133374106332682e-06
6.627783021719427237e-02,-1.027027066614804272e-02,1.209230711867294861e-01,-1.781366806021860523e-03,-1.506656861042221981e-05,1.378911498405324329e-02,3.840989489445237976e-04,4.687447286700332781e-06
-2.411296617794266711e-02,2.644681654538435134e-04,-1.537820688454238360e-01,-5.931033291381728693e-04,-1.670103471189489971e-05,-2.738951062929267585e-03,1.765615242564412839e-04,1.106625152899131079e-06
-2.411296617794266711e-02,2.644681654538435134e-04,-1.537820688454238360e-01,-5.931033291381728693e-04,-1.670103471189489971e-05,-2.738951062929267585e-03,1.765615242564412839e-04,1.106625152899131079e-06
-2.411296617794266711e-02,2.644681654538435134e-04,-1.537820688454238360e-01,-5.931033291381728693e-04,-1.670103471189489971e-05,-2.738951062929267585e-03,1.765615242564412839e-04,1.106625152899131079e-06
-2.411296617794266711e-02,2.644681654538435134e-04,-1.537820688454238360e-01,-5.931033291381728693e-04,-1.670103471189489971e-05,-2.738951062929267585e-03,1.765615242564412839e-04,1.106625152899131079e-06
8.227968109273177746e-03,-2.880414139705485960e-02,-2.573868447226679845e-01,-7.860717967030830117e-03,2.824507461219619153e-02,2.908768339068696918e-01,3.802333489805478049e-03,-2.773519115901921378e-02
1.020526473636381576e-02,-2.605651849086435684e-02,-5.929896528927769417e-02,5.651596698179398894e-03,-2.957581786735867459e-04,-5.332535153641334430e-02,-1.003811797727956678e-03,2.656475128742697323e-04
8.168750655416327777e-02,-5.189098339002880950e-02,-1.209871222646994593e-01,-4.541176271138999340e-03,2.730071035549887183e-04,-1.167868845074560846e-01,1.401038451842087033e-03,5.647865956390029198e-04
-8.475238833292821072e-02,-7.513158850433465652e-02,-1.259775392056542431e-01,1.378795059262794553e-01,1.103236566371288037e-03,-8.559150490911290876e-02,3.822282597706730444e-04,1.730652083290259026e-05
-2.068335613714895604e-01,-4.076644061304494915e-02,-5.120590592235185756e-02,1.419886480954077879e-01,-2.579628927091943622e-02,-8.345329520502878240e-02,2.164510018373636945e-03,4.249869057999296065e-06
3.447935222475558004e-02,-5.504409386800149934e-02,-6.968468295334795393e-02,6.415740022370801376e-02,-2.635729651002077095e-02,1.203308531437247558e-01,-2.661901713858983581e-03,-2.772692184747333616e-02
-3.106902390012182200e-02,-6.442672477494866545e-02,-1.270665311921256591e-01,5.607177580541875678e-02,1.943885108687377471e-03,2.439945757505404891e-02,7.135084969472985268e-03,2.362652370046156760e-05
2.522223686418953448e-02,-3.223580967581166773e-02,-1.384325510105221813e-01,9.449890541433578206e-02,2.219388502422355112e-03,-1.695835124873985508e-02,-8.320267960207633137e-03,2.846249877743646127e-04
-5.403734990478349653e-02,-6.177217071386904845e-02,-8.351177857477712352e-02,9.776845332850134240e-02,1.101854652564080665e-03,7.217169482875779307e-02,9.903473573520133605e-03,1.565843871729541420e-05
6.836285313375180250e-02,-9.242213187017706000e-02,-1.941996256164359169e-02,7.452734476614092732e-03,-1.285882539613351309e-03,3.529197620334718899e-02,-2.750579937150180766e-03,-1.430783226547217691e-05
3.502353813164770791e-01,-1.434151765515191412e-01,-1.056109638781667359e-01,-4.390622047583449955e-02,-7.898882083891757989e-04,5.046022682506323687e-02,-3.077539625921914788e-03,-1.160422232663131535e-05
2.344182738964015744e-01,-7.568964471629044399e-02,-6.719800057348648825e-02,-4.074690343218025784e-02,-2.738771471093508561e-02,2.640356630594932561e-03,-6.908493525642990865e-03,-2.709316945883247078e-04
1.461547914085624053e-02,-2.666626789534588468e-02,9.825546372392567410e-03,-2.085151533412714017e-02,5.723955983229125476e-04,6.133986305177811967e-03,1.186379858039909082e-03,2.870018486381393607e-04
3.020475736793697408e-01,-3.041361734712545034e-02,-2.734992650796301203e-02,-4.064336318539451751e-03,-2.844420000181265354e-02,-2.522952326270936838e-02,-7.441229060817485322e-03,1.834972339952842332e-06
7.650223452846113825e-02,-3.172249113386026859e-02,-1.157710882664280197e-02,-2.889926463079198204e-02,5.787052291732995828e-04,9.633798442802469011e-03,-3.084148756033587178e-04,1.042684221624329125e-05
2.557275574623485426e-01,-2.538461300071775256e-02,-5.833902714320093712e-03,-1.104940571460441209e-02,-2.174765108547525947e-03,-4.912260592867686432e-02,1.954948504639823174e-03,5.482900859150495942e-04
-8.024871399380149872e-03,-5.347649038644342392e-03,1.230319443003648761e-01,-1.569134781187011066e-02,2.952616597878832409e-04,4.996597663624398333e-02,1.134329355423988528e-03,2.860245597070812580e-04
1.567988853051973108e-01,-1.448288144537715830e-02,7.426401838093792292e-03,-8.910449763410448112e-04,-2.690334665496014674e-02,-1.160343336239204326e-02,8.542614824424161341e-03,5.467228881934204244e-04
7.522740273621644769e-02,-4.652842478063003162e-03,1.432749249659009613e-02,-7.881038070194801726e-04,5.547290307599921089e-04,-4.317823945040667744e-02,1.163655534936453408e-03,2.901290137383437688e-04
1.567988853051973108e-01,-1.448288144537715830e-02,7.426401838093792292e-03,-8.910449763410448112e-04,-2.690334665496014674e-02,-1.160343336239204326e-02,8.542614824424161341e-03,5.467228881934204244e-04
-1.080891676166913576e-02,-6.995408066607630704e-03,-3.065242484564327866e-02,1.325220098301232441e-01,-6.166217973836323526e-04,2.809781469192759035e-02,-9.316806132585806876e-04,-2.901598913562872402e-04
-1.616098013695189267e-02,-2.892496783574527441e-02,4.866243326908505779e-02,1.531553083358258016e-01,-2.836616737790835160e-02,-1.967643485607447479e-02,6.470278552410965722e-02,1.422539167441326004e-05
9.274914720093492201e-03,-1.701695098034385761e-02,-2.920008693216947365e-02,1.532948123783411387e-01,-1.405378411061935237e-03,3.284789588147793036e-04,-2.994903577917149180e-03,2.709810703947356674e-04
-2.756633044710063429e-02,-2.067825618070070343e-02,-9.298774041530849174e-03,7.702706004095129233e-02,-5.812139496145726520e-04,-5.171808475103548694e-04,2.156833564376678131e-03,2.602023882657068646e-08
-3.690058041080861856e-02,-1.455775695658357259e-02,2.631065054285932486e-02,6.825272085609303263e-02,2.841619927986450619e-02,-9.548319082679782716e-03,-6.128984732308772297e-03,7.676108584206026717e-04
-5.253466907826330468e-02,-2.165498411280036492e-02,-1.130746543516844907e-02,3.737855024972740886e-02,-5.531244277858840801e-04,3.412993571085914252e-02,-3.285777047489790888e-03,2.869909576771861848e-04
3.560304358556330012e-02,-1.178309560489146368e-02,-1.030550455458199288e-01,3.459901032363901091e-02,2.830072253393798015e-04,-2.480586564188232493e-02,-2.677539498827907196e-04,6.585405086193589070e-06
-3.766831435909687859e-02,-1.601850692919786368e-03,1.788091365183439724e-02,3.489451865482489507e-02,6.427388959681130812e-04,1.553982347513450588e-02,-1.890613207511893058e-03,-1.278614797162107158e-05
-4.936429408740490576e-02,5.498695803023602099e-03,3.872883538190049352e-02,-7.615628160924869938e-03,-1.061651139770667246e-05,-1.447253798934671765e-01,5.748464346635816409e-03,2.923186809357351682e-04
-3.256156726378652000e-02,-3.619448436521435081e-02,-6.271436787523401724e-02,3.220226673626975372e-02,8.403290917697538078e-04,1.089766370411714147e-01,2.695114182431769100e-03,-1.918886898839430055e-05
2.045907850760472074e-02,6.201128123752757369e-03,1.885565775648530978e-02,-1.529144300534588698e-02,2.963238699480484281e-02,-4.438464905736393476e-03,2.436506579264673296e-03,-2.186036750088289569e-05
-9.936978013884555094e-02,3.769019763467999079e-02,1.601468620102499199e-02,4.888885345314669152e-03,4.895575790851158533e-04,-3.653650575105993337e-02,-5.606404896920402781e-02,2.861740160711950896e-04
9.240972330182544575e-04,-3.563558748342174343e-02,-2.344420685064582330e-02,1.547970574515171970e-02,-3.231931171802648883e-04,1.721398751005067118e-01,5.792836061978662646e-03,-3.373667057254957154e-06
4.863798654785429082e-02,-4.626349700110396609e-04,4.329943332131550027e-02,6.272925415953699291e-02,-8.632701996766966928e-04,-4.841488888566897186e-02,2.137480020201840396e-03,5.845126607900738870e-06
1.583163907353965505e-02,-2.067152356638472452e-02,1.417366862488910785e-02,1.611783537732077234e-02,3.469017487492181795e-06,-1.941222660746769191e-02,-2.369195917516050270e-03,1.718203172789613416e-06
-1.613978541128487376e-01,1.415611677934043057e-02,1.508086288066077564e-02,-2.207057217373805530e-02,4.333354158160942007e-06,-2.373250661012258310e-03,9.129121137864876223e-02,-2.827479624392899640e-02
1.533950455601819363e-02,2.847996250919806842e-03,4.427737631997928636e-02,1.622037046968821672e-01,-2.756920085731767982e-04,-5.515317345343345723e-02,-3.666935190445524441e-03,3.070646740820815346e-05
5.531114942031838122e-02,5.562648748413496005e-03,-2.693361523700603041e-02,-4.265241979806980860e-02,3.576830686162786989e-04,-3.890306453854515227e-03,-8.083894199998727104e-03,-2.005219762604878422e-04
-3.219111837674108658e-03,-2.721297862076124674e-02,-5.894867631518831835e-02,-2.544397216232973172e-02,5.903496432109227787e-04,6.567175783123163288e-03,-6.523770343401969103e-03,2.917985893744328438e-04
-9.789943084876578938e-02,2.870054636002972170e-02,6.840135540452717267e-02,-1.496860014965316690e-02,-2.516518410942097223e-04,4.787198668241289014e-03,-6.707405488139859748e-03,2.967879398487695188e-04
-5.393259823428318660e-03,1.473179004124739854e-03,8.545495921839233594e-03,2.002190838263247924e-02,2.926651031148681022e-04,9.679679488616639571e-02,-7.161837291443212336e-03,2.938079891529876415e-04
3.726007055032139192e-02,-5.357087253690746322e-03,-3.686390867148849754e-02,1.877594866397355733e-01,-2.856745562631202856e-02,7.698123436704415457e-02,-1.407551247674494136e-04,-1.440431611051346003e-05
5.639934625718313194e-03,1.409985355698036447e-03,-4.272432835248648510e-03,1.945487796925935708e-01,-2.855156222667560792e-02,4.013759056298909361e-02,3.017030395239267502e-03,-2.870827904758906091e-04
-4.137598584014700459e-02,-3.053941595700127368e-03,1.891035139233796653e-02,1.246442484212901824e-01,-2.691042671690653879e-02,-1.975728452874633834e-01,8.478455353169633488e-04,8.482789490584051592e-04
9.788458776003672313e-02,1.818436603278216282e-02,-3.534699884979820850e-02,3.946031621893722474e-02,-5.813217134992718039e-04,-1.448843173680574303e-01,-2.255888918865615704e-03,5.602648184323662456e-04
5.745392060938329937e-02,-2.004773678891390212e-03,-1.121350373835454037e-02,7.488649168482638951e-02,-2.881523696101559191e-04,9.499321669368163135e-02,-1.024006684881642332e-04,-8.284021713433894427e-06
-2.331057683270413017e-01,-6.734586364305661030e-03,-7.229392773549952675e-03,3.433893308749109280e-02,-1.120577119921153941e-03,3.071897636970402634e-02,8.108911565960419052e-03,-5.592807839020273817e-04
-1.203737226810341551e-02,-3.086177670727168311e-04,-2.173795342880573828e-02,-3.958809205689260979e-01,2.881298964814483360e-02,-1.598518710612897853e-02,-1.778914416743588786e-04,1.005136020220942749e-06
-1.728724810409317664e-02,-1.133034143149390990e-03,-6.225169466169468493e-03,-1.367871319723829582e-01,2.880947930241521335e-02,-2.411867026166593028e-02,1.073547195360085367e-04,9.605482895955438846e-07
-1.980002540621900869e-02,3.320757470753132358e-03,-1.475282943718000950e-02,-6.722464836590846815e-02,2.974279859600582367e-04,2.243219413620407832e-02,-3.270655273727114676e-03,2.823218252226358674e-04
-1.134966563027238126e-02,-1.329480705130409883e-05,-9.176181144204520121e-03,-7.265301199662096976e-02,5.867188078401209313e-04,-7.519429387898466169e-03,-2.494783889046341222e-05,2.646960612560580463e-06
3.942567350286532539e-03,6.206540597459632956e-03,8.570168337254945728e-03,-9.088478697958342692e-03,5.891814236864467485e-04,1.857325950132863168e-01,1.477549919210567890e-04,-1.636215173725226967e-05
2.890881901288022172e-03,-6.224338814356830500e-03,-3.348658337991551603e-02,4.390926943305778485e-02,1.322983539059685562e-05,8.254791561839466829e-02,-2.765181653643785601e-03,2.716531345525781274e-04
1.382326152818741730e-03,3.535987770757549782e-03,6.853752386633962974e-03,4.370929392137785224e-02,2.691782507091761839e-02,-1.243838216353361156e-02,2.164234354520127353e-03,7.725374791552989950e-04
1.556852309818531656e-02,-9.064091571499399702e-03,-3.365022646313985122e-02,2.364993862802245925e-02,-9.518298114573609580e-06,2.496206622130679731e-01,-5.097721531521702022e-03,-2.987040143977690606e-04
-2.819562592994702063e-02,-1.371808526225736478e-02,6.284024444885757954e-02,2.278341787829396038e-03,-1.999032154669089635e-04,-1.197922938708019247e-01,-4.634118144721402835e-03,2.825000681644001047e-02
1.121261356889521055e-01,1.341387463068304843e-02,5.658425100252445494e-02,-4.011151798470848073e-02,-6.992626979159646046e-05,-3.245905251365867328e-02,-4.874836205845541059e-02,2.901724845056905043e-04
3.386924929828998010e-02,8.195548372151280694e-03,-1.129863188567486326e-01,-1.327388001774513528e-02,2.769996428452385293e-02,1.892560912390934269e-01,2.782555321559243566e-03,-1.374911660131653912e-03
-1.361866197650896072e-03,-5.050660267385123810e-03,-1.640941045590899473e-03,2.950726925942466147e-02,2.669388096649460756e-04,-2.734609864529284270e-02,-1.102865189246189301e-02,5.697966443709947312e-04
1.427991407525661116e-02,1.706456206490396948e-02,-3.842457947750678449e-02,7.751992169233274180e-03,-7.128529411039152136e-04,4.771389114372811407e-02,-4.324554239960282966e-03,-1.348270287563287681e-06
-1.057387608617714643e-02,-3.746553201229847144e-03,2.563128103810419049e-03,4.353367240798242804e-03,5.135296664893207633e-06,6.703404808169251272e-02,-3.405533998821430814e-04,-2.018568381626598134e-06
-2.424464428716635242e-02,3.677051439833835776e-03,-1.423538941004680314e-02,1.278416063547552495e-01,3.880057372296109457e-05,-2.361860997172865462e-02,-6.095804389155393826e-02,2.526099311723161572e-02
-1.552963254151153161e-02,2.047619180787702171e-03,1.968227202523552960e-02,2.334526863164054222e-01,1.016670672236430552e-05,-7.574365389393046544e-02,5.122830359450332872e-04,-1.098871262336219899e-06
2.182698614668695039e-02,-8.854287272570225686e-03,-8.779440768381277516e-02,1.730672220819165497e-01,2.858795310057805840e-04,2.298606864536908156e-01,-4.078346621523260104e-04,-8.374071953261665643e-04
1.824455220612528463e-03,1.166591964769918277e-03,6.335540914689911669e-04,2.143311469770855376e-02,5.777650894327579067e-04,5.990856602213771170e-02,-2.899105763159275703e-03,2.685025674535126711e-04
1.952379137058883260e-02,2.766436530362009240e-03,-4.815705479369874510e-03,4.879960188398228121e-02,8.437496358015097227e-04,3.884206965960927682e-02,-8.932835539275726586e-03,2.759469873446430597e-04
-1.521607103608886916e-02,-6.873068199045577302e-03,6.760467761248206871e-03,8.481587355415730334e-02,5.796081114334370672e-06,-1.293916759641331460e-01,-3.863443070669763378e-04,3.712949671936372830e-06
-2.142590691078368609e-02,6.063546220497579783e-04,-2.953466950150828232e-02,-5.126064384781013963e-03,-3.047653182596283682e-04,-3.905910247868671359e-02,4.469956650618072194e-04,-4.953394305617032835e-04
-3.736891618238798174e-02,1.670627643633898485e-02,-4.781194992768687119e-02,8.686543569641396248e-03,1.769483654952875597e-04,-9.288706071272304077e-02,-4.590906988565452221e-03,1.044542671724361547e-03
9.725699709282205341e-02,4.102451821113886968e-03,3.291896759463582706e-02,1.758176284472659587e-03,-5.681978573589806800e-04,1.318460122462050341e-02,-2.071183600585925109e-04,1.876271921013444866e-05
6.031673200088022435e-02,-3.570920462115254046e-03,-3.565055716254294290e-03,1.237035450798758957e-02,-5.757389871341922136e-04,5.573732993255145311e-03,2.772831813995518683e-04,-6.624793045202295766e-06
2.324480773610510323e-02,1.800731408729162788e-03,-1.651874667464462570e-02,8.029916534608999568e-02,-2.715465930289148039e-02,-2.017217116653023667e-02,5.382121815972555059e-04,-6.996213227799330432e-06
-4.400202893715310717e-03,-7.952602501350464204e-03,2.340433101118214940e-02,3.015946472784292938e-05,-5.757112922818401332e-04,4.603764478174719038e-02,-2.267315215369723573e-03,2.798181476561376253e-04
-1.513472759700554005e-01,2.515897295907288528e-02,3.784526236124288821e-03,8.983242132392410192e-03,2.856763097239318344e-02,-1.092417676181036378e-02,-7.095123114039324046e-04,-7.330050916518222972e-06
1.346867043698193357e-02,-4.296975978577260297e-02,-2.135565986777547900e-02,-1.635144974510248372e-02,3.030660603331446776e-04,9.987752115991118534e-03,-1.385510886724251054e-03,2.594289656800077707e-04
-1.231646688473915334e-02,2.418783518193197424e-03,6.855143813948190445e-02,7.848398927882496712e-02,-2.798993694553676779e-03,6.256421377863978506e-02,-2.823337167019788173e-03,-1.097438668227071826e-03
1.359665745149936898e-02,1.273701551420186595e-02,-2.526488295717480015e-02,-3.927052449686945987e-03,-8.340303020946659420e-04,1.749462329419956136e-02,3.625538247379288259e-03,5.224306234560892152e-06
-4.830186517207650174e-03,1.419546662093807386e-02,-1.128818140608122897e-02,-4.385187932328705324e-02,8.588807792644879155e-04,-1.830461039887782207e-02,6.071698228885630440e-03,2.795039151161353864e-04
3.869935901314275339e-02,-4.413504897247674330e-04,1.832356699794402202e-02,2.743200257023937182e-03,-3.577028326440246498e-07,-1.731862932175976411e-03,-1.790033112360745989e-04,4.533002354980812684e-08
-5.054937643768284139e-03,-5.640056189917877223e-05,1.278774774836362663e-02,-5.469399284463631258e-03,-4.403014450833240426e-06,5.437087956276317330e-02,4.958304617445603944e-04,1.294753542372715278e-05
-2.217197522328028664e-02,4.695819851496535989e-03,1.178912057941852200e-02,1.190792072638553571e-02,2.736932116258946343e-04,1.488692912231044316e-02,2.979058075513420743e-03,-2.927305575404197001e-04
7.313232947508754855e-03,-2.463874282347055730e-02,-1.979032318164964353e-03,1.774981072593020959e-02,-1.093980911386542229e-03,-4.404133629193126426e-02,3.647307596167782048e-03,-5.512629424573726230e-04
6.910059591703335280e-02,-3.712336807138556620e-03,2.294471480350607565e-02,-2.489902119869607383e-02,4.877489540583029339e-04,-1.027552403242015279e-02,-8.370166939315262788e-02,3.979443896260119115e-06
9.230563717304592075e-02,7.861309802915276285e-03,-7.682518459014518741e-02,3.957587216509950850e-02,-2.721243437419419256e-05,-1.115731072545394532e-02,-7.225802899102870200e-03,-6.018691394545501485e-06
4.153339293300584850e-02,1.020452886811735191e-03,-2.435849788725142490e-02,3.896944294431032348e-03,-2.976247218352341857e-04,-3.199454044998310126e-02,-2.646869030781681678e-05,-4.952493087800664178e-04
5.271622600545764273e-03,-1.399241487471160512e-03,7.194570378593986848e-03,1.762023162636310036e-01,-2.883163819032115785e-02,1.618734708971798428e-02,1.499666980917028461e-04,-9.343994875672951547e-06
-1.027649227007043295e-02,6.147507236082858204e-05,3.384758008488040430e-03,2.072072241106346913e-01,-2.911584907569894631e-02,-3.329233416060396224e-03,1.280963506471683529e-04,8.528102219560860889e-08
1.928145293082163952e-02,1.296417316868707880e-04,-6.978364831242485355e-03,2.017122729425163130e-01,-2.852639468105252346e-02,-1.168211134437944013e-02,-3.999368841932387196e-03,-7.035805464767963228e-06
1.454575356233297687e-02,-2.657769242233248147e-02,-1.077302823863959726e-03,1.377732581220958430e-02,-1.087186668521530637e-03,-7.865047122429742743e-02,3.650252792973523314e-03,-5.503118508077487403e-04
-1.433079464418203844e-02,1.478230623709509382e-02,-2.393624873880412490e-03,3.387611501823226817e-02,-1.390757108087788780e-03,6.421655451561067429e-02,-1.040858880489100875e-04,-2.705989922757700552e-04
-2.024669333563944469e-03,-1.166376650762529586e-03,-3.678329568854667164e-02,-2.726984736141691013e-02,2.784861370993028202e-04,-1.961096483706884983e-02,1.912539940254422464e-05,-9.228611146574032135e-06
-1.480518413712696990e-01,4.005359673367075296e-02,-1.501276430115649693e-02,-2.211099957837047922e-02,-5.626246211692208362e-04,3.559047398454968925e-02,8.065436122719158232e-03,4.124350202547479157e-06
4.076838943985972019e-03,-4.646312475964824509e-03,6.710481094644951683e-02,-1.377172354002927090e-02,-2.512019062940154301e-05,2.820100228174348203e-02,-3.059647876659975924e-03,-2.078261416717715621e-05
-7.813957534602820887e-02,6.187989443703032291e-03,3.381913851361680740e-02,1.508148739562734965e-02,2.682972502160376914e-04,-1.110950154818687169e-02,-3.873624630836025769e-03,4.995390379456711269e-06
-7.813957534602820887e-02,6.187989443703032291e-03,3.381913851361680740e-02,1.508148739562734965e-02,2.682972502160376914e-04,-1.110950154818687169e-02,-3.873624630836025769e-03,4.995390379456711269e-06
-1.744816610072918300e-02,1.257530012124710283e-03,2.015994591093905192e-02,-1.272529908332576884e-02,-2.618554137224488976e-04,1.047178235931289780e-02,8.071259355092759435e-02,-2.856525241986702587e-02
-1.389444930087650742e-01,-3.534688129118825073e-02,1.600366903472617841e-01,-2.290823986416371666e-02,-5.959218499905331819e-07,5.237251434204562989e-03,-4.094264903813354256e-03,2.822244857675090357e-04
-1.593540118417152013e-02,-2.977404101372268380e-02,2.436365036891522881e-02,-1.781242951133361896e-03,-1.087364148966039109e-03,-5.578859974378471559e-02,4.639341041350303991e-04,-2.632544207278382400e-04
9.056994407388156698e-02,6.991918158352152315e-03,-8.273156025504357566e-03,3.087551876872922027e-02,-2.798647439599609779e-02,-2.852676261229430271e-02,2.926031155641710402e-03,-2.932456296858387108e-04
-2.672671440554898539e-02,-3.943254472705991220e-02,-3.831201648521356806e-02,1.362724087302693253e-02,8.540978459298682055e-04,-1.326355073392921149e-02,3.016867451879940917e-03,-2.812223296470647165e-04
-8.612678803364020891e-05,3.532137409850082121e-03,-1.199066682834540321e-02,-6.908157534099586446e-03,2.980524657369805963e-04,2.352366975068024418e-02,3.274576228478184251e-03,-3.080904071346212770e-04
3.475893340109698082e-02,-9.892152753842359605e-03,-9.241178850552991819e-02,-3.053824475353181245e-02,1.016808393638308486e-03,-4.302404710005513708e-03,-1.495154525236023135e-03,4.674455656336189710e-04
1.375383379046613529e-02,1.015255284461300499e-02,9.517265585138599826e-02,-2.455884435338854394e-02,-1.601582175733084099e-05,-4.020566909556070462e-02,-4.592907262687453626e-03,5.507147726165437674e-04
3.882188339272257122e-02,1.877052762949081577e-02,1.353722893032307042e-02,1.213876809200467310e-01,-2.747004096230994813e-02,-7.396182905978058997e-02,-7.684225325016636257e-03,2.284791120649930604e-06
-1.547359828266789937e-02,4.888872583387193424e-03,1.442052013708268465e-02,-1.107979809845791161e-03,-5.518362130510377425e-04,3.377957244792485769e-02,-3.378453039241747450e-03,2.047020771156200618e-05
3.124390268837440310e-02,-2.091941674874365532e-03,-7.688222644979286757e-03,6.351152220797817716e-02,2.557473437557478135e-02,7.348747557607096526e-02,-7.200996746022464423e-02,2.720399728862041983e-02
-7.381959812481204974e-02,-6.279555077126778087e-04,-2.076507375330591265e-02,-2.916815722973584765e-03,-7.558451857935922060e-04,-4.240946642250160818e-03,3.109962164439654571e-03,-5.476003679320549152e-04
1.120394747617481368e-01,-1.871297796790994533e-02,8.168088682009921409e-04,1.530933019140319831e-02,-8.255859517895417030e-04,1.047686921936955562e-01,-5.817713832679462238e-03,-5.399054925046505894e-04
2.332234680552770778e-02,-2.481988172980274104e-02,6.991420629421983210e-03,-7.254145800474976272e-03,-2.152549650844505589e-03,-5.146319562240442291e-01,1.528883946718949741e-02,2.859711118223835433e-02
-3.999908749826570215e-02,1.541242559532161015e-02,3.060389170073605364e-02,-6.005771712972457141e-03,-5.412431900809660038e-04,4.343205548674265726e-02,5.520486268119716329e-03,-5.581170302354472937e-04
1.696269261639077874e-01,-3.456709676435884386e-03,-7.937321011345513724e-03,-7.201995500015989649e-03,-2.691053184352020303e-02,-3.257959060954041669e-02,-4.628550045131134272e-02,5.484494754721355204e-04
7.201347885708558882e-02,-1.141090775776972596e-03,1.153351896547447943e-02,-8.984951739917593910e-03,5.363374368116366779e-04,-9.000431244264457328e-03,-4.096112939579277246e-02,2.658695619725668009e-04
3.689536219046339882e-01,1.863803655977648533e-03,-3.616978372724261037e-02,-1.559407622993417121e-03,-2.544848187650997767e-03,5.188322116757782682e-03,-4.073490933849928386e-02,2.473648816620353428e-04
1.745434550940395220e-03,-1.639475564653743839e-04,4.584693767699215758e-03,1.621418146617480431e-03,2.427645655625745510e-04,2.657875999875715031e-02,-3.811935879046675357e-02,2.669651058080696384e-04
-1.098565179181934387e-01,6.877493582448277257e-03,-2.726923193464076377e-03,-2.599696135526877779e-03,5.195123270963216766e-04,-4.123688806095510140e-02,-2.675849542479372817e-02,5.515390680108621119e-04
2.128495058170482290e-01,-1.847782214692250376e-03,4.020851334748584693e-02,-3.116385211014705003e-02,5.045000479915855976e-04,-1.907338018888083894e-02,-8.785864224224823604e-02,1.164173958800554626e-05
-6.157845717678313985e-02,-2.304804550521597981e-02,4.577200421788756024e-02,-1.534232736072297168e-02,1.105993445620378915e-03,1.047424590894060065e-01,-5.035807118317812275e-02,2.563987692291620508e-04
8.388835811438398460e-02,3.880567566282508429e-04,-6.048500016383365901e-02,-1.442651414072728885e-02,-3.432021954431330570e-04,-4.071843794793688492e-02,-3.539800543302214914e-02,2.796426275287010169e-04
7.179349621863068132e-02,1.790458713303078042e-01,2.274575916839469136e-02,-1.325039138471278445e-02,-3.383453312317009085e-04,1.725009079835197485e-03,-3.288395612316044603e-02,-2.622780567571820825e-04
-1.217510562887615666e-01,-3.962731131916472083e-02,-8.035702778453590253e-03,3.327774696507949329e-03,2.819550318140009310e-02,-4.657475596182396316e-02,-4.919184399348337788e-02,-2.404766396574498847e-04
3.300941881219568996e-01,7.156369186755796689e-03,3.743230341506804948e-02,-1.056550673397286047e-02,-2.588590205249146139e-02,3.418826363717966665e-02,-3.015103675123936150e-02,-5.215236249572855485e-04
8.841487379218325449e-02,-4.291697997324286223e-03,-2.317711351470499309e-02,-2.469485332860283820e-04,9.328510171462750175e-04,8.869672305093633403e-04,-1.025782858922052142e-02,-5.254970147796518814e-04
2.118517026310997031e-01,-8.537144893341518104e-02,-1.273738416403787967e-02,4.614818990438328272e-03,-3.553282438824432630e-05,-3.020545288063818459e-02,1.085690642128377820e-02,2.695853512590583268e-04
2.118517026310997031e-01,-8.537144893341518104e-02,-1.273738416403787967e-02,4.614818990438328272e-03,-3.553282438824432630e-05,-3.020545288063818459e-02,1.085690642128377820e-02,2.695853512590583268e-04
2.955225783706082465e-01,-4.998133735968756514e-02,3.911206027633632766e-03,-2.681875200375800558e-02,5.560951712258475682e-04,5.188291867964940629e-02,2.760900731785137854e-03,-6.071857476082316097e-04
2.586155412041193369e-01,-4.561148132555516155e-02,2.698545411429607507e-02,1.760405165766140007e-02,-5.453227108016924559e-04,-1.184104838976321808e-02,9.136686970056435986e-04,1.682232902151897030e-06
2.879553533294993903e-02,-2.674131398756741246e-02,-2.930095329464530579e-02,-9.785513030152617406e-03,-7.599678605586742981e-04,1.342696702552376997e-01,1.491430141486626594e-02,-7.946944299282628901e-04
-2.877336052929926891e-02,-1.228860043213140935e-01,6.995121650724440976e-02,-6.928791440699343454e-03,8.136996520250692208e-04,-6.315976366156429885e-03,3.554282512530396350e-03,5.120906474077908813e-04
-1.169129002068917400e-01,5.638360078602715209e-02,5.804327441284779301e-03,-3.222576471930073405e-02,-2.695557528434852634e-02,1.996499330224294211e-01,8.490521247008039896e-02,-2.690660055550016597e-02
1.810484852100257419e-02,1.518193571781091891e-02,-3.037901495809952612e-02,-4.948594782726343545e-03,2.645507773310051803e-04,-6.218413528209344732e-02,-2.163210808855792287e-03,5.517888519333430950e-04
6.724716241565019403e-02,7.626827684243185634e-03,-1.259995511932155386e-02,2.086980101485703953e-01,-3.148454205570600547e-04,-1.095217225919084200e-02,-8.563793769594160721e-02,-3.098091290216151974e-04
-3.582787561634198648e-01,-1.912181861811967486e-03,4.530404210824718336e-01,2.402985433552687691e-02,-4.667913584936954601e-05,1.697208817553531174e-02,-7.564346171024763366e-03,1.583304747737955337e-06
-3.643014860625919810e-02,-5.320373754123804838e-03,1.504745067475083894e-02,-5.270404471939179594e-04,6.272149350275221672e-04,-3.459113733091694759e-02,2.862146629998373222e-03,6.925571979476898522e-06
-1.438278052718400604e-02,-3.328774614888722026e-03,3.565143578172681738e-02,2.502981475474680938e-04,3.368796374303265105e-04,6.360333863897184303e-02,2.595929470076006624e-03,-2.879131754530336591e-04
-2.255820475989482599e-02,-2.161387846186986657e-03,3.206955633228173591e-02,2.679660416514743210e-03,-2.936817601742749279e-02,6.077182496684870733e-02,2.595900897329284172e-03,-2.880012981597868680e-04
-4.696611545284525013e-02,-2.012170603458594484e-03,-6.673252830634054771e-03,-1.541957300923740316e-02,-2.748706978151790187e-02,2.763489344255256608e-01,1.054465699822698579e-03,2.722213414394099025e-04
-3.056385045547586193e-02,1.239857432897319839e-02,-1.248655717187460452e-03,2.573961511755514658e-02,1.056935611516471741e-03,-1.729962172114968832e-01,-3.724562926642509958e-03,5.394623376598888659e-04
1.040189513107622928e-02,-1.266338762800321358e-02,1.216454761254892082e-02,4.031040427863148180e-03,1.275869141746915209e-05,2.911185577057114927e-03,-1.885487760508242462e-03,1.481750506985070280e-05
-8.321984989242643682e-02,2.493560415931668473e-04,5.304482642876153647e-02,1.564139417485048682e-03,6.998014287277735758e-06,2.247571261115231811e-02,-2.747217758449023352e-03,-2.007081585017139899e-07
-3.186099526818677447e-02,-6.568154922490514191e-02,9.958364776858212586e-02,5.493614095738820480e-03,-5.320640272964615933e-04,3.474153642894424552e-03,2.775618046223549715e-04,3.871221829741728390e-05
-6.021343371708613723e-02,1.763645170381413635e-02,-1.364712115699049377e-01,-3.078466107145646710e-03,2.857519630250990599e-04,2.665418247354659625e-02,-9.508559957165050322e-04,-2.456805604122574908e-06
-3.797687682204177462e-02,-1.806308082752341396e-03,4.027267301391822263e-02,-1.714928355672169433e-02,5.564057214702565262e-04,1.500045282522042070e-02,-8.493487713412321925e-04,-1.114676362521377187e-05
5.543139851405918736e-03,5.117364420368520489e-03,4.034520009421831144e-02,1.518341595426919988e-01,-3.001275945226070563e-04,4.560305320155413314e-04,-7.350561017320331181e-02,2.743925022788203539e-04
6.068073848566148121e-02,6.711566195007514883e-03,-3.371824687032212720e-02,1.674386072278543844e-02,-8.383592765366907913e-04,1.572060080606963589e-02,6.280870571810033380e-03,-2.855093831673545093e-06
-4.503314751077846373e-02,7.273433018345550494e-04,-1.540500419180050248e-02,-6.477026885010943313e-03,3.187710162639253476e-04,-2.960030556743369415e-02,-1.935727323150428225e-03,2.882990804837656470e-04
8.185963849912551021e-03,-2.077703572688042316e-02,3.359437146013342923e-02,8.676840322418891398e-04,8.389463764902540394e-04,4.049608320587097521e-02,-1.549775260562393853e-04,2.664298588930072193e-04
5.242864631730270730e-02,-1.659643080859792355e-02,-6.229886498976532072e-02,-2.030474201716980232e-01,2.883589155915270265e-04,-2.806218799729411680e-03,8.050568188807824543e-02,-2.780315339562901885e-04
6.035258788987614420e-02,-1.893173231885301316e-02,-3.590220793680966305e-02,6.894184542550854319e-03,1.125910835184438684e-03,4.157936763627049365e-02,-1.011882787787799290e-02,-2.798810533442075768e-04
4.714748508924284515e-02,-2.001639222726712269e-02,-2.301618920362677803e-02,5.477476711765681336e-03,8.184415429997521970e-04,-6.418708513227963652e-02,-9.926071313830463205e-03,-2.796376824858493081e-04
5.957748632912499703e-02,-3.070088149248050360e-02,-2.388052408031005741e-02,1.278905979481863645e-02,1.120271688500927001e-03,3.645837072351414826e-02,-1.611260336032940832e-02,-2.545352914044151532e-04
1.071772522573448188e-03,2.045300969891738433e-03,-8.078187991199220486e-03,-1.748560414543957608e-01,-8.344225246634341458e-04,9.316854429196448628e-02,8.577973037107217147e-02,-2.169626106852433195e-06
-4.982825630644825698e-02,1.535685996829792843e-02,-8.437713771830755022e-03,-2.086433502582569766e-01,-5.527099713566501404e-04,-2.608230979965290436e-02,9.292754288333524015e-02,-2.115910710072431938e-06
2.679203499008456224e-02,-7.060070767356524564e-03,3.336545352606905962e-02,-1.457865206392357504e-01,2.806124737802085517e-02,8.955987551519901946e-02,8.096788635054777417e-02,-1.093832224177132030e-03
1.796626128718143214e-02,1.681950779864850630e-03,-1.900529871946899860e-02,2.923285774084058430e-02,2.698458952030193545e-04,-6.378725908316507098e-03,-6.078536255650085138e-03,7.394706568928564750e-06
-2.101791906813760963e-02,5.498531558913934830e-02,2.055132728841966086e-02,3.966191934526522994e-02,-2.470015839350694214e-02,1.268934417019676811e-02,-1.209914361065411552e-02,-4.952333978498714082e-04
-1.064129074463535940e-01,-2.869556051773721264e-03,-8.711271721009631805e-03,1.643488724179642535e-02,-2.576339203071358421e-04,-1.078830510956021484e-02,1.262598151933795078e-02,2.846863490471345437e-04
3.828871742403340550e-02,-1.007642484623203459e-02,-4.816495075647975362e-03,2.436625854126845542e-02,-7.952016076101799894e-04,6.533038045281554023e-04,-1.487733669464998392e-03,-9.474003108768465874e-07
-4.444707057170700637e-02,1.209355651377016410e-03,-9.387425538612380197e-04,-1.113342397219922904e-02,1.092278515259850757e-03,4.846106352231692727e-01,6.003026357444577691e-04,-2.941533378165479481e-02
-1.006057833908184998e-02,1.626854926999482531e-02,-1.776800202225530326e-02,-1.997894983120077628e-01,2.810701457006591422e-02,1.402468984728662271e-01,-5.595837250906090816e-04,-5.255113775610200906e-04
-4.578344713930751139e-03,2.255629848500836313e-03,4.245099577893952925e-02,-2.489424624158258909e-02,2.284934346914682007e-04,-4.886037003449070215e-02,5.147430616007513159e-04,5.321539866180403575e-04
-2.030844356694305394e-02,1.735208405029052547e-02,-7.664756071722227115e-02,-3.197400028005255301e-02,1.580452842557188934e-03,7.410838597968484598e-02,-3.170140613139448178e-03,5.092533631635200739e-04
-1.478120993733041122e-02,1.202651839885870468e-02,2.084697683800063039e-02,2.800710367837278003e-02,-1.000891493396261194e-03,-5.768752246418232948e-02,5.585292471299549248e-03,2.719432585887833140e-02
-3.504480363602457266e-02,4.324918846591143187e-03,-3.211305451921472702e-03,1.255702917996453019e-02,-2.859682056639876817e-04,-2.979531799912707446e-02,7.258954825487234919e-02,-2.769860670385615453e-02
-5.180979939954476199e-02,1.368628547160601408e-02,-1.126120522504909724e-02,3.227477079202031862e-02,2.888845727040267181e-02,1.142705976087993874e-01,-1.000863842027810598e-03,-2.177540937987411211e-03
-6.886015471605283489e-02,-2.951084876964678912e-03,-4.218130866775956188e-03,4.968603102564206515e-03,2.818905897877321885e-04,3.643723882929343627e-02,-9.151663360152312299e-02,2.913419529557371296e-02
-2.451073526566766372e-02,5.450225952704665540e-03,-1.288616928300584039e-02,1.367955276559707986e-02,2.460944683075338979e-04,-6.198633633788437798e-03,3.963042491953479643e-03,-5.630203719406715263e-04
1.441308183248370470e-02,3.199349482994614993e-03,-2.414307116204154197e-02,-1.504837249912174910e-03,3.782558296335780718e-06,-2.858492883805458656e-02,-1.168734325617691606e-06,3.841162405645504812e-06
2.211962641940271816e-03,-8.621507359056134259e-03,1.819993221102198314e-02,5.624352802158064796e-03,-2.743714773278797293e-05,-2.394375047930977565e-02,-2.425052910551949402e-03,4.945190330837515719e-04
-1.709724296687850295e-02,1.877102243335448863e-03,-1.341334640612488749e-01,2.149918431042947657e-03,1.425873985993031430e-05,-7.134654747243567019e-02,-9.626485351197206191e-05,2.413238081384761754e-05
3.332015538468925675e-02,1.575468057183689388e-02,-5.050049206254634410e-02,2.718842661950467490e-02,2.918810761641672455e-02,1.282806634104841637e-01,-4.652289991787456405e-03,-1.106675665864710698e-03
1.616448205893478707e-01,3.246570538428285302e-02,1.810332963842829074e-02,1.006133144208447815e-02,-5.405031823035914840e-02,-7.200856634212424168e-03,3.909834539882845947e-03,2.808226709386691137e-04
3.909418562971966882e-01,8.444129909780672544e-03,3.372681067879575861e-02,4.483081774267273431e-03,-2.883748361704131444e-02,1.990860575907900040e-03,-9.278003325321759059e-03,-2.564638335433685112e-04
8.227054269959342692e-02,-2.815657132634579590e-03,2.136401854517528537e-02,-6.540247184928744961e-03,2.690263433047923591e-02,3.789819299583153944e-02,-6.973284772062932416e-03,-2.774185508668515704e-04
-2.912221123181173849e-02,2.046979684707805891e-02,-2.773152895036298630e-03,1.653542898513569656e-02,-2.658768690674844642e-02,5.840506320525136463e-02,-3.270173998351391057e-03,-5.414579317303012734e-04
3.995110850050399010e-01,-3.428328619018934653e-02,-2.835664595896299559e-02,7.375656464062218740e-03,-3.035795818150961028e-03,-8.152429110095834024e-04,5.103025098936696258e-03,-1.761110956754357017e-05
1.300307594056618332e-01,-2.838925023811107035e-02,-1.267662234925498801e-02,2.214006115599342212e-02,-1.165137408679970408e-03,2.574796399793449764e-01,-1.409806410934516530e-02,5.788575670201710549e-04
-1.412417744880908876e-02,-3.555347668133292116e-03,1.086872280721085451e-02,-1.473209921651870338e-03,2.845857789016342852e-04,-4.306944528004284789e-02,7.466607688067819493e-02,2.800155082947493844e-04
-1.412417744880908876e-02,-3.555347668133292116e-03,1.086872280721085451e-02,-1.473209921651870338e-03,2.845857789016342852e-04,-4.306944528004284789e-02,7.466607688067819493e-02,2.800155082947493844e-04
-1.412417744880908876e-02,-3.555347668133292116e-03,1.086872280721085451e-02,-1.473209921651870338e-03,2.845857789016342852e-04,-4.306944528004284789e-02,7.466607688067819493e-02,2.800155082947493844e-04
-1.755315090068562678e-01,2.232714688984292414e-02,2.556189529675842453e-02,7.698908257831499173e-03,8.861431421168088161e-04,-1.622554827053875395e-02,7.596195182007289826e-02,2.811438743222156216e-04
2.476734182049900382e-02,-8.974246936702501981e-03,1.132057196629433424e-02,2.338781487141558708e-03,-4.975367053284902562e-06,-9.651850303216521348e-03,-3.605818540344919796e-05,3.888990965356109272e-06
-4.213366759348504721e-03,-3.824629394480086146e-03,6.532305490916602911e-03,1.556614935460053084e-02,2.742791829020104627e-02,1.946422445727433170e-01,3.795796675503468852e-03,-1.402800281933856957e-03
-7.688931819101256504e-02,1.932223923279786232e-03,-6.241924824421910987e-04,-4.679711916261671055e-04,3.093690668444764452e-04,6.351978047687245610e-02,4.007405721529819632e-04,2.484522386982934925e-06
2.199533868694531717e-03,1.342664889330995922e-03,1.021753972466897357e-02,-4.637700224106278135e-02,5.501543508178777502e-04,4.415371115446500849e-02,-6.731329366032404171e-02,2.714243342992492258e-02
1.964133934700489775e-02,-4.998058332343343485e-03,-1.839062137538285610e-02,5.829866116119898807e-03,-2.057251266447824428e-05,4.130969340800062783e-02,2.844559513884929811e-03,-2.887076831684164493e-04
-2.783571916833863999e-02,-3.380875880888485618e-03,-1.816709951067439072e-02,2.591660043271985792e-03,1.170593917443137023e-03,-5.986080246815191908e-01,3.055216776733668625e-04,6.589159424553940633e-06
5.442102572726466823e-03,-2.403574538377683742e-02,-8.376366702913713713e-02,1.933379792597009900e-02,3.243828906891147064e-05,3.865419941477275800e-02,3.891966008958023301e-03,-2.593433147610407861e-05
-5.431856495869610141e-02,1.055824361845038827e-02,2.196023247316191904e-02,1.619788116114738441e-02,-1.942972993872005586e-03,-3.140024524241719767e-02,-7.059692367574570138e-02,2.884141875613522449e-02
-6.308893827075655672e-03,-2.010413621042523354e-03,-1.446821927143287535e-02,8.025641385542018474e-03,2.615810883036909533e-04,1.680529608046522558e-02,-6.306068974271756764e-03,5.708355109217929432e-04
5.091442539315330779e-02,-1.980833554547765008e-04,-3.243722728348887030e-02,3.028345268514491453e-03,1.200246971832187878e-05,3.962672084543503170e-02,3.476334099250277896e-03,-5.690504359332604995e-04
-4.694254729126534631e-02,1.834374381037888815e-02,6.254907263489273457e-03,-1.576945982422851833e-02,5.534381614628486887e-04,-5.685401387258620653e-02,-3.519557214133076702e-03,1.122941763831841007e-03
-4.652388717193529227e-02,-1.094547856124543014e-02,1.704600945308433133e-02,8.355618468591150677e-03,-2.881181511682627712e-04,-4.233988456870674266e-02,1.879118340252642402e-03,2.004450753751244967e-06
-1.922731979702010929e-02,2.014916463467631910e-02,3.273367397317396288e-02,-2.685794123158907754e-02,5.418317725596034180e-04,8.056996625718446103e-03,2.553217276865612888e-03,1.684997439259783828e-05
5.167760793131236097e-02,-2.746695037103368507e-04,4.022362017994051374e-03,-1.563074132112950848e-02,-2.744775553595467724e-02,1.384164853824651487e-01,-7.676365326434256460e-03,-2.769670695672420829e-02
1.035340771324069938e-02,1.269803462528275241e-04,1.995492387460698260e-03,2.713758966705086956e-02,-5.840258835731082943e-04,9.962495313561053889e-03,-2.403082719841023261e-06,-9.802566280914249195e-09
2.951003706802624894e-03,4.450345338324715222e-04,-4.239761446254384017e-03,-2.068110128864513939e-02,5.707235439299239736e-04,-2.864269189114691458e-02,3.005719533318344794e-03,-2.813313654086300108e-04
-3.749274988169040701e-02,4.770609053677775206e-03,2.476172189717148336e-02,1.036761892047761285e-02,-2.831501221888216399e-04,-6.408984333938946842e-02,-2.819163228490601512e-04,2.920333434226374150e-04
6.259452588502918691e-02,2.207852986759936513e-03,-4.668238358279878930e-02,-1.902638052055853667e-03,-2.315961238744920304e-06,-1.750124869327137874e-03,8.364727005883473149e-05,1.005960987872978140e-05
-2.657004242927669610e-02,-3.384647325448988942e-02,-4.297553865874241541e-02,-3.062189591452386082e-03,2.837027961265197319e-04,-3.520978625457383410e-02,4.133445912456438012e-03,4.153092284394941454e-08
-9.956500201938793884e-03,2.209157464259143991e-04,-9.150052193919233634e-03,1.450354127396228342e-02,6.520562198689169430e-04,2.317693948706114546e-02,-3.892633375824078833e-03,-1.761015687021282635e-05
-1.214964650999288687e-01,1.659736555905312605e-02,4.888709535355580116e-02,-1.875449839016571450e-03,1.044585281077529309e-03,6.298166109718358538e-03,-4.050360688768100091e-03,5.318986629864258997e-04
1.879903900200251970e-02,-2.149612275053793681e-02,-3.490060398388525331e-02,8.080158812684892777e-02,-2.905266284729948745e-02,3.915894176731975207e-02,-4.497429200824647547e-03,-2.640615392641521009e-02
3.393416258994836482e-02,8.554694083355109113e-03,4.088204704610436807e-02,-1.873699200622841107e-02,-2.858740179028904788e-02,3.628004381599044814e-01,-4.377895706414234971e-03,-2.857817287897582159e-02
1.250743787319052482e-02,-3.429437729508534594e-02,1.155583872640586832e-02,1.019719638736243765e-02,2.710626830604422749e-02,2.755530845474391533e-01,7.043010040638776788e-03,-1.368214445673929377e-03
2.636778194151506022e-02,-2.853755426278479709e-02,-4.558243062461613676e-02,3.531569077646880966e-02,-3.243064783016327379e-04,1.981989881964555111e-01,1.686757894786001469e-03,-7.811303196925977496e-05
6.327539915450347552e-03,-2.114828084091732036e-02,-6.073857343528190483e-02,2.126858379403810673e-02,5.820021963837072312e-04,1.046841863331843259e-01,-4.385320089566942248e-03,5.376758833329031793e-04
-4.675978880872168342e-02,-8.504333142137925766e-03,-8.555505865055845760e-02,2.100245527794662725e-03,-4.662435692843982691e-05,2.735386678645045366e-01,1.178350234224831948e-02,-2.884344957809447177e-02
-4.949960000019257983e-02,-3.171233331829544089e-02,1.441574669152556956e-02,-4.270515510463652152e-03,1.093045704245800085e-03,-6.474313940694985670e-01,7.526300285092077207e-03,1.075135542924646279e-03
6.419834441599660615e-03,4.837652628139632767e-03,6.067709049252660233e-03,2.488126273812531902e-03,-2.883831920190866455e-02,4.466722099602268292e-01,-8.457634710566083519e-05,-2.910291842301233932e-04
3.201045955486744865e-02,3.126163361478011965e-03,-3.012867910212481057e-02,-1.546225993501573748e-02,4.579337601169710016e-05,6.910764933473268097e-03,1.874818443978910811e-03,-5.006803925958449230e-04
2.881449096484567634e-03,6.462346921363172278e-03,1.351942371928589216e-02,4.316733046252667350e-02,-2.965010957822356171e-04,-4.146813687262983911e-02,-4.158599439135747533e-03,1.794256973433135978e-05
-6.335695765571058846e-02,5.030008066791312807e-03,-2.319779983249818780e-05,8.575361022460922106e-03,-5.681430711289693711e-05,-1.088905262916145707e-02,-3.665039147848250768e-05,1.308127810220476004e-05
-2.178987283884471771e-02,2.022438290405751890e-02,-4.790227865718771393e-04,1.664373800771631884e-01,-2.829111898444134493e-02,-1.874432553404054569e-01,-3.413295426733101330e-03,1.468520791387786392e-05
2.730042879531761543e-02,-5.636604165858719907e-03,-1.253436917423359810e-02,4.302110661766185562e-02,-2.677602394190587679e-04,-8.995059660791748790e-02,-4.518428878090490625e-03,2.164394441379345859e-05
1.212131663468837134e-02,-8.644546107911696420e-03,-2.668112946808478408e-02,6.566663218284095327e-02,-1.581801987858656722e-03,-9.552018025911872268e-02,6.245009688340033560e-03,-5.558394402682899805e-05
-1.086604061718056229e-02,-7.259631805723578898e-03,4.644013133369085528e-02,7.692741678266414029e-02,-2.438267895838587378e-03,-1.564810004437334756e-01,5.738471325791286506e-03,-3.854655844493780098e-05
-2.941468469475370245e-02,3.482688187543443725e-03,7.483073448493628328e-03,1.474364295420116898e-02,5.969176750381659669e-04,-7.935843232393062496e-02,-3.752251143157536890e-03,1.095371190592469256e-03
7.041424473021513572e-03,-1.731682145117145744e-03,-7.374148887939174953e-03,5.802364351455866973e-03,-8.515589844105073006e-04,2.013697590250084976e-03,-4.441862829259209241e-04,-1.037680138171869154e-03
2.215005821205492421e-03,2.298996467853672669e-03,-2.984659637457903747e-02,-2.714292011039433697e-02,-7.923094387663316912e-04,1.179066370050054352e-01,2.627565061984131044e-03,-1.628216815339165362e-03
2.623006093334855765e-02,-4.507848512966686205e-02,-3.886765005725388578e-02,-3.449658640190831423e-04,2.817387480399582284e-04,-4.255442377165027240e-02,1.325314376130003571e-04,-4.864325491184564557e-04
-4.826418651816033294e-03,4.030678612970818413e-03,-2.247244748663985298e-02,-3.294528446185020915e-02,5.924954564417554161e-05,1.158929394147553138e-01,3.071751344910052511e-03,-5.905366771672963160e-04
2.705560069179954816e-03,-1.058381962516367208e-02,1.139522029519144178e-02,1.667428743282745734e-02,-3.716356343564751604e-04,-5.289905903093192370e-03,-4.063751744278217394e-04,4.815212948222445796e-04
2.705560069179954816e-03,-1.058381962516367208e-02,1.139522029519144178e-02,1.667428743282745734e-02,-3.716356343564751604e-04,-5.289905903093192370e-03,-4.063751744278217394e-04,4.815212948222445796e-04
9.475427080491288789e-03,3.712312107296721758e-02,-3.457619990001904037e-02,-3.512661200783980670e-02,1.595272071654103450e-03,5.129110474795371688e-02,-1.028598606870274445e-03,5.536112673626746115e-04
-2.479445797879786372e-03,-3.369791382155830350e-02,8.940921193511072729e-02,-3.220414530621489024e-02,4.023925054565243892e-06,3.019990110027943181e-02,4.701575502066610013e-03,4.459475429782860494e-05
1.042882171425278670e-01,-1.191844850313963748e-02,-2.705956020219162442e-02,2.257946257562571529e-02,1.726775019010208528e-05,1.663429755649174779e-02,-7.713028110139440348e-03,4.353827195082302174e-06
1.042882171425278670e-01,-1.191844850313963748e-02,-2.705956020219162442e-02,2.257946257562571529e-02,1.726775019010208528e-05,1.663429755649174779e-02,-7.713028110139440348e-03,4.353827195082302174e-06
-4.190431473387480621e-02,1.302155845804283882e-02,1.795894328112491306e-02,1.298254455991937990e-03,2.848419482362615708e-04,1.830327663634700661e-02,2.303033117378994882e-03,-3.965430097989797374e-06
-4.190431473387480621e-02,1.302155845804283882e-02,1.795894328112491306e-02,1.298254455991937990e-03,2.848419482362615708e-04,1.830327663634700661e-02,2.303033117378994882e-03,-3.965430097989797374e-06
8.617154162189342992e-02,1.477771356525937364e-02,7.093318556229679869e-03,1.804012573132174682e-02,-2.797336448923904914e-02,-1.174292487869246044e-03,2.164617048197026421e-03,-3.515605248392860909e-06
-5.437148665270550435e-02,7.132150091847388063e-04,4.020930083144340361e-02,4.831684295305492777e-04,1.011542111293590120e-05,3.567447709081371376e-02,4.393801102144863011e-03,-1.337579234709206845e-05
-3.209100173412814117e-02,2.211805277281362475e-02,6.567058322452733188e-02,-1.051660759594058234e-02,7.858303199234296021e-04,7.968403469625502666e-02,-3.939971148625114397e-03,5.384893299744590665e-04
-1.381865317980741263e-03,8.822169953817420376e-03,-2.351054188783580357e-01,-6.924015013677680894e-04,2.885756612605503910e-02,-1.277487916334367757e-01,3.893293661217475015e-04,5.730029622629355390e-04
-1.903371982386156680e-02,6.539548269664904878e-02,-1.168188817705241717e-01,1.198124982148863604e-03,-2.979937968808863422e-04,-2.970291648235134311e-03,2.435396371847643217e-03,8.146530218670382513e-06
6.398515694880270097e-03,1.238395416494370189e-02,5.165619495486610813e-01,-5.312897602838232911e-03,2.652773640668002679e-04,5.547805206901141456e-03,-4.555165046384997097e-04,1.237151767731136308e-05
-4.918273212486740846e-05,1.447884011445811983e-02,6.566170848233937596e-02,8.279276395421622872e-03,-5.317034982236249147e-04,-1.867170863105105730e-02,-6.731342317631127531e-04,5.277450945290943229e-06
-1.127868289907778265e-01,7.726911722964632800e-02,6.033704753839519430e-02,1.049663186876697782e-02,-1.073807635137855477e-03,-3.051936406700658799e-02,2.279107635861912871e-03,-5.206014797265731209e-04
-1.417497316320191214e-01,2.511807367496095636e-02,1.924956854638402645e-02,3.973579405958574395e-02,1.074320430357210480e-04,1.128939864752860969e-02,-3.798782716371175601e-03,-1.753890248181214526e-05
7.226211582514598109e-02,-1.519090522389099362e-02,-7.435050169361931416e-02,-2.602574032316024716e-03,1.519512638543703078e-05,-4.424206901184531485e-03,-4.026894727081727012e-04,-1.080623903130326808e-05
-1.114266306575112733e-02,-4.959353085928356990e-03,6.974897654360498814e-03,-5.939662517537346378e-04,2.684904740736164899e-04,8.769461162555391986e-03,5.611714968676508215e-03,-1.048503192832586562e-05
-1.828868626275175213e-01,2.659941441309499055e-02,-1.092812436396155273e-01,1.745636085187450472e-03,2.481125064134691413e-04,-2.867671245341107261e-02,8.982032382859782976e-03,1.142199698367140515e-06
-5.139442314190018068e-02,3.820189103111098355e-02,-9.812838477142749039e-02,-2.467679050978894683e-03,-2.763777310958383422e-04,-1.703132986477150917e-02,-7.395255519417197505e-03,6.208414247439468055e-06
-5.815709568774336813e-02,-2.729428481564591912e-03,-7.101124729634790411e-02,3.619219676221804155e-03,1.217257036350137436e-05,1.425079372525936069e-02,-1.716215043695060909e-03,1.851913509512967334e-05
-7.297375205512951490e-02,-1.999574265998817491e-01,2.649091694720980272e-01,-9.743056084767194938e-03,5.944207096443912281e-04,3.193609158650175667e-02,3.802551718704566715e-03,-5.332045801942431398e-04
6.699153710456777835e-03,-1.544794762656691023e-01,1.312513901798633698e-01,1.397601792694386962e-03,-1.714913785305768532e-06,-3.668670509336924290e-02,-8.307201602431705818e-04,-7.071407097493582596e-06
-8.820284268208926359e-02,-2.052366270859541930e-01,3.054781685279599479e-01,7.455231660051582932e-04,5.439281363980518706e-04,6.391121923012346717e-02,1.983464608356208178e-03,-2.896165606676993063e-05
5.991124550641842295e-02,-2.265523365310637485e-02,2.947505294569064890e-02,1.434512768796053842e-02,-2.770088457104493557e-02,1.143049335588375015e-01,2.824452063132592335e-03,-2.532444922499095316e-05
-1.174780988398099572e-02,-5.567666156908074315e-02,6.395179985238895470e-02,6.893190140798664822e-03,-5.350114289753894487e-04,-2.890292669686601781e-03,-8.070003780040301954e-04,3.096951024602435454e-05
-1.174780988398099572e-02,-5.567666156908074315e-02,6.395179985238895470e-02,6.893190140798664822e-03,-5.350114289753894487e-04,-2.890292669686601781e-03,-8.070003780040301954e-04,3.096951024602435454e-05
-1.174780988398099572e-02,-5.567666156908074315e-02,6.395179985238895470e-02,6.893190140798664822e-03,-5.350114289753894487e-04,-2.890292669686601781e-03,-8.070003780040301954e-04,3.096951024602435454e-05
-1.174780988398099572e-02,-5.567666156908074315e-02,6.395179985238895470e-02,6.893190140798664822e-03,-5.350114289753894487e-04,-2.890292669686601781e-03,-8.070003780040301954e-04,3.096951024602435454e-05
-1.174780988398099572e-02,-5.567666156908074315e-02,6.395179985238895470e-02,6.893190140798664822e-03,-5.350114289753894487e-04,-2.890292669686601781e-03,-8.070003780040301954e-04,3.096951024602435454e-05
-3.354921151331648199e-02,5.648765594033188994e-03,-1.363400375550961711e-04,2.803977916643874118e-03,1.890404551582396974e-05,-4.142985015268749877e-02,-2.737835560589819452e-03,1.440994700184832172e-05
-2.867397769962769932e-02,-4.916065947701914185e-02,1.007476924191884615e-01,-9.859581750161498098e-03,-4.308597579403730982e-06,-5.484180030501371352e-03,-3.453390367325064221e-03,1.673182262130923928e-05
-8.007608200840016233e-02,-3.606732708889649752e-02,1.086480650497776423e-01,4.386304934176738293e-03,-5.149960146922152792e-06,-1.036266743024495153e-02,-3.755399623013393022e-03,-2.560198162825784668e-06
-8.007608200840016233e-02,-3.606732708889649752e-02,1.086480650497776423e-01,4.386304934176738293e-03,-5.149960146922152792e-06,-1.036266743024495153e-02,-3.755399623013393022e-03,-2.560198162825784668e-06
1.130918532944084551e-03,1.889641266193533425e-02,9.906534112985999896e-02,4.367165401507396884e-03,-2.782178652957547358e-04,-5.942662495780090190e-03,-3.306774619989468790e-03,1.645780600641927747e-07
1.838632153227056157e-02,-1.139425814593055843e-02,3.763642251115297162e-03,-2.150379532839565705e-02,5.656772108151200251e-04,1.029221505358219333e-03,1.463222037522687348e-03,-3.741785750876925678e-06
2.757736104559203039e-01,-4.262276519406774794e-02,1.160517461735752348e-01,9.188025441000391424e-03,4.594441752554067997e-04,-4.967983618639155996e-02,-8.302300188680332080e-03,5.440685922778688757e-04
6.867487248157321325e-03,2.421648885486181110e-02,-1.124794861083859565e-01,1.778803784889433984e-02,-5.552890777349356105e-04,2.066618941611559138e-02,7.326433005191297296e-03,-2.590418752684121039e-06
-1.606109144907334058e-02,-3.831448715376213014e-03,-5.080014895717874755e-03,-1.002432047142756341e-02,3.504213682428631752e-05,-3.364286382085416444e-02,-1.204638428968432670e-03,-4.859719592061386437e-04
-4.659842363558827985e-03,-4.376173745049680847e-02,5.634716111595811094e-02,7.128926026606361051e-03,1.416133696086233171e-06,9.344344520616724298e-03,-3.229558977074325956e-03,4.116397161500768697e-05
-1.606109144907334058e-02,-3.831448715376213014e-03,-5.080014895717874755e-03,-1.002432047142756341e-02,3.504213682428631752e-05,-3.364286382085416444e-02,-1.204638428968432670e-03,-4.859719592061386437e-04
-4.349130126657654166e-02,-2.093150604349939409e-02,7.783198753320741403e-02,7.593448831415034080e-03,-4.667014245117683647e-05,2.973442181512376929e-03,-5.447609715543122975e-03,5.089488355994406131e-04
-1.631870927142493530e-03,-5.030339380647511766e-02,5.812116543315982986e-02,3.769536827904245574e-03,2.068900091330188579e-05,-1.798960476426014407e-02,-3.834356042952298538e-03,2.759891816564046774e-05
4.185943033943403946e-02,-2.937188776297571316e-02,-1.971082210004759805e-02,-3.823912003510785470e-03,6.735914336447872564e-05,-2.096304694577253921e-02,1.613253672590824004e-03,-4.813499174338001013e-04
4.185943033943403946e-02,-2.937188776297571316e-02,-1.971082210004759805e-02,-3.823912003510785470e-03,6.735914336447872564e-05,-2.096304694577253921e-02,1.613253672590824004e-03,-4.813499174338001013e-04
1.442922052193083837e-02,-4.647194509109891375e-02,6.320118032887771242e-02,1.379385729933180552e-02,-1.435313591098443343e-05,1.565325905659398567e-02,-2.629717613983866085e-03,5.135708773717791555e-04
4.735522411221811112e-02,2.562089272495136731e-03,1.523440903752982210e-02,8.423573218442457003e-03,-5.549563186497380018e-04,-1.250707376523664018e-02,-7.774730314377111462e-04,-5.271410048489615779e-04
3.580989177252160566e-03,1.649600785609807094e-02,1.327262988067553703e-02,-2.441258441191875538e-03,-2.815835853980868482e-04,1.607775896453176451e-02,1.809367840138022070e-04,-3.856683508282504714e-06
-2.938416198233793214e-02,2.155491263411416641e-02,1.225326414335042163e-01,-1.063451071415593471e-03,-2.880291550342960866e-04,-2.489401760256181820e-03,-3.367246768548414859e-04,-6.910218958393582203e-06
3.580989177252160566e-03,1.649600785609807094e-02,1.327262988067553703e-02,-2.441258441191875538e-03,-2.815835853980868482e-04,1.607775896453176451e-02,1.809367840138022070e-04,-3.856683508282504714e-06
-1.876575868581986661e-02,2.221947746253684353e-02,-5.443283356066529466e-01,5.284546897537013670e-03,2.911774047639919052e-02,6.278331268464089343e-03,5.832151127444374760e-04,-1.255314609344797238e-05
-2.938416198233793214e-02,2.155491263411416641e-02,1.225326414335042163e-01,-1.063451071415593471e-03,-2.880291550342960866e-04,-2.489401760256181820e-03,-3.367246768548414859e-04,-6.910218958393582203e-06
-1.915591677915843768e-02,2.236087452660065825e-02,2.507887187932902190e-02,1.924428079899796057e-02,-5.463698077561293448e-04,1.158333370109186893e-03,2.757985355574611545e-03,1.796391996808219405e-06
2.856939814676112688e-01,1.146963481758682575e-02,1.315263546983083676e-02,1.356519247563073294e-02,-2.944358252483359611e-02,1.252474524693754712e-02,3.925680388785547127e-03,-4.116361366806992774e-06
1.576338015566604578e-01,1.824321766542579687e-03,-2.122874756462575507e-02,1.124692010721136878e-02,-2.766875204282888759e-02,-2.783044705253531065e-02,-4.265881261761523928e-03,-6.671261637366634445e-06
1.576181251118429494e-01,9.713479710370282252e-03,2.401826019472606821e-02,-3.176678799699072207e-03,-1.185376087358280470e-03,3.200231437115379218e-02,4.064096457967513419e-03,-4.566186216403928392e-06
1.576181251118429494e-01,9.713479710370282252e-03,2.401826019472606821e-02,-3.176678799699072207e-03,-1.185376087358280470e-03,3.200231437115379218e-02,4.064096457967513419e-03,-4.566186216403928392e-06
3.608752322890497743e-01,-1.352685058994173087e-02,-4.974969810936338138e-02,1.466554062639872577e-02,-7.684064219830961931e-06,-4.969478271929609475e-02,-8.143989519924342210e-03,5.506455712121760809e-04
-2.949530351781875365e-02,-3.336147734066699597e-03,-2.245367995378084319e-02,3.443263284057546808e-03,-4.739038455779702387e-04,-4.863435715572361935e-03,-6.014601588636877801e-04,-3.019000558811594711e-06
3.863647729796021446e-01,-9.213938077350092987e-03,-1.606361917984668736e-02,1.023233697974664305e-02,4.744054251408703795e-04,-4.277042949167051550e-02,-7.516950508801566525e-03,5.537035874591524033e-04
1.956602546214826766e-01,6.806373968891600741e-03,2.115936448355940774e-02,5.076649699326734461e-03,-5.738310377032084094e-04,-3.555933133204883245e-02,-3.730280818224059134e-04,2.446593989201811052e-05
9.594523470181764990e-02,3.219390394653034310e-02,4.243049784594940706e-03,-2.338061601702860065e-02,1.595818768637901090e-03,6.381217949232061148e-02,-7.090648287886740014e-04,-5.529531904395353602e-04
-3.920993651386582568e-02,1.518754758809780225e-02,1.602376417353106736e-02,1.909173329482768662e-03,1.617472901417168997e-03,2.776114724830528596e-02,-2.648772688665135960e-03,-5.172687534099267665e-04
-4.341547077182401210e-02,1.229674187889583450e-02,1.049158393848542876e-02,-3.223833043237453455e-02,-3.809454042758970125e-05,-3.506672262569742599e-02,9.223307998740125357e-03,-5.516431058023076603e-04
1.008718487105069173e-01,1.636583190788367878e-02,-2.382981712457918344e-02,-8.179852157492884662e-03,6.348089569820607051e-04,7.409131414859378151e-02,-2.084600735567311743e-03,-5.336512851166254898e-05
7.024773117633435759e-02,-3.841672283383129431e-03,-6.403409640266695228e-03,2.750489262733809073e-02,-1.155138298072375157e-03,4.637745219928975093e-02,3.646434909962223241e-03,-6.007051119198944193e-06
