-5.792895244547875256e+28
-1.208127263679625466e+30
-7.677126310565971608e+29
6.032067570599010232e+29
-8.866257866226803020e+29
-1.184789630036469210e+30
-5.255972755784803192e+29
1.597152211619456368e+29
-4.917787724302558855e+29
2.061668617047860043e+30
6.312593971589677360e+29
3.576215023228537966e+30
-2.375591185824375782e+29
-1.215133905460001984e+29
-2.739276722325319045e+28
3.297992079956155075e+29
-4.734405268504766537e+29
5.397445398389332275e+29
3.170328929018640590e+27
5.118031299344667964e+28
4.368462367610268287e+29
3.518343319661526887e+29
-1.043165998243679292e+29
-4.898077729164056132e+29
-1.739807317515966910e+30
-3.303436574688234967e+29
4.815383471053015557e+28
1.359809951322677028e+30
-2.308909811398098347e+29
-8.304380455401438834e+28
-2.141590061492584955e+29
-9.508899114731819776e+29
-1.775227901243421963e+30
5.097573360751793544e+29
1.183245985587383011e+30
2.761893942775616868e+30
-1.616506319665434966e+30
8.518728037987695751e+29
-1.207173534370537716e+30
-3.364250358803929192e+29
2.646048867896624140e+29
-4.776587639277741468e+29
-6.295553385855847504e+29
3.079275567775682864e+29
3.285929191006961898e+29
6.059999992232767153e+27
-7.405212063638857604e+29
-7.184357931262842271e+28
-3.812341290593858758e+29
-8.534579564110036938e+29
7.919166733041481163e+29
6.932660342009583119e+29
-1.738253653485707056e+29
8.612180176164652851e+29
6.545974932220041962e+29
7.710006318863210619e+29
-1.258960545699490623e+30
-6.753374828031993442e+28
-1.744359160393889156e+30
-6.382724740481524821e+28
1.140678828731526064e+30
-1.995240050742889753e+29
6.733460311480253986e+29
-1.418676184427985839e+29
1.023132206973105945e+29
-2.705559765413649989e+29
1.916569446341827431e+30
-4.570286810180080929e+30
-4.138901336875408802e+29
-5.015012262611831851e+29
7.129063059957679876e+29
-1.219984235039408933e+30
1.114093871635302754e+30
-9.431313816385225042e+29
-6.988118710903946782e+28
-9.026662134147796802e+29
-4.623846113744414978e+30
3.682672987671432286e+30
5.921119347412141345e+29
4.255727158162869114e+30
1.392067670788215300e+29
1.182798357931247511e+30
7.107989152771075935e+29
1.072302254223654974e+29
-3.481333933330069767e+29
1.663900211727109756e+29
-7.052152697904304163e+28
-1.745011171871255969e+30
-1.634349258197103972e+30
2.217584881929749263e+30
-1.352302833542505737e+30
1.732707163053834564e+30
4.812889043793240871e+29
1.231763210106991883e+30
1.874185086908158687e+30
-5.501963921915140967e+29
4.040025707668754376e+29
-5.839349543128341924e+30
1.235174453082038822e+29
-1.533488654727762980e+30
-2.567393810418611187e+30
1.402099706244794062e+30
1.412556968386139907e+30
-1.120977731204424767e+30
2.369037341112807911e+30
1.665288122164969274e+30
-1.949560223589057823e+29
-2.671975753219279954e+29
2.412504358686089780e+29
5.527469336075711942e+29
-4.212677114072403706e+28
4.184012395102403518e+29
4.380439844163895167e+29
-1.648353383673585075e+30
3.565113388284139519e+30
5.219412316465719304e+29
8.819994696274779858e+29
1.005891802412692115e+30
-4.690581731565917642e+29
-9.409832224789285583e+29
-6.454432601164447315e+29
9.966567401778223467e+28
-1.292651254526129721e+30
-1.603583877696072491e+29
6.806563877402275900e+27
5.636752718725301175e+29
-1.844643090453496008e+29
-9.141183943319086058e+29
9.510802136638904806e+30
-7.277074017252184398e+30
1.580386463019649628e+29
2.923807230832771206e+30
-2.933408395050754384e+29
4.536222187450663572e+29
-3.846012717235974580e+29
-1.837558482303128053e+29
6.249794515654433546e+29
6.281289329989522464e+29
-2.160389698128659199e+29
4.429358195635427913e+29
-4.065046726727079586e+29
-9.385517932229372629e+29
1.615262092060844706e+30
-4.001028270213431523e+29
1.293311365781302923e+30
9.699082808606755165e+29
-3.642920601134148883e+28
4.460831331955636385e+29
1.848601953366056036e+30
-1.602607705729609895e+30
-1.265345981820474576e+28
3.114764621088988874e+30
6.920893265107415908e+28
3.122851536756651191e+29
-2.134448015364111023e+30
2.831456544266988465e+30
-4.320058873275586932e+29
-4.718072628915056204e+29
1.472507960935929385e+29
-1.378386115601654920e+30
5.292664598362538539e+29
2.924065921755514747e+29
1.751890596862553076e+29
3.622062640783580052e+29
6.310159611372795201e+29
2.380873498295773317e+29
3.112510233062720912e+29
-3.770667038359247010e+30
-8.091976626759912002e+29
7.818645908139458765e+29
-7.490300628134679472e+29
-7.339759969073624169e+28
-1.835021450022225412e+30
3.557305211688710951e+29
-1.463747459559925083e+28
-8.669216329205779659e+29
-1.840433287251179996e+29
1.013255563556563924e+29
5.659410686931112433e+29
-3.288368437624077656e+29
2.910758989180410523e+29
1.594518881404802629e+30
2.853831012515873682e+30
-1.566841583594108553e+30
-4.694396805784090827e+30
4.454655524343296372e+28
1.879943864977650245e+30
2.383296982713063304e+30
-1.534518623862985115e+30
-5.766611673276215252e+29
1.340168081424398481e+30
2.030702724061719500e+29
-7.928137122986139249e+28
-2.165734068596021718e+29
1.436980204259529625e+28
-1.293371702138441721e+30
4.990718662933582477e+29
7.912278262811007169e+29
1.254437455299906215e+29
-1.631356113056416959e+30
4.536710197376989205e+29
8.111093580810104633e+29
4.827671453182351982e+30
-1.240287067689342703e+29
3.508555395383650488e+29
-6.483963371568781202e+30
-2.093777844028507408e+29
3.077846319705687991e+29
-6.536849830600605752e+28
5.824089518954852834e+29
-4.844067048507646392e+29
1.174225550878478746e+29
-1.093556366276816134e+30
4.260121743483162446e+30
6.350852878207772467e+29
1.111474924354864178e+30
3.539690413060156697e+30
-2.717120970890857740e+30
8.156957806800258615e+28
-4.691085425168647451e+29
3.519727107823619182e+29
1.044083440207111657e+30
-2.607054012575357006e+30
1.221375516011819111e+29
-2.530223611732583773e+30
-1.406311798612890385e+30
-2.403682304121959158e+29
1.907812025148736374e+30
1.139886844554894080e+30
1.636960621376232814e+29
-3.827071226655890936e+30
1.990147110436516125e+30
4.057865334989441282e+29
5.074073585463052021e+29
-6.309917083216646853e+29
2.111007533076867195e+30
5.171119607570453205e+29
-1.538481415252921051e+29
-6.367214127235018958e+29
4.372958789945415051e+28
-1.331609999354566326e+30
-1.794956955398294354e+30
1.072607867097162229e+30
6.399393191293421705e+29
-1.661226440126429868e+29
4.776873227409046371e+29
2.689513076469423350e+30
-2.115934385778852739e+29
-1.895926927989921098e+29
2.257083336243380684e+30
-5.095393275240752725e+30
7.067722300107937865e+29
-1.189501011028426123e+30
-2.212126902014196979e+30
1.016275800058345225e+30
9.536308683791904504e+28
-3.405618796616454209e+30
9.283553911378536502e+29
4.785227263211598199e+29
-1.611402373472526612e+29
-9.339361291602282720e+28
2.369984137718727947e+29
6.952970540777594467e+30
3.084473330093062592e+29
2.938541221086364385e+29
-3.821497353081997544e+27
1.230269110143259322e+30
1.181080300725469023e+30
5.072164459035261056e+29
-7.039753059232631787e+30
2.801878770947155804e+30
-2.107219432203076875e+30
-4.458850859064785362e+29
-5.690537022897412288e+30
5.228850844537472473e+29
-2.598013073834127344e+30
4.816543592320506690e+29
-2.225281223528612362e+29
2.008767247157015235e+28
-5.588216255397915349e+29
-4.316776282176476050e+29
7.972280342457340345e+29
3.341955953221431866e+30
-3.862613496270988913e+29
8.310322126613260787e+28
-1.489668899680814086e+29
-3.879114076202700418e+29
7.556213508151124377e+29
5.332745874839412756e+27
7.200227883140985810e+29
-6.018543794040484058e+29
6.042767412307940727e+29
3.249643743134375566e+29
6.430548062551986014e+28
-3.699122999245157535e+28
-2.563602627166591066e+29
-8.310209411909751327e+29
3.090564393735854156e+29
2.819621284193518758e+29
2.820895939020378940e+30
2.995288810286649287e+29
-3.607087714362075573e+29
3.083233058521077876e+29
2.881965620526635032e+29
3.602655110189690675e+29
2.917394720418885826e+29
6.284490997744879095e+29
-1.320096538043145816e+30
-1.868661764373884346e+29
-7.426154616549479597e+29
-1.275483350719064164e+30
-1.328582636556640657e+28
2.720704140470742941e+30
-1.965430682481246920e+29
-1.195898288003077041e+31
-2.489369718459372348e+30
-9.940712668530600701e+29
1.065781019490291248e+30
-2.060307231086362583e+29
3.503943311453065575e+29
-4.335779318552233644e+29
-1.245737393190201960e+30
9.377527450243699757e+30
-8.166458042034746474e+28
2.188430193005912028e+30
-4.561803068988810560e+29
-2.856796043567601597e+29
1.204039609182341255e+30
3.774765816819662228e+29
-1.100275759318072812e+29
2.871026247381215735e+30
-9.908732912180567537e+29
-1.740461084382117293e+30
-2.938161769276380601e+29
-3.293040332841642953e+28
-1.898453195030989900e+30
1.153261458371135905e+30
-3.425987155360151176e+30
-2.510815701950353863e+29
-1.788015023554692595e+29
-7.397744041252553767e+29
4.984730007909002538e+29
-1.423832431397511163e+29
3.846744561023989984e+29
4.563539380945799648e+28
1.394458439445156639e+31
-9.142323096892085618e+29
8.451433681989994152e+29
-5.203710611907125610e+29
1.727157740323043737e+30
3.992749657737745701e+29
4.986851610554216931e+28
3.411145185375025628e+30
-1.777965448672015107e+30
3.553239251067035658e+29
-5.892297999795423558e+29
-2.554255373602384684e+30
-9.012914927302290535e+29
-6.564384353640710622e+28
-1.367902095880830817e+30
-9.571100472879375442e+29
-4.780435174849423849e+29
4.672233625697164932e+29
4.661435825346583500e+29
1.394070275817207558e+28
3.167275343742020278e+30
-2.599726166425046071e+29
-1.120091578446497497e+30
-5.647689889048348184e+29
-3.834688800667843476e+29
-8.866412712575058626e+29
1.258344113211402134e+30
8.568681581642835370e+28
6.240037005409501108e+29
2.499586259773773170e+29
-4.287289329965810689e+29
-1.696484548424349986e+30
-1.056208719620181263e+30
1.106843805718179101e+30
1.056061547343264753e+30
-1.172651637392874262e+29
5.367024651630860127e+29
-1.587248682742855124e+30
7.708918536427423451e+29
9.559442067846130757e+29
-1.073422935974707597e+30
-2.685833328832785599e+29
-1.127878765661496441e+29
-1.298360902339135220e+30
-1.694312665351251573e+30
-1.026746241110698699e+30
-1.326723576034110550e+30
-8.112822027488758250e+29
-2.877365253807128907e+30
8.436619508586813351e+30
6.001017234780312242e+29
1.094116610916057020e+29
4.623504331873909735e+30
3.677575629386702660e+29
-8.446865615892918637e+29
6.655278422552178560e+29
1.543897118493911155e+30
-2.801649420129529584e+29
-2.470985835488952620e+29
-7.293545265055892646e+29
2.341076438756267227e+29
1.900452588625067898e+30
1.827195240389397491e+30
-9.496848832867227102e+29
3.383575278221838131e+29
7.692897240223643097e+29
-1.921800328671014014e+30
5.463555014943294463e+29
-9.884945472492209929e+29
4.013354594083197089e+28
-1.076746647260349194e+30
-5.822438947606967051e+29
1.563650627233467200e+30
1.534553155952203861e+30
-1.234960988650051742e+30
2.433228595947110897e+30
5.143121093679697817e+29
-2.944592125785741765e+30
2.136154662822859266e+30
-2.015757022037826497e+30
7.373865566976377588e+30
7.631091586499076465e+29
7.016378486857944453e+29
3.903216858657304339e+28
-9.030227203244555902e+28
2.031042705932778078e+30
1.942574118140711483e+30
8.275711957742807057e+28
-8.463452488982983114e+29
-1.776569713509035527e+31
1.364644960732374685e+30
3.306826045786290965e+29
5.856076181754609039e+30
1.443338870775622041e+30
-2.806362450242837231e+30
-3.521075008484416995e+28
4.832068748217944479e+29
-6.633770403019056811e+29
1.503087723882209374e+29
-4.503693064504560116e+29
-1.476137542577104922e+29
-4.185800442610823127e+29
-2.605122092068462939e+29
-2.042013578298870862e+29
-1.990358775817432747e+30
-2.034354001188705343e+30
-3.497489611684631461e+29
3.692876430441906585e+28
-1.165919729874858402e+30
-7.835854124657319624e+29
1.427337924137970820e+29
9.019837748377756970e+30
-7.297770555659082552e+29
1.209285828114098327e+30
8.413003538845702850e+29
-4.891973872516572490e+29
-4.750814736616539272e+28
-6.411026938938061526e+29
1.297851503878334961e+30
1.743849961186436338e+30
-8.713655795656677300e+29
-1.992374211454910156e+30
1.705583141334023403e+30
-2.120032540396818457e+29
4.330458356433271812e+29
-7.285948370787198731e+29
2.644064584725945819e+29
-1.639045295712646990e+30
-4.563151209297987429e+29
-1.320944026857305071e+30
-8.804043016694119414e+29
-2.010071392948130221e+30
-1.097456040638425160e+30
3.052886462708460220e+30
-1.000126859820891544e+29
5.038534757738680973e+29
1.805633065098857103e+29
3.584374574823587802e+29
-1.865891116687552319e+29
-2.487192359354398913e+28
-7.942633474673594150e+29
-1.017118186036480941e+30
1.448211041779740268e+30
-4.770783133289789887e+29
1.165807112680641928e+30
5.347324678871018951e+29
-3.774543790050764735e+30
3.462461691648486455e+30
-4.238426305996130376e+29
-1.569480176835970430e+29
-7.200648876717534028e+29
1.639638984447655852e+29
-9.683196378031067524e+29
1.374998677944699342e+30
6.010155477744886385e+29
-4.325203388688141467e+29
3.427422996453389455e+29
-7.696164695271869587e+29
9.709870265728847127e+29
1.163194652940924838e+30
-1.306960696439379585e+30
-3.000049098742329302e+30
8.448763112438017662e+29
-1.797638541718317070e+30
-4.758438522997592811e+30
2.744971304004445562e+30
5.524512246564654010e+30
1.180236996270939059e+30
-6.295841268863230839e+29
8.000571727333232030e+29
-9.985048977575463728e+28
1.264627088877558631e+29
1.710869236755198088e+29
3.171097038933303640e+29
3.206191552332621915e+30
-1.640348878306553951e+29
-6.300619965316068700e+29
-1.007320997945151494e+30
1.692867533136713970e+30
-5.288399060272095233e+29
2.670182862219812170e+29
7.488696791808059478e+30
-3.141038076528244813e+30
9.060146371375886433e+29
7.934137042277319125e+29
-1.188335240387148372e+30
-2.589284174288088412e+30
-2.029678060336059631e+29
-2.800591681764713761e+30
-3.468334004204018888e+30
3.808134361952550769e+29
-4.299990004574691483e+29
-1.835364188326511198e+30
1.444899567661858044e+30
-2.184222658211690746e+30
2.684923787509630550e+30
2.125354560934250638e+29
1.025758836724033942e+30
-1.270465098799595062e+29
9.140822414127510830e+29
-1.942196950214037777e+29
8.509502667293979779e+29
5.925572451711570139e+30
-2.164318002184224337e+29
4.199409222340573040e+30
2.730391884548514694e+29
-3.601026594479481964e+29
-5.359207657972600709e+29
-1.090583099004575824e+30
7.617270378178750740e+28
-2.070810816357114767e+29
3.873164686269204205e+29
-4.283870215363565786e+30
1.469834057355192520e+29
-2.076565434330479823e+30
-7.831468145755288887e+29
3.345110170712231879e+29
3.657764210433316504e+29
8.658174726253202464e+29
-3.763385185429752119e+30
1.282284559677661074e+29
-6.633499107164006252e+28
9.684157049289005012e+29
3.735367984628760015e+29
-6.403107896579452744e+29
-1.328031823814257652e+30
-6.090875679225320999e+29
1.159144428719294420e+30
4.036762622925949669e+30
1.228703890525892358e+30
6.964420751208617301e+29
1.368758190227029617e+29
1.897574383469819881e+29
-2.990295154753429007e+30
1.253999077867521744e+30
9.301817532093145340e+29
-1.847019820246039922e+28
-2.698138785742531598e+30
5.307485895891976130e+29
-6.883767989831545701e+30
2.249568590281916114e+30
-6.397346403272720549e+29
-1.902562132767366440e+29
3.466213359591133081e+30
9.643492900019408057e+28
-4.803202732593339527e+30
2.360296598321415132e+30
3.402661389257427205e+29
7.285340781696539502e+29
-1.183489134954820400e+29
4.224857876664886656e+29
-1.160522849915180494e+30
2.362148490533460867e+30
1.671025240031768961e+30
-9.370724228933141892e+28
3.077448039375769247e+30
-1.167274797499782451e+29
-1.338417677709076674e+30
-1.327191049168244943e+30
-3.436585644370680411e+30
-1.072509289720949440e+28
-8.816473690804238409e+30
-4.342278854580946543e+29
3.952928370380129790e+29
6.641744409575028362e+29
-4.759045426605554255e+30
1.785119047581141028e+30
-3.602547118073502315e+29
9.474058682690797246e+29
-1.176762091840103348e+30
7.745699725654260365e+28
-1.751909411430687460e+30
-1.496604976497529708e+30
5.829739457968304122e+30
6.304750686301513352e+29
-6.920175948971522416e+29
7.010214987603734046e+29
-1.544251564350979254e+30
-9.060734422542286751e+29
-1.472785336197560576e+30
-3.373732469621774013e+30
4.569159949031999987e+30
3.563444311854009620e+30
3.161093907918890245e+29
8.380396353696842983e+29
3.766955159853218797e+30
3.584529795478313400e+30
-1.091452668902288120e+29
2.086101259961314001e+29
7.434338236827317817e+29
-1.320659030242280960e+30
6.878496663510913256e+30
-7.041888982786741005e+29
6.728762767241103619e+29
2.057721236895478645e+30
-2.558039532199762307e+30
8.661264941646572332e+29
-1.503674358724276930e+30
6.569690782403804066e+29
3.306114514437141269e+30
4.119729577245221264e+29
6.424592428532823013e+29
7.341771464533613373e+29
3.790844411860047317e+30
-9.231091017025470259e+30
-9.169817671793360723e+29
5.460486568297841571e+29
1.219003793318908876e+29
9.210471396771752201e+29
7.588164404318690030e+29
5.334059768120081023e+29
4.308324585844130095e+30
-5.867660568459121760e+29
-1.022820523139149126e+29
-3.540389723548326637e+30
-1.201444346667752931e+29
-1.501073865837667140e+30
2.099809828397295990e+30
1.107823183627011811e+30
1.164892422223091449e+29
5.633825527308945280e+29
4.340585082005098500e+29
-5.054819057442340319e+29
5.873964736905513237e+29
2.431360790690263002e+30
-1.765248136749015051e+30
-2.121992696423133166e+30
2.734935186427018857e+30
-9.790482786474572095e+28
-1.969299444930686507e+29
-5.333798683710991893e+29
1.869387016298309463e+30
-1.297916388446184045e+29
-3.356895452941225755e+30
-3.865863245832503837e+29
3.160274412688495691e+30
3.283383472791680309e+29
-9.946297952606973144e+29
2.976788274024444574e+28
-9.741380340028174369e+29
-6.921909837206091547e+29
-7.746742780524787679e+29
-2.098159210550396091e+29
-5.372325500337069647e+29
-3.989993071100556288e+30
-9.408271678716982657e+30
4.236898205221510550e+29
4.326359025415983883e+30
4.440586751209682251e+29
1.709955435660024524e+30
-2.864266190791446676e+30
-3.369523864517613123e+30
-2.993268994422411561e+28
-4.522301046580878959e+29
5.468602083196882648e+30
5.753918689562859065e+29
7.728461428289891715e+29
-6.039747659845696235e+30
1.583729856153552034e+30
-1.709951251040396587e+29
-3.072359856821370641e+30
2.944643819554580465e+30
2.366787079794413070e+30
6.130551368197260881e+29
-2.908500543861435999e+30
-1.856620681244628833e+29
-4.689394288320679304e+29
-7.487531379787864563e+29
-5.554086811663828471e+29
-6.059042383891796118e+29
-1.687956280438213357e+30
-1.576882151683986725e+30
-6.489144200998818582e+29
4.283489193343311107e+29
-1.279248279887825670e+30
3.612023395209401931e+29
-1.373674551421686295e+30
-5.280616601297307388e+29
-6.110036186538892497e+29
-5.731457701244048940e+29
-2.827086440070127093e+28
-1.191852159331148256e+30
2.256309263023679089e+30
1.241787229553909795e+30
2.764409185713603650e+30
-1.092999418649613297e+30
-4.216842309052188644e+29
1.774944065951496479e+30
-1.876112378643120786e+29
1.045273345988289832e+30
-3.982368565793125607e+29
-1.159130897692444620e+30
-1.610515442539710385e+29
3.509911114449316563e+29
1.910126138180271405e+30
-3.065421621948597089e+29
6.512686945106836456e+29
1.926987724225581270e+29
-2.833895709232702161e+30
-1.544535333947169315e+29
8.589440116608362720e+29
9.462445929526232986e+28
8.273235501330959577e+29
5.381623223222104562e+29
1.302666200693599631e+30
-6.498109238763885975e+30
2.975224843838841929e+30
2.075896930837429725e+30
6.050103080372180463e+30
-2.076608756091241857e+30
-6.362932379165731377e+28
2.898265932632769690e+30
-4.216995586747357667e+30
2.979382502880362862e+30
1.054701656626146455e+30
-1.164616288343312233e+29
7.248399782566961265e+29
-1.034045055366615016e+30
5.998745172565769291e+30
-1.307348037685569628e+30
-7.059532984314243768e+30
-4.031970244320483085e+30
1.607696631305086093e+30
1.088227684619827173e+30
6.954730972300861953e+29
-2.558298558532221697e+30
1.403158242841423125e+30
9.956155249914801457e+29
-8.692762215460074790e+29
-1.489701592985800273e+30
-4.481956690246893294e+29
-5.567700430294544730e+30
-4.029553095711012995e+29
4.638890106738511326e+29
-9.092549242079254854e+30
-5.900838560422728569e+30
8.749245460503754076e+29
3.883241367732256125e+29
-5.664201629918316297e+29
-1.677448447103851007e+30
8.869921191439385069e+29
1.029406677308231845e+30
7.259948875651587529e+30
3.056708941847145499e+29
-3.948642662011035098e+29
-3.800899551900148615e+29
-3.011179802429625922e+28
-2.311396426388064325e+29
-6.494657724691539991e+30
8.353021964767883598e+30
2.528948755334400796e+30
-5.338458849977323934e+29
1.848277894208660692e+30
6.001409050133151197e+29
1.318782221090527072e+30
1.235029865515976136e+30
1.808812488570089864e+30
1.505689425261300558e+30
-5.133825688878884448e+29
-5.854745722688442783e+29
-4.730371298179432370e+29
2.796948040289346530e+30
-1.810071061280271692e+30
6.287256423919154171e+29
7.972679826214633779e+29
1.898966902797599787e+30
-9.982250796020428405e+29
6.925498833918262037e+28
-5.188102957289160064e+29
-1.157086658444917202e+30
1.609088203244470591e+29
-2.142059970672764416e+30
4.978954476909515198e+29
2.174187802722800617e+29
-3.812305837136404223e+30
-1.407182469788981930e+29
-4.651126586025297715e+30
3.499826863831488546e+29
3.864675899558508793e+29
-8.599986649773220254e+28
-1.123862907865905483e+30
2.271511661844935145e+30
-2.114733442957896427e+29
-1.216123236004731232e+30
1.285888307510076869e+30
-4.233190334619655551e+30
1.578506419526703875e+30
4.027172892037352737e+30
6.105804589611177006e+29
1.037829715175716617e+29
1.360761140724020743e+29
-3.421850656460258587e+28
1.561238824466972953e+30
-7.570550537494956062e+29
8.986021361262140683e+29
-5.910328732751844309e+29
3.638809020411863176e+29
-1.559624299586626102e+30
-1.063172312666111247e+30
9.810968491606726548e+29
-1.620337643423575439e+30
9.282774198439061665e+29
6.273799597601866635e+29
3.236621851661495250e+29
4.235240156659348110e+29
-4.872518422388212641e+29
-2.734893873242943872e+29
1.267844467378171398e+29
-3.916514869659094494e+30
9.472120622658176013e+30
-1.339983687594971962e+30
-4.482287395451474594e+30
-1.075668821229012396e+30
3.344739672080131733e+28
-9.843309699449533416e+29
3.811697707959493441e+28
4.622476228452533203e+30
1.014034002135664713e+31
9.749507993627034849e+28
-2.137904119780148735e+30
-5.903200196851871032e+30
3.941648447641495880e+29
-5.720066564181736854e+30
-7.733759290572130226e+29
1.968614751713750703e+30
8.021762269197229929e+29
-4.471760999564486622e+29
-1.918645853084039949e+30
2.126867581331406275e+30
1.591222739480430125e+29
2.067395447825896898e+29
-4.327786684044543129e+30
-3.019687289140675163e+30
9.969997230192948567e+29
4.602184467811189049e+29
5.265960593275295221e+29
-7.748527039049160579e+30
-2.706855824930616713e+30
5.554255535364629877e+30
-3.014506503033929756e+30
2.476863436883128840e+30
1.519477625661268037e+30
-2.584667098259768511e+30
-3.780626779787320437e+29
4.990553895478070375e+30
2.441392636698225622e+30
9.864741649173218327e+29
-1.978461688963919253e+30
7.420129739348567129e+29
-1.436512258074622585e+30
6.318618254119593652e+30
-1.425370350735456230e+30
-3.538976636031583943e+29
4.755506651267192973e+30
-2.478737123434848647e+29
-1.630261018391208372e+30
1.906905279580199624e+29
8.642099098784705566e+29
5.308167117157776003e+30
-4.581312527691100094e+29
9.773772148110878895e+29
-3.887354187094820919e+30
1.428090185613428564e+30
1.127946253245211554e+30
-5.466450608976130726e+30
-8.784537634584015993e+29
1.419499793353127371e+30
3.786768946405416727e+29
-8.652940043775442183e+28
-2.756575947690357231e+29
9.219117107434688461e+29
-1.268214538165621880e+31
2.397914539836957115e+29
-2.688640243367177136e+30
-4.942888234073660938e+29
1.708911052157950769e+30
1.973304019063428322e+29
5.925849325385268525e+30
-5.712913921831318233e+29
-2.178624329382361558e+30
4.023119367350374388e+29
-5.214986173117223611e+29
4.119754834191895277e+30
-7.873496701346231756e+30
2.197637686542585769e+30
3.143214116277413794e+29
5.101297757500017401e+29
2.489372203521214703e+30
-1.052081856095331107e+30
-2.724907880173504010e+30
6.653790204363327744e+29
9.174393172290174840e+28
1.101508100555912500e+30
-1.992648871879928548e+30
-1.849045342672430380e+30
1.300611395480781091e+30
-1.562162107895206460e+30
-5.595849298179870783e+29
6.173247609315050867e+28
1.852277903975650417e+30
2.099728763928987011e+30
6.731510606104029108e+29
4.233756042371591971e+30
-3.289429380622007086e+30
-4.837963244781177888e+28
1.116328294998696954e+30
-2.008163661146047645e+29
4.165379839028507708e+30
-9.292530844378496922e+29
2.346654789715769676e+30
-5.272562164620803587e+29
-1.840337583807736575e+30
-7.624019154419510036e+28
1.932408878450362669e+30
2.334600510728714604e+30
3.588735586580120214e+29
-2.857753586804187038e+29
-2.421763159091452216e+30
-9.705743476836178726e+29
-2.110567364618882148e+30
1.537489867090015059e+29
-3.208827583735568076e+29
-3.105275727116695019e+30
-1.280316868797338854e+30
-1.446545890266141416e+30
-1.895801584741196267e+29
7.028587239338020299e+29
3.349350553489651008e+30
-1.771225725253188673e+29
2.693569383214929375e+30
2.313947144818397651e+30
5.578026980644203836e+30
1.381826079424528196e+29
4.527567798891125633e+29
2.745476103960684508e+30
-4.875902970939892089e+30
2.227964252432961626e+29
1.336062764249220625e+29
6.510380424186185831e+29
7.984987488153704824e+29
1.497264827899606807e+30
-3.530677295837672637e+28
2.511375423537719901e+30
3.101680880749032338e+29
-3.462422673974251924e+30
2.449144860976586491e+29
-1.122728902710426773e+30
3.070937215954977925e+30
-8.021526626936972510e+29
1.440845040186554883e+30
-4.941528668134866147e+30
-2.371462949950875328e+29
4.824135953258484678e+29
-1.111661979380989129e+30
1.342502991412156831e+30
-6.072725994805956101e+30
-2.682501901829997890e+30
8.824459295421079563e+29
3.130547523853841452e+30
-1.217826848381668959e+30
-3.448915537270844320e+29
3.426915106796663948e+29
-5.399476424632604492e+30
-1.199472020994895816e+30
-1.957606369235307761e+30
-1.218679931949985045e+30
1.395620543868498726e+29
-5.606434060106368449e+29
2.352607488366726050e+30
8.802920281300075017e+29
-2.193447703386298916e+30
4.028769926335797706e+29
3.009236460989454500e+29
-8.362329529821350957e+29
-9.812556671635338162e+28
5.818399023279851874e+30
-4.284031121361197154e+30
-7.521533683395087910e+29
2.029730420836694263e+30
6.450516020369750982e+29
-7.042426520694696031e+28
-2.839322363388897423e+29
-1.889595175811048938e+30
-2.761052921102878860e+30
3.804374326145904324e+29
-4.151662888361777799e+29
1.246235375296577003e+30
-1.484228645034609398e+30
1.200742136210075111e+29
1.617494690898788213e+30
3.480065449325518197e+30
-9.273090557831528801e+29
-5.797155302378840278e+29
1.132363077770604345e+30
5.104835462712627152e+29
4.994731042337945242e+30
-5.738924236804262197e+29
-5.744226674182804413e+29
-2.876927390895320822e+30
-1.178826548415760695e+30
-2.537016318191059156e+30
2.898981924836862205e+30
-1.177530847209092475e+30
-1.602332251015014893e+29
-1.534808069330243031e+30
1.369055991902405259e+30
-1.032252204239510707e+29
-1.565787498957696937e+30
-2.504335176849657560e+30
-5.026348647921517287e+29
9.270004631365428227e+30
6.535708174883149008e+30
-4.723449748461857777e+29
2.052483865884333941e+30
1.883722511822241021e+30
2.778820707909219089e+30
-2.267602803861811193e+30
3.446382936989186004e+30
-2.389617485474726450e+30
6.672890696897837596e+29
5.104935122747310004e+29
-3.808954299179896800e+29
4.136836683792508649e+30
3.581242449717130875e+30
-1.441174833655581914e+31
1.599494015780188058e+31
1.582004442209296995e+30
-1.369386598286671093e+30
-1.092058140619384849e+30
7.276717721027616316e+29
-2.207395568089764465e+29
8.729945107490497530e+29
-1.608020409967554432e+30
4.523924479645110525e+29
2.128028747078825532e+30
1.353629465200809620e+30
5.385036981442076434e+27
1.741631630328314417e+30
-8.192105778572217581e+29
2.502997720853306546e+29
-3.278573403836611948e+30
-1.323192823677514187e+30
4.468121439715811130e+29
-8.979769362368901905e+28
2.560154084717446523e+29
1.200049953046071969e+29
-1.635844617295389281e+30
3.161257058083605235e+30
7.840255823403914040e+29
-4.430920776256868342e+30
1.879877523065745434e+30
6.472098017963563998e+30
-2.376998169826327194e+29
-4.535012589934326874e+30
2.297912074844689908e+28
5.595480625926226149e+29
-3.847036659917975968e+30
-3.685057554300206965e+29
-2.069164238590142474e+29
-2.817603231352012571e+29
-1.127766480360324406e+30
-1.124747644980791910e+30
1.178049947001335136e+30
5.165325788947499277e+29
1.867348877054071873e+30
-6.717618734181471508e+30
-6.913327692338964434e+29
1.784000651989014106e+29
8.223175632826469576e+30
-1.166198624291341476e+30
-5.448856674499485986e+29
2.680716968258472742e+28
2.340274150660315925e+29
-3.281842480131262085e+30
1.301729479427622859e+30
1.150625371440963704e+30
-2.487910122252499920e+30
1.310938290370171418e+30
9.438648282643684600e+29
-4.460552424724524518e+30
8.279459303631892661e+29
-1.366112592904614476e+30
9.423869871171252999e+29
-1.140387707627251993e+30
1.022090142170448331e+30
-2.018958589354339399e+30
-2.884935779567812030e+29
1.152835443285638780e+30
-3.381520798236015548e+28
1.815739280683232213e+29
3.104993165197600842e+29
-2.460551143032415944e+30
7.169331132508052276e+30
3.104067563634885617e+29
2.087613238682438135e+30
7.734553550418448841e+28
-3.823848602622457278e+29
-6.940680189653894213e+29
3.826609846094567619e+30
1.538097601090145729e+30
-7.716255835568469369e+29
-3.153514792486912163e+30
7.398774900396307371e+29
2.157137389256837971e+30
3.285111641110422487e+29
1.000013583742021779e+30
1.413663489897991665e+29
4.358826509331904801e+29
-1.444444408776530880e+28
-7.477707869260647438e+29
1.964625435629623377e+30
-6.175918173406621417e+30
1.252673135307465380e+30
-2.103767237975631306e+30
-2.869112755134401397e+30
-5.292758214114519090e+28
8.258449403169836341e+26
-4.545463021209420588e+29
-3.960739335388963614e+30
-1.626414413697615671e+30
-3.682431764444155398e+29
8.161793887510108662e+29
5.706749042409518397e+30
-5.046391395736276632e+28
-8.395963032841847209e+29
2.320136206192284798e+28
-5.634898302778975219e+30
1.471756534940884849e+30
-3.679847720342837738e+29
7.816842867657559377e+29
4.281052801682371673e+30
-5.258270247680133986e+29
4.164112854450122617e+30
4.529138591762094949e+29
1.042841410622459816e+30
-2.250610838304541786e+30
7.712170461738524142e+29
2.035743171491689007e+29
-6.249397624856707181e+29
1.074095169993745783e+30
6.922954542465775497e+30
-4.549501727538691098e+29
-5.385048909943827408e+29
-2.101949476260397712e+29
9.868597841371819735e+29
3.907594080860693358e+30
6.564652639381419203e+29
5.748565531673150202e+29
-2.547300556750710249e+30
-1.125765215351889300e+31
-4.665927250887905890e+30
-5.270781864468349993e+29
-1.255647409734338175e+30
-1.560818900665529799e+30
-4.632679422725275925e+30
-3.216296883787241370e+29
1.747863503013918264e+30
1.022639992536372647e+28
-4.350164733332471238e+30
1.381301201622107149e+29
1.408800662046922702e+30
-4.373864627292413431e+30
-4.828070062189190420e+30
-1.832469583122587172e+30
-2.265547334124976734e+29
9.404482543829658705e+30
-2.323282992657912075e+30
-1.698710189207209148e+30
2.166004378794349180e+30
9.260863958600792089e+29
-1.990025478687878870e+30
2.492855396101450745e+30
-2.618084730239778906e+30
9.510927629247350114e+29
-7.197308852865926781e+30
-4.053304212734467286e+29
9.945078020317691867e+29
-7.024086322629572281e+29
-1.058683403066493374e+31
-9.592017585362277542e+29
-1.463918274811408560e+30
-3.254999224360774000e+29
4.415618980981516322e+30
-7.476091997201282317e+30
-4.717418016882612541e+30
1.705773566179037768e+30
5.200596417063380708e+29
1.621019156777235978e+30
1.184644638023607391e+30
-2.130864197637176499e+30
-2.251334404884762210e+30
-6.419421158020157344e+29
3.268402025199558564e+28
-8.747034999401114236e+29
-4.062172589053601202e+29
1.597585949549650413e+30
1.202152655720849138e+30
-1.767081285292434081e+30
-3.211479801954706645e+29
-9.353545951201785187e+29
-2.889661580175098259e+30
1.144459605661066137e+28
-2.209170983284121996e+30
5.845360135023072293e+30
-5.775313893421536758e+30
-1.178233167017291579e+30
2.778243806391386672e+30
-6.867265603450717079e+27
2.793139503067766564e+30
-5.946769966169697370e+30
2.316294400471991591e+30
1.100564587621120428e+30
-4.421605612811565446e+30
4.237176046910477804e+29
-1.551358046931941764e+30
-3.080869958098769910e+30
-1.879986893057634828e+29
-8.269655545841457210e+30
1.414727362273941298e+30
1.368573825818906136e+30
-3.168526415261056723e+29
-1.487775772625350055e+30
-2.177015687338100039e+29
-2.906013680859496383e+29
5.047628262067407979e+29
5.559591031945355156e+30
-3.296947353956900711e+30
2.267498345683229153e+30
-1.601188113079123689e+30
-5.636386105189353950e+27
-6.053181106942482377e+29
-3.255907669566569807e+30
2.180177558802206080e+30
-5.032851539057655145e+29
-5.734107494246430270e+29
5.951469568884368369e+28
-2.258048195710360119e+30
-6.442674453817976128e+29
2.080916660548889659e+30
-8.226069934144495495e+29
8.392732805422368064e+29
3.911756588949513768e+30
-1.119903723375466954e+29
-2.402050265092862778e+30
4.325083631145121240e+29
-7.411663648570466466e+29
-3.075091774046612300e+29
7.260312011410897742e+29
-1.737450119412805257e+30
1.056025924724657129e+30
1.808568020192838805e+30
-8.943840041802816437e+29
4.750711697340228460e+29
-2.593650058156237582e+30
-9.861143198442687929e+29
1.111007908693145926e+30
1.610146706754247496e+30
-7.818122794279987130e+29
1.247635277716123286e+30
7.484366348129219487e+29
-1.724771534580303655e+30
5.631049220959765271e+29
2.215585546324072140e+30
4.514720238010339811e+29
5.888627296326037445e+30
-3.608043442888024896e+29
-6.181139121304501840e+29
4.220935948101606867e+30
3.656759543578907877e+29
-4.100842294117165817e+30
-3.894463695019578832e+30
-1.470890030010436480e+30
-6.627800058067474216e+29
4.511000588739463241e+30
1.137033484436184176e+30
1.478568738302077640e+29
-1.320179958444652267e+30
1.119277625065868936e+30
5.932167660706153386e+30
3.122353618823339646e+30
2.563473457429899130e+29
1.571331681280155087e+30
6.780636369110936073e+29
-2.571045020334935100e+30
3.081085015637196694e+30
-2.778368587091112149e+29
1.593018067808873833e+30
-8.159648688229034831e+30
2.472504444699349029e+30
-1.120847168488276724e+30
-2.936368508320210678e+29
-1.482127337029464858e+30
-1.976870976391609160e+30
1.175149850062249219e+30
1.434095850519667163e+30
-9.029872320025334396e+29
-2.044467829625843719e+30
5.686441396404028165e+29
-8.808205267938380284e+29
7.504979873468961235e+28
-1.208393206781871887e+30
-1.350311179916585906e+30
3.489199429657385020e+30
2.036929591092403808e+30
-4.091824460527261555e+29
-1.303651007366358094e+30
2.497853044319800746e+30
1.421732258048471281e+29
1.863527904385373096e+30
3.367245405092580873e+30
-4.290599372511680975e+29
-1.900609239380399497e+30
-6.429200680869141203e+30
-5.864452733945395117e+29
2.853660102881386896e+30
4.587985541958093959e+30
9.913537920443030051e+29
-7.930810564417645359e+29
-1.979455489003213459e+30
-5.426645214625914743e+29
3.046603367289145549e+30
2.966070193784268717e+30
1.027920494699850588e+30
-6.313460366185114541e+30
2.321407910216455898e+30
-1.957569770982310379e+30
8.738534182964926864e+29
-3.667779894644993901e+30
7.034851095258683878e+30
-2.334307389542478848e+30
-2.325705463522233107e+30
2.979023294076702424e+30
-1.414415609277469613e+30
2.346147458179290414e+29
2.757223132016656232e+30
-1.429236302460035174e+30
-2.510662857609883936e+30
4.339077169090931930e+30
2.864414582554992900e+30
1.260895474381360349e+30
-2.113782773273697213e+30
-2.436587015342640519e+29
-1.491915155362095727e+30
-8.493011509901450717e+30
-2.540465422341249834e+30
2.056640195147853289e+30
-2.642906360999441904e+30
2.747723180013697980e+30
2.832180015707872439e+30
7.689498966558120401e+29
-2.641667111112051463e+30
9.886556773120346321e+29
2.112132758996447268e+30
-1.280735353560022002e+30
3.124282063068682031e+30
-2.130649376779996790e+30
-1.169951824093898872e+30
-2.124167192866310176e+30
9.556283385670157084e+29
1.710734515758739517e+30
1.972471834400247569e+30
-3.105461955811462262e+29
3.866463951933444976e+29
-8.727646984048803068e+29
-1.368361586149518655e+29
-7.386524655736597231e+29
4.580725905925552229e+30
3.736830994136282129e+30
-2.396819970319970825e+30
2.615075808664995768e+30
-8.417993885126697247e+29
-2.826227358213374470e+29
-2.834343333879602759e+30
-2.417570190543002384e+30
2.174930757309190878e+30
3.766924941567158029e+29
-4.945687498480589648e+29
1.089868436408101054e+30
-1.401454503973502412e+30
1.479477759335670753e+30
3.718695730552083801e+30
-2.895609891492727152e+30
-4.773049003903410630e+29
1.497822781443025838e+30
1.733836339083163065e+30
-3.047679580034410857e+29
-2.006054342056743599e+30
8.394479408003125444e+29
1.391806748191030948e+30
4.658807116841517836e+30
6.255463709131119991e+30
1.166581347810146002e+30
1.536585235926572068e+29
2.803942125113214083e+29
1.877322408083782728e+30
2.031610194432610607e+30
2.556687352957675470e+30
-5.293048765094141945e+29
-1.445357408565591435e+30
-1.227902775406819369e+30
-4.873791879971414226e+29
-7.279428759537964802e+29
-9.150032947709024153e+28
-3.758182171129051841e+29
4.714123959131782556e+29
-9.055644863714227767e+29
5.938900533340202544e+30
5.208063352988691211e+29
-2.419828997353430303e+30
1.293480021292410787e+30
-2.957794780588818542e+30
4.461675345102465459e+27
5.391558746778384406e+29
-4.352712823471573140e+30
-6.872448395541866595e+29
2.781431465513888656e+30
-5.051134996514733418e+30
1.513514621946135660e+30
1.411312223782788120e+30
-1.682667488635113452e+30
7.125563452960203294e+30
-4.341594401305438601e+28
-6.300537415232236298e+29
1.029126006735230684e+30
7.475035995806809214e+29
-4.032737217942307286e+30
-9.425329449823852373e+29
4.322393780851801523e+30
2.388879277785588810e+30
3.695854848727487225e+29
-9.179609741912764654e+29
-3.187152351679943508e+29
1.118620838120948620e+30
-3.890478600345780036e+30
3.022366604044387819e+30
1.895000906313442863e+29
-3.381260114725386585e+30
-1.236694962092168783e+30
-5.699013610581458123e+29
-1.329408859098355680e+30
3.536369569606232949e+30
7.250697041276343261e+29
-3.147419519202433459e+28
3.469905264848147330e+30
1.503079697577549706e+30
5.070752911115777673e+30
-4.773916900202989306e+30
-1.610657092334322080e+29
6.145179169477576561e+30
7.141559020144479644e+29
-3.821665354080914294e+30
8.318979547376159366e+28
-2.599732746479353499e+30
3.123515736207785881e+30
1.430568162031888306e+30
1.073614683282279115e+30
-1.409008059092630693e+28
9.683988284572069694e+29
3.910817397707901368e+29
1.024388019592395630e+30
8.211096598232700176e+29
-1.838988421284633020e+30
1.891526570790026165e+30
-2.297737022678708075e+30
-5.315190690123023450e+30
6.437063969250341685e+30
9.203038203383728849e+29
-1.389541027803649602e+29
-6.265088226170993747e+30
1.475564431894248839e+30
4.654297780003287476e+30
3.273466562418973797e+30
-4.511749665146520766e+30
4.046077133954444019e+29
1.066221820315845459e+30
-9.508404320676546089e+29
-7.894101023280785982e+29
1.978187488400237914e+29
2.201210823117860735e+29
-1.211176302363109331e+30
-2.041615488283751769e+29
4.939261109362586492e+30
9.806978046652515790e+29
1.076400579343383786e+30
1.655251823828871575e+30
-6.346475604803280007e+29
-2.027985135695312009e+29
2.923831562721009153e+30
1.948552443410504684e+30
3.432989633114344828e+30
1.512136000001156504e+30
-3.634495669036677529e+29
-2.027595332886813923e+30
-3.205040175458798220e+29
4.098735112348223755e+29
1.784142948572291874e+30
-2.941046265617717401e+30
6.918224859154090990e+30
-1.172867847714510839e+30
9.288675566839469515e+29
2.570151629752351498e+28
-4.609376163616818658e+29
1.666903876268002169e+30
-3.724616945824532943e+29
-6.801020288879404578e+29
1.262888680855739633e+30
8.651636347729316526e+29
-7.479654962073083293e+29
7.490193971379581793e+30
9.659259309036749498e+29
-3.867247928699323807e+30
4.808822542049931159e+29
2.907133593094505379e+29
-1.024752160664834737e+30
-1.895182245017557773e+30
-3.939984471671449671e+30
2.539238001336770157e+30
3.000872217298047344e+30
-9.063152466158811864e+29
2.161557037394386059e+29
5.048025818716921280e+30
-1.686624938118128913e+30
1.157313977329285241e+30
-8.257886129340804840e+29
1.082619923362409574e+30
-1.370321336393772427e+30
-1.942216135924565542e+30
-1.523619074527212861e+30
2.612087202288783984e+30
-2.010565282850622003e+30
-1.163287446163093548e+29
-1.560156737632332239e+30
1.268282931374647731e+30
-8.284243489649877264e+29
4.404743870980865584e+30
-1.288381404476574734e+30
2.675821500274666492e+30
-3.955946893261697526e+30
1.329772987523286555e+30
9.495201850001094317e+29
7.009561032714166525e+29
4.220612577236127952e+29
-8.946441606957668875e+29
2.665194124547474897e+30
1.944477598724662234e+30
-4.147755697895348860e+30
9.693295486811913289e+29
3.103419304691935257e+30
5.589265881456566915e+28
-3.633206963368045571e+30
3.080091657221772817e+30
1.960879190921707703e+30
1.386107891842177985e+30
3.966004336052311290e+29
-3.592708048970515397e+30
2.792003786860093366e+30
-1.204578908470878740e+30
5.791997292172056029e+29
-1.937198638433109804e+30
3.159984328351971292e+30
-1.148214815937290253e+30
2.937280454329867409e+30
-1.155776593956247397e+30
1.223284426281468883e+29
-3.768037868223479220e+30
-3.229212166216400245e+30
-3.414792925209253970e+29
9.482884856014496381e+29
-3.110539725065095032e+29
7.852088020953300488e+29
-2.766788039536980695e+29
-3.920047595859909389e+30
3.587494378081365855e+27
-3.993898289246287794e+28
4.403713704161182360e+29
2.491039778853181436e+29
-2.022178094059556115e+30
-1.957303786736993417e+30
-4.123038180438057836e+30
6.912123123521701097e+30
2.914786041242583091e+30
-2.772058810512686169e+30
-7.722500472544910554e+30
-4.134781205500734642e+29
1.614534194015687542e+30
8.217782280424215668e+29
5.376675051554381587e+30
9.465158694771520135e+28
-1.049937262419153707e+30
1.456484371971837216e+30
-3.251031446455017788e+29
2.367438573381926564e+30
-3.162218783759809344e+30
-4.750263376402732940e+30
4.396807771660916068e+30
-2.772916624906703125e+30
1.812963519890647382e+30
2.795099325296239196e+30
-3.586693119568642825e+30
-1.164829886784864934e+30
7.601531271488998713e+29
1.670030976901348438e+30
-1.050471602773992333e+31
3.581466098671731480e+29
1.375576203038832101e+30
3.059951507277008315e+30
-4.714064757786368756e+29
3.073714327811142236e+30
-3.131478120511032315e+30
-1.652057915480538790e+30
-3.567868137793506770e+30
6.902907026393685225e+30
1.762130442739262576e+30
3.194807327848070892e+30
3.972515368357751389e+30
-3.544478706226042092e+30
-8.964221625785917685e+29
6.617699873330158384e+30
2.468549377364493860e+30
1.402890098294140148e+30
-5.404359957189142455e+30
-3.402847708139330458e+30
1.693665674138775631e+30
-1.135786064710341922e+28
-3.945792308900058112e+30
-8.976368403827406254e+29
-1.243989804586527675e+30
5.093232597854416393e+30
-4.420294035951661207e+30
-4.732915675832580169e+29
-7.214213267487928301e+29
1.079092492481885127e+30
1.065373861984667016e+30
6.926165714544768589e+29
2.655714236376807815e+30
-1.176612930608121928e+29
4.342511566182774568e+29
-2.642119737857601269e+29
6.112595335045550990e+30
-1.637158336007789939e+30
2.279747783938008015e+30
-2.518327341680828134e+30
-3.470028658211243792e+30
-7.402515930917422813e+30
-1.905277631071958703e+30
4.909547889077845454e+30
9.756526715682323358e+30
-1.973023000438403540e+30
-5.819757764298474661e+29
-3.750381623318769463e+30
1.766678927190006410e+30
3.177906739791907796e+29
4.552414787607773055e+29
-6.404388197599448175e+29
6.569326734090370410e+29
1.628503686548811234e+30
-3.383097313091955128e+30
9.064832995138862627e+30
-3.563382490216797315e+30
-1.211176637577608351e+30
2.491834334321883200e+30
-1.080756566568504332e+30
-6.857943190951671761e+29
3.075875544057853223e+30
4.303657226503000614e+30
3.549630292882012726e+29
-4.637224049615336842e+29
2.586066904062255757e+29
-2.236801727008147992e+29
2.016270522470776935e+30
-1.963180567691999111e+30
-2.455178729195947365e+30
4.189732927560802128e+30
-3.454532874795846473e+30
3.663909665634738187e+30
-4.719961843965592900e+29
2.017121250103686955e+29
9.663761999919033311e+29
9.132586932204611135e+29
-9.396676093729510519e+29
-4.480985715802488009e+28
-9.273712061053024121e+29
1.689898342051528760e+30
1.915867732807376576e+30
-1.070314618356156171e+29
1.718880104296292838e+29
3.604763382666436640e+30
6.201444115719994906e+29
3.439382231931232013e+29
-1.325163817751525861e+30
-1.419776157119775602e+30
2.976956849240236262e+30
-1.362898106102837145e+30
-1.434858800679972555e+30
-1.739903570751764526e+30
2.910983143300509816e+30
6.519623190781881966e+29
2.704252109083861183e+30
2.294105993670523431e+30
9.292949884239602866e+28
-9.683662280433093585e+30
-4.138408186155029744e+30
8.846664008964169963e+30
3.160266196966497485e+29
1.344189023355267539e+30
3.750150299794770346e+29
-1.608482169845551378e+30
2.477927450837715812e+29
-7.760810584066835660e+30
-8.187408653039979588e+29
-7.117287255508995717e+29
1.704122932249410224e+30
3.985400051810454835e+30
-3.287324163385874732e+30
1.321187750842790540e+30
8.265756079798266134e+29
1.287042334616197184e+31
-5.451172660803293481e+30
5.915728641128158407e+30
1.673691014853250943e+30
-7.853073976989831597e+29
-1.175725972922034970e+30
-2.626665836498577400e+30
-2.745340980420658387e+29
8.209455419719654736e+29
2.565240296181408954e+29
-3.487300698346348008e+30
-2.223698492563582910e+30
-3.405856020452661170e+30
4.802981748250438280e+30
-1.502500284888351795e+30
2.165793940501393239e+30
2.888179314021513944e+30
3.166683388344590024e+28
-1.973103167432477254e+30
2.676217249106746509e+30
-3.012910271869378191e+30
-2.735919339662025327e+29
2.182502261677612713e+30
-1.430960792084785774e+30
7.333849386330000430e+30
6.028622907847920797e+30
-1.837398262443111798e+30
3.840650395287240423e+29
-1.445315092978826853e+30
-7.054236556890012368e+29
1.184143160690683810e+31
-5.361406984463412964e+30
-4.055339569539615713e+30
-2.730182127906454011e+30
1.200302783834460894e+29
-3.035263867992939749e+29
2.006760008355882697e+30
1.192564246999047980e+30
5.232305681202502590e+30
3.697839318662424501e+30
3.845412952442321573e+30
1.883181183528552132e+29
-2.840703127745516988e+29
3.112751518414512524e+30
-3.154089444408126173e+30
-1.049309577217089547e+30
-3.566433470481441002e+30
1.153171291101672565e+30
-2.376120170742224838e+30
1.431496263381475323e+30
2.641902380471970781e+30
-9.911830272750951380e+29
2.712288382769563601e+29
-3.023933488851982975e+30
1.553331132614421450e+29
9.548494609475340667e+29
-1.633950034519594483e+30
-3.266689556254661391e+30
1.383883930463778744e+30
-3.543408862147378462e+30
-4.265620498626800633e+30
3.069128069053491602e+30
-9.919255133164500415e+29
-4.214931636771935582e+29
6.550894456226673412e+30
-1.692360667198147262e+30
8.476240255063584890e+29
1.508267686988188614e+30
-4.798117561511707596e+29
-1.841474845625308698e+30
-8.293980171050671048e+28
9.802561585944385339e+28
-5.165145591242638877e+30
4.252219724971241169e+29
-2.169886418960791049e+30
2.656196007690878890e+30
-1.367367684404376563e+30
5.019732902163315044e+30
-1.251217108451799515e+30
2.177653813151717232e+30
1.035379494155791564e+30
8.155284992780227865e+29
-6.934212072694478700e+30
-3.548377987599248949e+30
2.762378784024328914e+30
3.573412795741669598e+29
3.142813894114492318e+30
-6.551299796117651963e+29
6.610526073449007825e+29
3.150051866072499131e+29
-7.227167057239494506e+29
-3.091278629409128769e+29
1.582495034309189623e+30
4.536573661938965594e+29
-2.561209135907063577e+30
-2.324111343267796463e+30
8.149326579928817022e+30
-1.574524289122025919e+29
-3.853466905257801685e+30
8.836369249286391045e+28
-2.874845830916348120e+30
-9.205431104057399316e+29
-2.599367651755108248e+29
-5.081088152548358616e+30
8.404292910728930325e+30
2.463949506231821683e+30
-1.334484342827560211e+28
9.572856257535434205e+30
4.777165646794335324e+29
5.698769687415538914e+30
-4.156224066436152239e+30
-1.232170048742835034e+30
3.919785375438469450e+29
2.039483055877801847e+30
3.173882404606726145e+30
1.858740778136587478e+28
5.446480206376741271e+30
6.726683027119780179e+30
-1.545637001586104216e+30
-7.809660411563307546e+28
-3.780564781744626812e+30
3.891667457929800157e+30
1.104567422506735639e+30
-1.727020310771140234e+30
7.046251472926856322e+29
-2.474281994649223732e+30
-2.559349115821307865e+30
-1.907795064515038447e+29
8.932633980261462038e+29
-2.690751230848332140e+30
-8.240064677029030924e+29
2.610984387662197097e+29
8.646119534659350130e+29
-1.033280212001658449e+30
-2.762361192406116353e+30
4.362024009700839091e+30
-6.110182268963631472e+29
-1.042467075682504420e+30
-8.900270171624050154e+29
-3.684186274343319446e+30
7.030706077650041702e+30
-2.324127631782436781e+30
-4.192214529797032626e+30
2.842634374712680840e+29
-2.667659514516191777e+30
-1.471531921011206051e+30
-4.475828924256305573e+30
9.409679678124681308e+29
-2.947869355620322337e+29
5.559623610282985386e+29
2.529851115726064382e+30
-1.285359121876613505e+30
-1.779344294646523507e+30
-1.722654351859631507e+30
-1.034858714295658654e+30
-1.697126609731365346e+30
-4.680792842956132807e+30
-8.970216820739122084e+29
-4.427787511786668101e+29
2.249229945913321456e+30
-1.100629575347469924e+30
-3.542632746729379748e+30
4.860043990604445290e+30
-2.596365520497559637e+29
3.285308638047352203e+30
4.006459452038643286e+29
-6.224527551291656583e+29
-2.098689162136557174e+30
-2.443382927502335497e+29
-2.277893811822477209e+30
-4.641337576577788731e+29
-2.315761854566155523e+30
-1.518857183338134015e+30
-3.548326390796707324e+30
-1.221411643084328183e+30
-1.906832021168695541e+30
3.772150781746080184e+30
-8.485971585322994571e+29
-8.710973947438876401e+30
1.711410808939332940e+29
1.901910564751576028e+30
2.908283658267264953e+29
-5.385747225501900505e+30
-1.724810701812827437e+30
-2.209428195113774850e+30
1.194118686662068347e+30
-1.502366502301845564e+30
-1.391350757299717139e+30
-7.661354458666578375e+30
7.546254303910425178e+30
7.215159216317167944e+29
-2.555516566468566571e+30
1.154733383246556649e+30
-2.508628997435664489e+30
2.993158501030636063e+30
9.226122146437166572e+29
-2.658374496939222453e+30
4.895134830780125709e+30
-1.062632126711006064e+31
2.156538334760207788e+30
-1.653308124746435958e+30
5.116961478464609210e+30
2.444013263305680923e+30
6.290654449129309420e+29
-3.558543780253169728e+30
1.458644828704217762e+30
-5.909528657742651002e+30
-1.678651829652149258e+30
1.807033470490575241e+30
1.109334560518635511e+30
1.990560080321115257e+30
6.526008956146836656e+29
7.747447734797363225e+30
1.313854975807977811e+30
-2.303087021420779887e+30
2.488864649399229052e+30
-1.307615974096502521e+30
-2.562969403833778175e+29
-3.133801038131989694e+30
2.744823528458504225e+30
3.696473534286480010e+30
4.597094543065846642e+28
-3.071150618087539582e+29
-5.369806217592448814e+30
-2.258157222099260892e+30
8.645191706141217779e+29
-7.063187599958037418e+29
4.029285836536749175e+30
-2.073129682134047213e+30
8.932482448875771603e+29
6.491721129487890074e+29
1.819624436860221683e+30
-1.566512192046023511e+30
-1.265835769330414301e+30
5.541731173760935864e+29
1.735555369491151072e+30
4.430829644386422393e+30
-4.016413735144243187e+29
4.075496917093030704e+28
-2.121727436861398042e+30
3.327847603167539836e+29
1.941576187462530848e+30
3.553627583728189851e+28
9.571961434869537206e+28
-2.108244214478524547e+29
-1.479482863121949450e+30
-1.606158535286324613e+29
2.201898375904824972e+30
-6.458320954938127742e+30
5.652233139983753602e+30
1.224474556210977602e+30
-8.785838477870046113e+29
1.381610632901578574e+29
-1.142123542670767133e+30
1.257225658587331617e+30
-2.395690850606435571e+30
-7.400669997644768487e+29
2.554068230144418637e+30
1.296070638964682211e+30
-1.931655814502179741e+30
3.475016002648086875e+30
-5.178276107498528668e+30
8.855933039218639891e+29
-5.061320107264808845e+29
-7.782264098599445411e+30
5.853264313047546546e+30
-2.085424377052952830e+30
6.468472141227214888e+30
8.171652362785373522e+29
2.938070722170517017e+30
-1.764053308198020704e+30
1.280878625437320274e+30
1.709160204571985963e+30
-3.996269749560180107e+30
-3.957076901741081923e+29
-9.108985640562641628e+29
-1.785186670203535724e+30
1.385134992478366885e+30
5.932919980323535952e+29
-9.064560129001267124e+29
-1.064533805993220177e+30
1.497633668684533619e+30
-1.319996255912197428e+31
3.547713835736960359e+29
-4.469147973196426102e+29
5.771187046678763316e+29
2.984813597907613016e+29
8.100081208002513414e+29
-7.380278724322273726e+28
-4.727785404498099661e+30
9.576812200877474690e+29
3.456404786435411347e+30
2.266816614163240259e+30
2.236102387294293228e+30
-1.823971963461880124e+30
-6.144868693355501220e+29
1.036371054286158973e+30
-8.962744248071358341e+29
7.084092015375275552e+28
-2.795284794485602204e+30
-1.157405752665531894e+30
7.180389702399762982e+30
-1.960693027396901983e+30
-6.174587875771627737e+29
-1.133702961347117803e+30
-5.895521161742737499e+30
7.885579360737962175e+30
9.450537377509716967e+29
-6.895779533205187856e+30
-6.213333603049869299e+29
-5.041144341726943769e+30
4.144702995540453288e+30
6.754460941300303328e+29
1.978810024353431652e+30
-1.018345272708846033e+29
1.537249585945130948e+30
7.797260327612742358e+29
-2.036050443371223097e+30
-3.573552095029991389e+30
-3.226110883301058195e+30
1.006629413851037539e+30
1.540692085394161773e+30
1.542598980848180269e+30
-4.451161311824732202e+30
-2.930298795802596364e+30
4.313913886408775614e+29
3.332528700253002116e+29
-4.131803400510946702e+29
1.013687300099134776e+30
2.211853554801505784e+30
8.704855178988315123e+29
7.014070173599580653e+28
-1.380015248770057374e+30
-2.836912258074992865e+30
-7.889885056641486739e+29
4.385350314654293117e+30
-2.496475818525751680e+30
-1.688882562027294883e+30
5.356162880164866085e+30
-8.870821625296336798e+28
-3.969686523776256942e+30
1.257486087122290247e+30
-1.886414934892945542e+30
-9.734586803866656255e+28
1.402373844230690755e+30
-4.311048151680880248e+30
-3.281493978092056936e+30
2.829823727463562144e+30
5.003804480309168750e+28
3.286737418420070508e+30
-9.018572055232106067e+29
4.073446131978600890e+30
2.850311432528661278e+30
1.230761135903754377e+30
-1.432516609611874307e+30
1.071870371510609607e+30
1.252498561198902992e+30
-5.246300929144124299e+30
1.699143402423195255e+30
3.700946566235115791e+29
7.390873572826958006e+30
4.148614532013422279e+30
-3.188533182204652807e+30
1.470997117566141349e+30
-2.005108182621029399e+30
1.871745409707717533e+30
4.787586863762843392e+30
-1.199246910339979059e+30
6.460597345019495213e+29
1.752148903090422905e+29
4.635801725369786586e+30
-2.019801901108734297e+30
2.175291471280711002e+30
1.500041339605456242e+30
-2.643656367840854362e+30
-7.169771913485813117e+29
-2.105573949752948286e+30
-1.330461616073509046e+30
9.953330372616392642e+29
-7.228624084186787569e+30
6.512322435492654613e+28
-6.622616651679469852e+28
2.050401277778480991e+30
7.868835449128338090e+29
7.955626101483555555e+29
-1.956717263636089734e+30
-1.406255621051611823e+30
-3.994314522002527532e+30
1.087572096474552438e+30
-3.616876415710763779e+29
-3.020299134780010194e+30
6.607599935464461629e+29
-1.805475798812614571e+30
8.261032740215517760e+29
1.938560739494690100e+30
-1.272046525967417567e+30
-8.192205543363652918e+29
-2.924758514183497365e+29
5.435612365494105757e+29
-1.941857277977979920e+30
3.535501845852283593e+30
4.088097088993934535e+30
3.297207992817342354e+30
-9.389269980849191488e+29
-1.406534480872046858e+31
-1.762523744886446237e+30
7.463308772658613721e+29
8.957132384915140972e+29
-3.040633357338420004e+29
-2.458392069315967295e+29
-9.926879113524219399e+29
2.356546048251209705e+30
5.998371973680695149e+30
1.344758648483998223e+30
-3.617539428350854095e+30
4.094004472090867187e+29
2.836473378696042551e+29
3.439668300790783942e+30
5.231242061931849091e+29
-5.525603886934880783e+29
-5.761016886390790265e+30
1.446641201013404991e+30
-4.086517177727090452e+30
-7.401141548208708810e+28
4.762961337149138823e+30
-8.384217841674090806e+29
-5.146102935867327814e+29
-1.158271206386752150e+30
-4.848155970143121294e+30
-2.601772512349739850e+30
2.293526282733221734e+30
-2.328138283140898286e+30
2.531018136847028833e+29
3.417857730638437818e+30
8.829154297094651988e+30
-6.354680560560012657e+30
-3.413571135943213810e+30
-1.021678868894194664e+30
-1.071898522127393694e+30
-3.774661094385568520e+30
-3.142114842255906711e+30
-6.825633167292684459e+30
-1.965803006013514120e+30
1.732250266505297884e+30
-1.871127558142591093e+30
-7.896264653232436708e+30
-9.093554973872773992e+30
-2.853701938468161280e+30
3.900792639105788887e+30
-1.519106235456713899e+30
1.008980017269862314e+30
1.125039385906237369e+30
7.947842698106321343e+30
1.261190322759346433e+31
-8.260533799388848475e+29
-3.037397867387196234e+30
-1.043459366541375645e+30
1.290570491212105532e+30
1.952563434845666771e+30
-3.707827367098685808e+29
9.849912736981751700e+29
1.787544892501076934e+30
-3.176400534929970346e+30
1.621916650695623328e+30
-1.313925755298295730e+30
-1.167200382667643871e+30
2.980818711219915497e+30
2.916933201680218335e+30
3.138282531890021878e+30
1.414699741383654656e+30
-2.075124570314519124e+30
5.172960910390722594e+29
-1.692007246186745935e+30
-1.855923332559205366e+30
-7.068102210681143895e+29
3.847947619194494050e+30
7.909858650718477291e+30
1.137158938552690401e+30
-5.934534541223371726e+30
2.682340088067365576e+30
-1.896095252723034662e+30
-1.669091751095361843e+30
5.129638850632616427e+30
4.629078102655798843e+30
-1.782518704296479509e+30
3.604009992049697243e+30
-8.240300007023551698e+30
5.637973119517667272e+30
1.801705879405570484e+31
4.476091836350425514e+29
2.358130616405242508e+30
3.577189302167558080e+30
-3.064534397484755980e+30
-4.443422079718965885e+30
-1.212950358364661694e+31
5.816035762980024186e+30
2.250009821692052789e+30
6.284057367312254944e+30
-6.761182194901900104e+29
3.303125966911357328e+29
-2.635234191253336510e+30
-1.718206968561941547e+30
5.772927934163640705e+30
5.473235413568526768e+28
-5.060978771764478698e+28
1.232476646842896890e+30
5.342587508110880540e+29
1.004229410724102665e+31
-2.620425034290796942e+30
2.865556874908780380e+30
2.007673823317027306e+30
3.379266973282848280e+30
1.234083021056783793e+31
-3.525033762535545145e+30
-4.909335920532701041e+30
-7.964430910286946477e+29
-9.143259207133158539e+29
-3.205013772689935829e+28
1.287837054257958032e+31
-3.492759821679489848e+30
-3.953169700582788276e+29
-2.113378988263375936e+30
2.844940841304039493e+29
-4.718961391924182180e+28
1.092459399958640640e+30
4.375440610626699714e+29
6.993894587873354899e+30
5.326294461578247211e+30
-2.367535757583918764e+30
2.516241481440381460e+29
2.001246408772647901e+30
3.404113402939200792e+29
-3.286009898586307642e+30
-2.708654068570836262e+30
6.671709308855518330e+30
-3.367496348161164156e+30
1.205072519205275182e+30
1.625447618002282950e+30
-3.101084997183212516e+30
9.621443610550016986e+29
3.785879352471767797e+29
-5.567244138655631875e+30
-8.305427193537437613e+29
4.720658790139343802e+30
-1.543184652148621939e+30
-1.109964996355807508e+30
-1.367531949747344487e+30
-3.909745111098635910e+30
-1.687289678758159425e+30
3.896179277137612571e+30
1.292019797570855660e+29
3.359522077947010244e+30
-8.492869207525027382e+29
-1.691794111406000065e+30
-4.460079624220994179e+30
1.222891909701951892e+30
2.839217063893974768e+30
-5.416233750423382831e+28
-1.397857956743795160e+30
-2.765818330126443096e+30
-6.707711935207328679e+30
-5.557472314701087276e+29
3.362343505930369236e+30
-4.499412048449669203e+30
1.441743407497724353e+29
-6.954686478241649343e+29
3.270434739172353858e+30
-2.896394977924280499e+29
8.898247477720979637e+29
-1.489449293391097603e+30
-9.218495721149662995e+30
-1.054815697443741329e+31
3.028817049768418500e+30
-4.454532542630834142e+30
4.432442375891628427e+30
-3.020829450371968089e+29
2.615997072624197528e+30
-1.952811805428481348e+30
-8.639614927706563192e+30
1.095081588712021636e+30
3.461692673491409852e+30
-1.473279335001502343e+30
-2.942236733483904120e+30
-5.758255772560316892e+30
-5.170384230203231880e+30
-1.552058725789425564e+30
-2.339842385138433202e+28
-3.678521031944185479e+28
3.299260171354678238e+29
-1.093014805136357834e+30
8.199470069223746657e+29
1.498828521484779219e+29
4.756548228455930955e+30
-5.448829706638120686e+30
1.523603775828125928e+30
2.009122259974880746e+29
1.802310869208279462e+30
-2.100780203538544908e+30
-4.348126065279888576e+30
1.663589694298634640e+30
5.358153468212580561e+29
-2.114354759859044304e+30
2.184079456682895504e+30
1.958464518124477560e+30
3.545727699650301423e+30
1.390790705514642868e+30
-4.707348269686783731e+30
-2.089623680632483072e+30
-3.764904621840316610e+30
7.287544526236913887e+29
5.507518050911407751e+30
-3.043872356857504504e+30
-7.776234218141025572e+30
3.978924125221187481e+30
-2.770702383603467360e+29
5.129274600192150614e+30
4.858600563603685862e+30
-5.628338480558597330e+30
2.153322808880242344e+29
-4.457045897709043193e+30
2.988424124448288768e+30
7.140086293456986906e+29
-2.632067432266507454e+30
-1.976700175234131736e+30
5.693766504257534097e+30
-9.529170045574769091e+29
2.913193060284147742e+30
-3.591915015831549004e+30
5.259819786973020845e+30
2.207831029107111797e+30
-9.665188595040593515e+30
1.989534759886377642e+30
-9.128636994134130896e+29
-7.998743873065743604e+29
-1.817237127812388260e+30
9.159832685968980420e+29
-4.918013310637798539e+30
5.449205210691922853e+29
-1.371444425797970951e+30
-7.187415308420761333e+29
-1.267560999760990658e+30
3.489221582960402834e+30
6.260083874796527486e+28
-4.247142145547444751e+29
2.286364820995526292e+30
-2.622200850651605190e+28
4.841382709617264192e+30
1.410184237036499570e+30
-1.846960951348718297e+30
4.369008949132900058e+30
-3.199420927920169584e+30
3.135573604677303710e+29
-3.124723335745009076e+30
1.973123480522517025e+30
4.063155293847618196e+30
9.597681403188714021e+29
-1.610335928021817522e+30
1.735623575927462614e+29
3.233318785844082678e+29
-1.547508549752150852e+29
1.248580531649561663e+30
-3.364751666426270804e+29
-7.824666893027367650e+29
2.857030714736563766e+30
1.443480674602863783e+30
5.315115371371901816e+29
-2.884851703220325635e+30
-5.511061302789212642e+29
1.497621153287305771e+30
-1.214081342420511373e+29
-9.921171385156754556e+29
-6.943073861007476584e+29
3.174060292615887040e+29
1.142307837812105700e+30
-3.728522833102650190e+29
-1.117703499020732881e+30
-4.128505111362630423e+29
8.231135025761643650e+29
2.298793588178629138e+29
-1.714290492783874678e+30
3.212659779109257805e+30
-6.542245062949872131e+29
-4.285467778560148314e+29
3.779329469870554608e+29
-2.165888050523989792e+30
7.529065387892878251e+30
-3.678896710544075053e+29
4.063552637234558995e+29
9.064890072359969131e+29
2.068243091103127305e+30
-5.636183703954468297e+29
1.959563358958732477e+30
2.311283917971852691e+30
2.120647143915283733e+30
-7.289385690961519129e+29
-1.186048990811917233e+30
5.414402238048147593e+29
-5.271226416781051629e+29
1.255704141690830388e+30
-1.512285115388215464e+30
-2.290460782376771938e+29
2.160879847541100292e+30
1.579626643473549687e+30
-4.303179329787772711e+30
5.187283189260843099e+29
1.091610320493910465e+30
-1.951684929463324852e+30
2.194764830514118823e+30
-1.254849972704628389e+30
1.450566970846443987e+30
-4.282018255211634425e+30
1.433616822873893836e+29
8.260514147823560058e+29
1.059577737156543392e+30
-3.884606460226988187e+29
-7.827375810485918474e+30
2.542103901272643302e+30
-1.041210623761004483e+30
-8.784037315298483214e+28
8.716791804130724001e+29
2.852253921061573115e+29
-9.160000717957642269e+28
-9.243548986827074795e+29
-2.897954764337663160e+30
-3.065069671776133173e+30
1.159520853814648437e+30
2.123449999107222257e+29
-1.505190389259489797e+30
5.380095071632159797e+29
-1.483637180640312512e+30
1.655293252206930652e+30
-7.899286300587969582e+29
6.312944972942173355e+29
-1.203431108717691541e+30
-2.908987144079336524e+28
3.365715436455653960e+30
-5.619757199983039032e+29
5.881194617939140392e+29
-7.348037523377609811e+29
1.876742240133127636e+30
-7.984152482023865130e+28
-3.555532019995510968e+30
-5.017844202400705552e+30
8.898478896975148914e+29
-6.932189821297482168e+29
2.843272812304802901e+29
8.680976769619918700e+29
-3.256895299024346900e+29
-3.012399696726374144e+30
-2.077363570920199386e+28
-2.407106398698660650e+30
1.589076039425827930e+30
-3.361052025634738536e+29
2.181194878030361352e+30
-7.493043246321175088e+29
-9.591071825616140488e+29
-1.097391216125172728e+30
4.743859243695073748e+29
6.030956347806173064e+29
1.426274620559314840e+30
5.833666776879688030e+29
-7.890759686739268005e+28
1.597121022421794256e+30
1.514008887392940501e+30
-1.490634189947539433e+29
1.455095697758474358e+29
5.964334644027307701e+29
-3.095768943469960608e+29
-1.478922773421103975e+30
1.355946718966096876e+30
1.906262848678981292e+29
-6.923667161265307010e+29
1.773642280410725997e+29
-5.009886272651818068e+29
-1.628368013107335156e+30
1.710790849593069103e+30
4.610922153235162857e+29
6.327077610222324815e+29
7.477509453620854591e+29
-2.402950854488590484e+29
-3.174884895162585243e+28
-8.532086264784803752e+29
5.275394639166887062e+29
-6.032280186106275802e+29
-3.294899393990033208e+30
-5.628525251560089359e+29
-9.830594152292915299e+29
-6.143375054250791797e+29
-6.227513481059027851e+29
-1.356464080952982511e+30
6.713236625950002279e+29
-1.016961323685794268e+28
-1.101429969638157127e+29
-1.665256963267385842e+30
-7.430877691235894073e+27
3.374639277075704754e+29
5.352221370443828641e+28
-6.583861052615075982e+29
5.679978955812281917e+29
2.141145256674604227e+30
-1.493919779431396266e+29
-1.267803937360667535e+30
1.460442898853790801e+30
9.302160435901742242e+29
1.397235656220637339e+29
1.766933027725089156e+30
-1.032836312295563513e+30
-4.127338291460400897e+29
-4.640895320037657699e+29
-9.243895730410481415e+29
3.889263640036046508e+29
-3.412785764468474097e+29
3.544396902345697414e+29
-4.239279893361297354e+29
2.470646684642166098e+30
-3.502543350662986809e+27
-2.038824933019416896e+29
-6.629949430267896843e+29
1.309930655767967939e+30
-1.668215063434877242e+29
-1.307174464966697670e+30
7.670662591571273948e+29
-4.149420450986279163e+29
6.640302063704707595e+29
-1.262856042899799175e+29
3.083017854839733082e+28
8.594984594784453903e+29
-2.663189094310145152e+30
-1.139898407935772517e+30
4.310541189141004785e+29
-6.505171828257576491e+29
-2.514316720010811375e+28
1.318629381131038040e+30
3.725890001789600758e+29
2.670996353793861780e+29
-3.048759397482890336e+30
2.257722005364426228e+29
-2.839563605975588752e+29
-1.247506484712860324e+29
-2.851011619037062899e+30
5.879560818855350381e+29
7.429862093627756875e+29
-2.830249380820167164e+30
5.999042808533267103e+29
1.977344184256093784e+29
-7.676519669628845016e+29
-1.029700215468585820e+30
5.345858412071699709e+29
6.065543366917373885e+29
3.058885616650097371e+29
-6.317641468801292501e+29
2.912764308430334676e+29
6.873259339721078562e+29
-1.180565396597446771e+30
1.896030344239166393e+30
1.686949650620872940e+29
5.863857399946266463e+28
-1.604846537285860925e+29
-1.371488952249974264e+29
5.170866206341747003e+28
6.851221022893126375e+29
1.112100772826733069e+30
5.700729877671681015e+29
-9.729302387881845624e+29
-1.796808282870121021e+29
-5.974748921862378881e+28
2.247504586916927798e+29
9.477502668105375760e+28
-5.144344329446978188e+29
1.675142770572466509e+30
4.789725498883619235e+28
-4.280906893027041329e+29
-3.761406169436158504e+29
4.383290763480862979e+28
-4.156711414241848531e+28
-3.044511020317968781e+29
-1.125641837225364397e+30
-9.173762904176331648e+28
1.450273687138563982e+29
3.919136224778541050e+29
7.516332199039690781e+44
-7.516332199039689197e+44
8.279028616074631753e+29
-7.569180296773255516e+29
-3.236533741863041638e+29
-8.377366079384079884e+28
2.375511161251236739e+29
-4.960326843890927467e+29
-7.289575566949930544e+29
3.722516682996616491e+29
-1.313658887755971159e+29
4.051980035228832115e+29
5.751021156244798914e+29
8.401978672073206757e+29
3.893428193192921052e+29
-2.566104941688469529e+29
5.370870496619512037e+29
-7.456875375732309248e+29
1.424253173006972900e+30
-4.528545021478787743e+29
3.565323508111836424e+29
3.147400211759176616e+29
-4.594505122464105980e+29
2.893541276578280317e+30
-7.507877951271619959e+29
-5.916816848663868069e+29
-1.790995176466458206e+45
1.790995176466457572e+45
2.127253537196652135e+29
3.581474479228419080e+29
-3.353014227208268849e+29
-9.874188656178538814e+28
-7.237313386163271024e+28
1.376358616273579041e+30
5.373249872775595648e+29
-3.518281927948950534e+29
1.359466116943209266e+30
-1.393661481937890546e+30
-4.352766333246781421e+29
5.833444828318103206e+29
-1.084074288355833843e+30
9.079690225970135732e+28
1.752591209057646049e+29
1.362180830361974073e+29
-3.727046271189380941e+29
-5.294721726111164210e+29
8.485336935177236480e+28
6.969768671775012290e+29
-5.027832542021124951e+29
9.720632538674812291e+29
5.134820407573508656e+29
-2.787077672671293646e+29
-3.145622404713434056e+29
6.067273089592882963e+29
-6.946738460024497584e+28
-2.718770954101092797e+29
-3.269696534004172960e+29
-3.846427861821909230e+29
1.712315544296709942e+27
5.280684813214362810e+29
-8.139708119236061988e+28
1.417983224036360160e+30
-4.516215336550712018e+29
-1.080402141215177060e+30
1.731682096617214891e+30
-5.384814781707874733e+29
6.457940613322531740e+29
1.930595882000632268e+28
-1.475056599852288025e+29
1.016942945670839739e+30
1.666281226979734484e+29
-3.677102532358478050e+28
1.958266410449760756e+29
-1.205466577472467058e+30
3.055389703270252589e+29
1.485764709914093123e+29
3.218790018892019364e+29
6.527862950447052503e+29
-4.068214883750898685e+29
6.763838222955973661e+29
2.793544658408858668e+28
5.451069469002548571e+29
-4.834864883246812457e+29
2.694097985635986934e+29
-2.275930538263354103e+29
1.847395374097749283e+29
-1.286801947708311627e+29
3.915347420522516774e+29
1.329838232672552007e+29
-1.095173997897805423e+29
5.050029268369966255e+29
-4.588069544919839320e+29
-1.380324406233514107e+30
1.473335738207841723e+29
2.600691953028673304e+29
-7.881202098637987721e+28
-4.172151811727643845e+29
6.509402521284554311e+29
5.428658829296735987e+29
8.723604573380086058e+29
-1.386982765943896945e+29
-8.361568383202502687e+29
-3.392657189194518525e+29
-5.811580251059725874e+29
6.557509132053467150e+28
1.869884720222471948e+29
-1.925950081217233873e+29
1.088692424754292661e+29
1.779608038505771365e+29
3.352047133156568480e+29
-4.030296899879052422e+28
5.338319121361478200e+29
-1.398347784064499427e+29
2.567848966221394162e+29
6.382903602981485392e+29
-7.636805194496308448e+29
5.961675734495813494e+28
-2.747128513032600505e+29
3.952449984106621198e+28
4.586785800274332213e+29
9.425799638554381522e+28
3.852593160534216457e+29
-1.160594949311747327e+29
7.743871341541865112e+29
-7.070325547815865870e+28
2.268331411570547016e+29
-6.618224339582579012e+29
7.892537722103783962e+29
-1.028191602337553662e+30
1.102168314423707617e+29
-3.728173510910087092e+29
-1.108178998357167268e+30
9.282418465911905353e+28
-4.047526705021112768e+29
4.571040020810540700e+28
4.572826108565520728e+29
-3.173482957127384484e+29
-2.211879030038245114e+29
1.034956880856283869e+29
-3.275390051204398592e+18
-1.310634963317241654e+33
1.310634963317233007e+33
-7.131906995480225280e+17
-4.039143187990816000e+17
-8.056024873652373760e+17
2.050763034705003200e+16
1.158063986852931360e+17
-4.993657415102652800e+16
-3.903510831700835840e+17
-7.483031593637781760e+17
3.294571629169418880e+17
1.953816663263092480e+17
1.441543801691862400e+17
-8.886572908497295360e+17
1.520022793110566144e+18
-5.923484814817808000e+16
1.477850538710874880e+17
-9.784727078943996000e+15
6.527958271240409600e+17
-3.023488924598733440e+17
-5.310487975858817280e+17
6.798839285692407040e+17
6.043631808483401600e+16
-4.382963827160511360e+17
5.590817202777086400e+16
1.811664331457280320e+17
-4.696859331125038080e+17
-1.947137846996532480e+17
2.707547182633492480e+17
5.545306977570802560e+17
9.535989734501656000e+16
-2.689529349507439040e+17
6.968931246581351680e+17
8.387769160319603200e+17
-4.411207077932320000e+17
-1.802003768377852000e+16
1.023062916518581632e+18
5.914180352414086400e+17
-4.587168349660125600e+16
-1.047828234398419200e+18
2.165568195505858240e+17
-8.434848669360951040e+17
-4.883997883198450560e+17
1.682594406728577024e+18
1.269246970484711040e+17
2.386025460977695360e+17
1.070357020450492000e+16
5.439325582345587200e+17
-2.467038791998888960e+18
-2.417533754667520320e+17
6.768227320155049600e+16
7.146941924929902080e+17
4.710050775199844480e+17
8.140434807632318720e+17
2.141118088614894080e+17
1.871740849524578880e+17
-2.929456789900640640e+17
2.943078273892579840e+17
2.357426954755909440e+17
9.395913953988088320e+17
-8.946185217752619520e+17
-7.345748660372419200e+16
1.540482364513871360e+17
3.901346335340942720e+17
8.507931175144596480e+17
1.179159154251895040e+18
-8.241347367283831040e+17
-1.276639562423404000e+17
-3.312338488255335680e+17
-9.952858519597548800e+17
-5.132173017513404160e+17
1.931373516970652160e+17
1.078506384771504128e+18
3.791250124561256320e+17
7.752618533248280000e+16
-1.014489760812776000e+17
7.841561681323130880e+17
-3.128668998529374720e+17
2.162136447807558080e+17
1.285826665284607232e+18
-6.241742329962306400e+16
-6.959238117067202400e+16
1.941804961583336704e+18
4.010612022601312000e+17
-1.767347572621358336e+18
-1.871683639433260800e+17
-6.776976461154647040e+17
-8.243419471053728000e+17
-1.512575994486667520e+17
-2.077915775517938176e+18
-2.647732280895905920e+17
-9.569962949598941440e+17
2.486410976645333440e+17
-8.791072021457366645e+04
-2.205665947148202880e+17
3.045394806851463040e+17
6.975348562703798400e+16
-2.073566867081685120e+17
6.147391057699245600e+16
1.680873380374733760e+17
2.485611977513323520e+17
-2.292857121502250880e+17
4.226661369440095360e+17
6.735320800607916000e+16
7.278440972687918000e+15
-3.049122953333526400e+17
1.323522632596824640e+17
