-4.338075031657696827e+28
-4.884006733457810351e+29
4.314643814102656943e+29
-3.492072422544638504e+29
-9.509141501036591103e+28
-7.319729101035908382e+28
1.719565859295974183e+30
-1.490011075224923916e+29
-8.969237270528597880e+28
1.384884453834781759e+30
-9.280491733753240061e+28
-1.850249849975888565e+30
-3.788114980764870408e+28
-1.374892519983479868e+29
-1.035953039861114901e+30
-8.808772941324605972e+28
-4.244897726607079022e+28
1.438981490895404801e+29
1.498992596941784858e+29
3.907655071573282153e+29
-1.555184682085426690e+29
3.348965869953359554e+29
-4.255881942717464199e+29
-2.715446676869086525e+29
8.175567161631875500e+29
7.059153491433553422e+28
3.192541450879776552e+28
-4.054798392296629404e+29
9.443919321540000572e+28
2.574871573229353881e+29
-2.745901384670553766e+29
-5.780635385858680222e+29
9.761499601850920815e+29
5.047901499706556717e+28
-4.180669916754825477e+29
4.673840295018167518e+29
9.827134251741115795e+28
-3.930947943111895638e+29
-7.402201652595976719e+29
2.569605840045317786e+29
9.235632637505770734e+28
4.124076497344157192e+29
1.105349462280776530e+29
8.692808515581029242e+28
4.063774505578131403e+29
-9.721203046079122191e+28
-6.354215310838146331e+28
6.117297303860980905e+28
-4.519285838098939249e+28
5.897313011482656682e+29
4.788312592658432020e+29
-1.821849893524863068e+28
6.956056030885486456e+28
6.019239031154780991e+29
-2.483011412171482288e+29
2.782245021994246119e+29
7.752731142623195095e+28
-3.780633412665815717e+28
3.631135311993874477e+29
1.393751807504441646e+29
3.914722156119224780e+29
-2.391539390195641473e+28
-4.543067823207071849e+29
-1.736034004833605441e+29
3.678774236857815482e+29
-9.893086200016956532e+29
4.137266422116271477e+29
1.129309374564581164e+30
2.854173289806166412e+29
8.714788218585022694e+29
1.957699130621333285e+28
7.006022505489654491e+28
-1.356468457594728730e+29
-1.543924733309467601e+28
-5.308790048269676134e+28
-3.308678065765352153e+28
-9.417848864171860582e+29
-3.200252269230835434e+29
-2.828040278221966563e+29
-1.629588388405638632e+30
-4.982447553269921462e+28
-8.909692382445738699e+28
-3.965777221344343204e+29
4.303057654379560403e+28
-2.300440689842262766e+29
-2.603390522288228561e+29
8.632659860540696240e+28
8.802216138255451134e+28
3.360415846839957192e+29
6.159359212676861607e+29
7.064296122608976087e+28
-1.243513760849779231e+30
-5.428781342027780064e+29
-5.538042843025756017e+28
1.041777338314035610e+30
3.556257045031521375e+29
-1.335353597216781032e+29
2.388326831766018030e+30
1.177969689153288958e+29
3.157901417403868109e+28
1.021639102793979490e+30
-1.099367558525063259e+30
-1.710976110630291280e+30
-1.169175017709816359e+30
3.723168315841798131e+29
2.440659696965299154e+29
-9.996854137566437945e+28
-6.732448527398406935e+28
-1.013989850389575796e+29
-5.764925496261728098e+29
4.266141325233164721e+27
4.395843274211288235e+27
2.729916807433092997e+29
1.261722484600527940e+30
-1.057690291284625601e+29
-3.554692788469365394e+29
-6.968216433964607904e+29
-2.290448019217622125e+29
3.324446506165183144e+29
4.150856346247119562e+29
1.700876368453341242e+29
-2.400848396602839712e+29
6.071435885614601991e+29
8.337205925989550229e+27
-1.940816512328395757e+28
-4.110729319466729725e+29
-1.120606949040661607e+29
-3.357088168523464896e+29
1.173360434375121175e+30
3.566817439004734038e+29
-2.401522982828339923e+29
-4.438753057693572753e+29
6.721892047877464548e+29
-1.680306640531014662e+30
-1.485463099300380447e+28
7.602825582736741178e+29
7.823640377743473438e+28
-1.750309067968299123e+30
-8.269099919304143774e+28
2.687342851496919392e+29
-3.964665211773957883e+29
6.180655850615129207e+29
4.542736560456144268e+29
-1.759185119563531198e+30
2.494692037413782183e+29
1.253736349790981492e+30
-1.715263849773354771e+29
-1.974051292452331169e+29
4.121868721803174609e+29
1.390817045838098612e+29
-2.836639906160100251e+29
-8.908200923184111963e+29
2.526969985868515843e+27
4.593035588808664401e+29
7.591890282356367749e+29
1.839661143671765883e+29
-4.100503539398694292e+29
2.016341215019366383e+29
-6.988795714174517707e+27
5.195662629319767614e+29
-2.511649132606579641e+29
-9.125889186791454821e+28
-4.439579143342920631e+30
6.606830960226805090e+28
-2.261411153427723228e+28
-3.190858427804957313e+29
-2.559293326788058239e+29
4.818261903900853805e+30
9.103050171160850196e+28
1.383837430766882250e+28
-3.274564288592247130e+29
-1.503601785907626878e+28
-5.527924687202250288e+29
1.001786955640828625e+29
2.750416928165025769e+27
1.579493535269949555e+29
4.881611413937313365e+29
-5.104432561529263418e+28
-1.014520443664455625e+30
-1.141058548572151062e+29
-1.482294889272360943e+28
2.047359681454051846e+29
8.917084000703233977e+28
2.260572438373962080e+29
9.440430523679456105e+29
6.248581961188870913e+29
-1.485477161386019109e+29
-7.074109373649789200e+29
-8.961794339343213054e+28
2.877920310606130871e+29
-1.896564621702433533e+30
1.745747918981841651e+29
-2.964691506786426695e+28
2.796910831261953663e+29
-6.193062051444470660e+28
2.983286005070025806e+29
-3.759674966654163115e+29
-6.168824607315378813e+28
-1.155909864787699852e+29
1.755455401236758509e+29
3.536694616718407183e+29
1.638890799759010693e+29
7.044826182707834328e+29
-4.275320083566114303e+29
4.424619065500780507e+28
-1.825130252054074349e+30
4.776633036244287743e+28
-1.481937393307030452e+29
1.011433552389424922e+30
5.273797093194010490e+28
3.154920235803653024e+29
9.371243793954027058e+28
-1.296360572539826141e+29
9.775636750364070205e+29
-1.803838931960289049e+29
3.088314114592932426e+27
-6.446606077850041661e+29
-3.163507719328691320e+29
3.112960287183074298e+29
7.470825300464636093e+28
-2.095342405138647957e+28
-4.797896668084500014e+29
2.678379730339186522e+29
1.729529294049672413e+29
-1.418290738253138738e+29
-2.585382905829087427e+29
1.868306960468221566e+29
-1.209063319505947093e+29
-1.291644928739192864e+29
1.727207648823880234e+29
-4.134774246150588433e+29
-3.776201241359697013e+29
-4.400848929140217599e+29
-9.633676875046509928e+28
2.001801028499299259e+28
2.723359011347647245e+29
2.528972001320722689e+29
2.609612052285932378e+29
1.995915219756162830e+29
-6.423375005705556140e+27
4.986716429353212534e+29
-5.087596295036588630e+29
1.628444724187909841e+29
-2.135216909220684989e+29
5.005091662382384920e+28
-6.437483461888791424e+27
-4.065221817459073930e+29
-2.622125052611723995e+29
9.885149471735515738e+28
7.411598027964523431e+29
-4.745050549077405169e+28
-2.673471765847342896e+29
-8.091458821266391734e+28
5.752938309130619739e+29
-4.412824017570678411e+28
1.392966783020580478e+29
-5.639262131999061682e+29
2.474536695702206001e+29
1.649982217090032185e+29
1.787337993413305477e+29
-6.913770975160582912e+28
3.403679911594977488e+28
-7.880374902891726240e+29
-6.954821350123618355e+28
-4.707694175396761719e+29
2.427280941832321746e+29
2.088885528376773104e+29
-1.034823439874218981e+30
-1.217587120766668142e+29
1.898683273816471983e+30
-2.499136299086622896e+29
5.346973285183272773e+29
-2.060167272381681024e+27
-1.385229062436509934e+30
-5.590804678948971766e+29
9.282466602426107995e+29
1.329362259958329247e+29
-3.956633902233378455e+29
3.563865216831486232e+28
2.255484610550721454e+29
-9.451661977997445817e+27
-5.905455196553955910e+29
9.804834698309773477e+29
-1.598818735168353853e+29
-3.790930265745487779e+26
-1.852634981114220113e+29
1.118611145780991850e+30
-1.722127283559163731e+29
8.499487251997338570e+28
1.381471478482298672e+29
2.568886012156766707e+29
-3.004378567288667081e+29
-8.481858838309732377e+28
3.390469091056565111e+29
4.857172654566878602e+29
-9.591689668817455293e+29
-3.461482532880625552e+28
-2.930258683843703581e+28
-3.617559829231588866e+29
1.066278007377163618e+29
-4.830789414982654868e+29
2.022505303525367257e+29
-1.394681016398306184e+29
-1.002539679982475794e+30
-1.354674408490224174e+29
-2.370868547665337031e+28
7.786860924546446265e+29
6.581582906672302559e+29
6.402544509733693714e+28
1.186775007054296983e+29
-1.974878483351315945e+29
1.558336893498393503e+30
-2.016827485740451140e+30
1.245416484398913668e+29
-9.411453619444652199e+28
-2.317520233097357670e+30
8.594909559775705322e+29
-7.657841890554192994e+29
-1.759672494902873941e+29
-5.658924331015476239e+27
1.094003875568146177e+28
3.468753435024617301e+29
-4.793352975661604664e+29
-1.174165533945851912e+30
1.602427640177833502e+29
3.191669016387104130e+29
2.657038673282196264e+29
1.434560705163449481e+29
2.273227270965596149e+29
-5.976192230771376720e+28
-8.423250805447725107e+29
1.001253492774744448e+29
6.286475154797091221e+29
2.408290225277696917e+29
-5.420520429621418427e+28
-8.404110608510481730e+29
-4.934451343149136719e+29
-3.694481038955156970e+29
1.174205687445372886e+29
-3.142709621171398766e+28
-6.272077669164205124e+28
5.971066056921866150e+28
6.356979036307667938e+28
4.563130497816449647e+29
4.871986144325978579e+28
1.965513611621448974e+30
-3.646087581325744822e+29
-4.940346789713185213e+28
-3.037118067381728268e+29
5.846714702473836521e+29
-1.835096309088872683e+29
3.127868096428550323e+29
-3.108919313274594036e+30
1.456726007014302125e+29
8.738769506301936468e+29
-4.607345168887550910e+28
8.753709256240634798e+28
-9.003013475886957431e+28
-1.949058905187926823e+29
-1.265215285417185113e+30
-4.534478972442648633e+28
2.216768226189925873e+29
-1.882639746571062582e+29
8.483336343997609754e+29
-3.335731966578466969e+29
-9.131272963305414309e+29
-6.579393427292664998e+29
9.692505403258656696e+29
-7.160740854994572628e+28
6.523005431023962773e+29
-4.042169309262344167e+29
-1.385583268166391182e+28
-1.947492861828758356e+29
-5.793747038911149797e+29
3.067110675887803716e+29
1.635495893639611300e+29
-1.654689157013652197e+30
-4.544585683996014788e+29
6.288975346969811281e+29
-5.385597726072849323e+29
1.266986552256943118e+29
-1.185020328920374617e+29
2.214812988967602329e+29
1.231867067229305516e+29
3.215148151520066267e+29
-3.574065359642194154e+29
-2.333511900697959315e+29
-2.757088133868159312e+28
-4.730098518250203821e+30
6.522827548639488331e+29
-2.068997967506778477e+29
-8.663876807736380385e+28
5.295905266567305656e+29
3.409050223778145154e+28
4.138688537352279836e+29
1.386280777592105489e+29
-2.973250717444549028e+29
1.377903574360195291e+30
2.308462513977475562e+29
6.557057910710773875e+28
-2.541548525370200279e+29
-1.124460957701089037e+30
-4.776924021358899917e+29
6.207488199620901149e+29
7.302633324227057297e+29
1.617112507648891776e+29
-1.131836447806440039e+29
1.186990370110666038e+29
-2.097755292362543137e+30
-1.086981992494712630e+30
-1.266231952957776364e+30
2.199474701863252983e+29
3.043964465694926912e+29
2.313429033400149974e+29
2.883645466458990387e+29
-6.113036905071998607e+28
6.442443634514467868e+29
3.537171383874263064e+30
-4.565102058434887913e+29
8.711876738966964980e+28
-1.501397828287746031e+30
5.541563098640541809e+29
1.211514565800047274e+30
1.327207411000255460e+30
6.492949488433204355e+29
4.848600344170263703e+29
2.405824102312373798e+28
-1.007012765275359842e+30
-4.555297315078523270e+29
2.996504262672302959e+28
1.801488716276760035e+29
-1.272488497589597840e+28
-4.566963740010929128e+29
-1.035436338212614188e+29
1.388046813295102875e+30
3.285934684713034798e+29
6.648942973454822826e+29
-5.173586495076821725e+29
1.326661993932877763e+30
7.647690976357252696e+29
-4.566491221716010049e+29
-4.436398128543429493e+29
4.505944554395322481e+29
-1.063353549073889123e+29
9.971196844975512169e+28
-2.450058544921640842e+29
-1.527812619922200167e+28
2.308205264025645480e+29
5.870359301773187933e+28
-1.899068012174881291e+30
2.471067947496479285e+29
3.797034576750853170e+27
-2.707569558820496560e+28
1.958006785374456300e+29
2.071474137731166688e+29
-4.765592977336006950e+29
-1.549694067725437023e+30
-8.129473204341503691e+28
-1.165554853304669056e+30
1.399301620747242005e+29
-2.922575127014153628e+29
1.439045523867212336e+30
-1.231894037403271195e+30
2.111899150726392710e+29
2.468804034599078822e+29
2.481690446005635229e+29
5.680289998566476816e+29
-2.984307939647897083e+29
-5.140236492164471518e+28
1.779195718384708641e+28
1.436188416781202354e+29
3.837853891983033284e+29
9.697297029370396315e+29
3.253620362753450090e+29
2.932958399924720256e+29
-6.426425957847829427e+29
3.321547528212115358e+29
2.215074634332668757e+29
-1.687113142235012067e+29
1.753502630710929476e+29
2.826115651357026004e+29
-2.511201009048073859e+29
-2.162487616110960956e+29
6.228454192545198299e+29
-4.528207637744972029e+28
2.784259435571544315e+29
3.811730933775813088e+28
1.714474784830644138e+30
-8.051582424855882458e+28
-4.624511396026088464e+29
-9.264539881469785929e+29
1.291702641571597494e+30
3.341364302569710142e+29
-8.495643160963967289e+28
-1.540223270468420180e+26
1.019398691176085651e+30
-6.103959681214220861e+29
-8.910022963882272175e+29
-2.233297658138243135e+29
-4.251624600948664053e+29
3.011368351732430078e+29
-4.322554615684354205e+29
-1.163359050736460727e+30
-6.125826593389710849e+29
-2.108612025774981511e+29
-1.917239020354228960e+29
6.570041620104073182e+29
-9.877887327983004877e+27
-4.199502934280158447e+29
-2.054580610770035522e+30
-6.011448808627993562e+29
-2.022675394454897715e+30
2.200756649719287414e+29
8.681603851478989928e+29
3.295137581425784773e+29
-1.464964449081888966e+29
5.609032116845965845e+29
-3.900303471550472058e+29
2.328523825975517654e+29
-8.150485769052261511e+29
6.177811477749354298e+29
-4.603799722464815540e+29
-1.675725228827678735e+28
2.970965426484655602e+29
1.223765278173476835e+29
-7.778686872372853179e+28
2.235450669289716024e+30
-4.290890560178643988e+29
3.896653517434652874e+29
-1.891764228529745869e+29
-1.955096031143655481e+29
3.489546977915220952e+29
-7.906967631167939088e+28
-1.999114692406699930e+29
3.689014025647311352e+29
-5.051603788403995182e+29
-6.679931208185948234e+28
1.286248939860432943e+30
4.820486998612067909e+29
-7.223886692507356904e+29
-1.809286269847475705e+29
-1.547402589168377894e+30
-2.233908123947543099e+29
2.303205200163935934e+28
-2.305329611139513704e+29
-4.391638470417269529e+29
-1.116452046469561879e+29
-2.303341827789803450e+29
-6.548845628713272567e+29
2.349448325220224075e+30
-1.269372306729652051e+29
-1.254170548125365793e+30
-9.268110118611965368e+27
-2.118172899838541218e+29
-3.278654539886003936e+28
1.924615709148843443e+29
-6.097500989413470485e+29
1.858290193915153151e+30
7.143356886461309189e+28
1.252531847195722169e+30
-2.278834253557156432e+29
7.519533581094184472e+29
-1.171497428866487477e+29
5.217204334060044279e+29
-2.029276636699915666e+30
1.651984628950894384e+29
6.045597583772423136e+29
1.252269362197301651e+30
-7.707778452661278938e+29
1.194502341707098621e+29
2.305384971278982896e+29
-9.915729707989345294e+28
-1.034167219126099156e+29
-4.017930143713826095e+29
-2.125239562193986494e+29
-9.699209523175400616e+29
-2.939515926148267702e+29
-8.239687242817343274e+29
1.253049125818270489e+30
-9.265981945969636718e+28
-9.955545503081050449e+28
1.669966729503979769e+29
4.843714198713033548e+30
-9.490799639025280345e+29
-2.228673657828914736e+29
6.959683542672117034e+29
-7.008167467596833715e+28
-9.350744689175190460e+28
-2.635548270424745135e+29
2.419366817302804922e+29
4.530100550405027686e+29
7.773895659012493407e+29
-2.371065181092652668e+30
1.202219938630851530e+28
-3.947118654979255050e+28
1.446673984832345215e+29
5.208171738571790046e+29
-8.926002417567518164e+28
-3.344710655693716169e+30
-1.153559321496008393e+29
1.452142264739767686e+30
-6.360883873039250744e+29
8.057536747912910291e+29
1.230533338518404007e+29
2.801225614654743447e+30
1.070097978278546086e+30
1.700101061431208451e+30
7.697235184701238421e+29
9.744096589234010494e+28
-6.409904404622982277e+29
3.093726542745510557e+30
-1.053276127516946352e+30
8.856584492338434058e+29
1.318776680479951674e+29
-1.850933919484483905e+30
-9.605222743553837275e+28
-2.340668160628875047e+29
-1.931389218511361172e+29
-4.008325209642791243e+29
-1.593474763246275590e+30
1.154921217628290039e+29
1.418937507674650402e+29
1.472440833903742536e+29
-1.307184505826619724e+29
3.088985510195283384e+29
1.661950504137900464e+29
-4.845234133205916369e+29
1.044004835698985833e+30
-3.153371316215905545e+29
-4.566037495100754990e+29
-2.544266276380822514e+30
8.719234501514933137e+29
-6.661343734051378190e+28
2.093097998515137618e+29
-2.632918874948917919e+29
-1.079935746154973266e+30
1.673010448125294881e+30
4.502514950324151227e+29
-1.691771628608501036e+29
-8.379073342543402115e+29
-1.324257679515126549e+27
-6.764667954298186766e+29
2.846000233910512002e+29
4.155878658579223752e+29
-6.305147401380283324e+29
7.304042167743861938e+28
-3.680704318303968675e+29
2.484328119325835461e+29
-8.555700114582254863e+29
5.674046605993273747e+29
2.382050622510974486e+29
1.128833536077140623e+29
7.522842368129374845e+26
-1.315174684259732074e+29
-2.653018708963711361e+29
-4.601017424590344028e+29
-7.890119342467964043e+29
-6.898025154275615524e+29
9.184368697230490501e+28
1.835195187922315885e+29
-3.959496263314523446e+29
-2.587664673715901973e+29
1.559614177289212835e+30
-9.809256471997927517e+29
2.454550765033027545e+29
-4.136549986037106673e+29
-8.257629647484681791e+28
-3.393827376302567052e+29
-2.493442135942336979e+29
2.880847926470064754e+29
-1.324088462981158851e+28
4.224822277354694298e+28
-9.100346227154496402e+29
2.319697648652335297e+29
-1.594596666700596520e+29
-4.215921717077715416e+29
-2.210207829221540937e+29
-2.380667178432199346e+29
1.019514233688345348e+30
6.871737311656009954e+28
4.774778812699681937e+28
-4.241109403608366292e+29
2.084652221490011729e+29
4.445787362708567697e+29
5.714982292747861812e+29
-6.239061887368940448e+29
-9.090536682780564040e+29
3.856153999069301762e+29
1.327980686477856794e+29
-1.680260284183023905e+30
3.836097658454476291e+29
-3.833090433842486967e+29
3.021960052151129028e+29
1.377076204320666752e+29
-1.735638388430180119e+30
-1.206280322034523515e+28
2.842835145381987584e+30
-2.428094595796135114e+29
-2.484617403762680931e+29
1.117798847325310966e+29
-6.493474878167418795e+29
-2.818785945431855733e+29
-6.390625875313017006e+29
-4.669235960374472239e+28
-1.271312128458004239e+29
3.098229186946504237e+30
1.778814859858924593e+29
8.950871295317365485e+28
1.096861167293849677e+29
1.118470332089128028e+30
1.701854754702754486e+30
-2.991956531374626305e+29
5.992424031618503396e+29
-2.278087387300732311e+29
-1.113407366458066528e+29
-2.030278062945558464e+30
-6.118347694539309138e+29
-1.733623265439698900e+29
-1.807938860578306154e+29
3.789710615231256649e+29
-1.509122101823405752e+30
3.339680813698322020e+30
-3.398026022465675888e+29
-1.200524687874113879e+29
-4.271146394322083712e+29
-1.971907183160739774e+29
-1.550420144490638533e+28
8.219086042867257198e+29
7.061037083876233567e+29
4.847093333719714207e+29
1.564675743051167854e+29
-4.270485832649385860e+29
5.197279819987037997e+29
-5.526833528399471719e+29
-2.688679279644087670e+29
3.783827316022803546e+29
4.999842892400150975e+29
-2.812147515324375459e+29
3.760485745327910623e+29
2.685362699643823060e+29
-1.106721239194561577e+29
6.952113279159952855e+29
3.406211106029765919e+28
1.747782728507845518e+29
1.420777307444133821e+30
-1.277039206519808076e+29
4.564248231390054352e+29
-1.143884440529360594e+29
7.975390816342203482e+29
-2.601643887007655138e+29
2.030187191194832692e+29
5.359868691079456588e+28
1.091669595565943599e+30
-2.281665734054451984e+29
-2.522740397383529725e+29
-1.109881265824161925e+29
-1.805201732326716883e+28
-8.559782081087984172e+28
8.966484337970180060e+28
-1.841152231669290583e+29
-1.696257047952510488e+29
4.518269667795679293e+29
1.054845067859512866e+30
6.186443263401227831e+29
1.298678147382957724e+29
1.146424933536510221e+29
6.254507049112252945e+29
7.589443353584462019e+29
-1.076857506934210521e+30
2.767100134325561957e+29
-2.765565408374797357e+30
1.463309031059253506e+30
-9.450420108216806860e+29
4.319620812031314933e+29
8.596893030110229767e+29
4.470168175543783920e+29
3.825211295987734197e+29
-1.632860246251370086e+28
-1.169899183998572602e+30
3.440196746175389175e+30
1.602454134077853762e+30
-1.924074836563715424e+27
2.366679781447780559e+29
-2.398224339941170792e+28
8.843288754387252407e+29
-1.443128586286439820e+29
2.921116860318284771e+29
3.092322147807793166e+29
-2.473408831276794685e+29
6.949975058118122433e+29
-2.096273416174365905e+29
-2.397401609492917539e+29
-7.272055761525109484e+29
1.061194305876850899e+30
-5.525696771922504079e+30
-3.545503482370836068e+29
3.884752178407833763e+29
-1.179084356552815027e+30
-7.586786245919856410e+28
-5.032798431217627574e+29
1.312824256982166651e+29
1.275846283279370104e+30
-1.755631061860015364e+29
-2.564962870579104219e+29
-8.243357595046427587e+28
-2.443863084971393332e+29
1.839493361095475495e+30
4.694408682959041285e+29
1.522725771781350502e+29
-4.311498681031012760e+28
-1.215117395296954295e+30
-1.362756290535533116e+29
-3.913805322080715310e+29
8.221459515461708428e+28
-2.448243205551168058e+29
8.615550221718532419e+28
-4.571883668519420403e+29
-1.443310011511176266e+29
1.463809837972768900e+30
9.679370811146618011e+29
-4.008569251477573361e+29
1.132310519693726604e+30
-4.203647137192845311e+29
2.660785565040386906e+29
-7.777502851054971926e+28
4.330719042631186217e+27
-1.795850593893128511e+30
1.882084425838249937e+29
1.630210625186920532e+30
-9.218727371300122591e+29
-1.608598326289386821e+30
1.979432910537227647e+28
1.091391608495909026e+30
1.295266123545453573e+29
1.149837396359480941e+29
6.443487019083094726e+29
2.334813196251893710e+29
-5.513921421509704554e+29
2.942187182345703282e+29
1.621649305818667699e+29
4.134395362250064476e+28
1.535290447767893504e+29
9.791648063005004882e+29
-6.791656199901520153e+29
-3.038497524077050013e+29
-1.368746856710982183e+29
-1.236011636474315968e+30
1.065611104993053551e+29
3.242378018985401160e+29
-3.265897146947579404e+29
-3.977578313946898612e+29
-5.038751557162620211e+29
9.210484805808050078e+29
2.850273832601444205e+29
1.003280918113604789e+30
1.483484679699851719e+30
1.061096010489967891e+29
6.485442882711961244e+28
-1.679979363495384797e+29
-1.288129460561561871e+29
-9.884335724753518278e+28
5.466806494497922588e+29
-2.057258862501437519e+30
-2.041206715896126073e+30
-1.314214276122043081e+30
1.538087581278571434e+30
5.550158213122985081e+29
-1.787070845804527321e+30
8.508562304052209064e+29
-1.023134993672485443e+30
2.473622608409693184e+30
1.127886886422969293e+29
1.033587639428610220e+30
2.453706054911756394e+29
-4.369398890743538587e+29
9.383933589090727013e+29
-7.404314115077038209e+29
1.600978679302735547e+30
-6.340505014615278502e+29
-4.193593274731521212e+28
-4.571963885436523956e+29
3.342324786177064366e+30
-3.136430669004709781e+29
8.971333689971892535e+29
-3.260023351545920520e+30
2.419870259368070826e+29
-5.293383059484466550e+29
-8.760894945796075339e+29
2.857753103655768340e+30
-1.951508477802088207e+29
-1.533778329671236462e+30
-2.123839032558330157e+30
3.655766357367077734e+29
2.396736633622455572e+28
9.639546637996263249e+29
-3.216017658360862391e+30
1.666960910925494864e+30
3.009241632620817840e+29
-1.213221348254489757e+30
-6.922495160694350272e+29
2.448515610977163293e+30
6.390582885441816369e+28
1.890086517686535612e+29
-1.354292709393981855e+30
2.189322095174040614e+29
9.353098950660806840e+29
-1.067800573867588394e+30
5.091377962132179375e+29
-7.561698209492884035e+29
-9.042716446152778620e+29
-2.705449260351471350e+29
5.521089221681562273e+29
-1.544913692741890064e+30
-2.461043152265497293e+29
-9.355707250450658932e+29
-4.025204008459518181e+29
2.120616587982256883e+29
-1.708737851134634769e+30
-1.131704596548083383e+30
3.589130429147040387e+29
7.449035519417303897e+29
-3.471010329379022366e+29
1.339229707597803038e+29
9.820218854095287912e+29
3.162944677252072900e+29
2.762952007756079816e+29
2.099411559879543886e+29
-9.883063826228216025e+29
-5.585090789773792885e+28
3.608965916448090256e+30
-5.129696452228474897e+28
1.010284151088928105e+29
1.009623172673415398e+30
3.214543094832078181e+29
-5.254377498822940870e+29
-1.068181412241770877e+29
1.915826429136039193e+29
-1.296870822310790176e+29
-4.870406504491501466e+28
3.139117737771075126e+29
-1.243227406203760556e+29
-4.223121024162469165e+29
-7.001103043352993083e+29
-2.417411713204703877e+29
8.796476481091767959e+29
1.939897904905239432e+29
-6.731142543984064943e+29
-1.973281571822241361e+30
1.308696438338319502e+30
1.692097097886216065e+29
3.034308273233157070e+29
7.762013677592624968e+29
-8.829798519892550170e+29
-3.161245219061623959e+29
-3.988605919205234572e+29
1.099451764912309897e+30
1.360606863574101099e+30
4.742756970499814547e+29
4.886260700720097903e+29
-2.618956959869928623e+29
-6.334157286804184437e+28
-9.891270617907077207e+28
-6.040815488062018571e+29
-1.989050209186323700e+29
2.359246926945131277e+30
1.081127085291331529e+29
2.084584078325598624e+28
1.385013196590099837e+30
3.131242239393754961e+30
-6.404695735165436012e+29
-4.580915698954657000e+29
-1.902027516626610124e+29
5.138450443448606737e+29
-2.478526210268958090e+30
6.182768761950145497e+29
-4.928583176072154213e+29
-2.653033982230940095e+30
8.278413074951083249e+29
-1.250087803542257354e+30
-7.438979341723139875e+29
-7.115595097203345333e+29
5.267736581050041199e+29
2.478493275452306610e+29
3.527863469785013453e+29
6.192328427563147220e+29
5.282493302379558999e+29
1.151304395977926528e+30
-7.847755478145038458e+28
-7.720378666057764620e+29
-5.405341471610900283e+29
5.490106743897932252e+29
-1.064032377708848141e+30
-4.508457875762846735e+29
4.696206814241009484e+29
1.095914006263360338e+29
1.331355374761499788e+29
5.073029653639066259e+28
8.019042182685446846e+28
1.234243164310050495e+29
1.470390132330000091e+29
2.303127613236976483e+30
1.888579608803593338e+29
5.176631995602567181e+28
-7.423840465914859410e+29
-5.189760039662030221e+29
1.254889277507251730e+30
6.943247782453873193e+29
3.464937490337367069e+29
6.048362902868830589e+29
3.634809770814943196e+29
-1.283982847190676855e+30
5.987701416421068840e+28
5.974938261605683459e+29
-1.895248868295084015e+30
-8.321657899632270230e+28
1.126224147227732216e+30
5.841715346513718249e+29
-2.474202320457846802e+28
9.689284361079507985e+29
-7.831335587676401145e+29
-1.946520005170726335e+29
3.733412713706137327e+29
1.733711716027543582e+29
-3.794955526884295142e+29
-9.734097866213640412e+28
-4.302114483195280973e+29
-2.330666257841895666e+30
-1.565666399246627550e+29
9.063066401838911974e+29
-6.906399117029798000e+29
5.705385929539765254e+29
-1.085563368832462387e+30
3.181059048658636170e+29
-1.880686452119064666e+28
1.167538941860867289e+30
-8.465412920152507176e+29
-3.305111779283261439e+29
4.683328090211596419e+29
-8.218783651098353386e+28
9.603909689439051066e+28
-1.029519910343991378e+30
8.394558178070847869e+28
5.281896867550168125e+29
1.449094625404035840e+30
-1.767063324856826294e+29
5.551199221987333302e+29
-2.112247792912921782e+30
9.626139270329534439e+29
2.209200231479164998e+29
8.512185840817886851e+29
-2.337385018188748300e+29
-1.096662514212003546e+29
-9.121719018409138584e+29
6.217841906468641483e+29
-4.611041487508839997e+29
2.637493770718240184e+30
-8.042317096900157990e+29
1.445198207851534888e+29
-5.203314006035783417e+29
-1.925391521685189768e+30
6.595564910964744274e+29
-2.953933091355085642e+29
-2.471933773585082225e+30
6.065872142608226734e+29
6.466711821193852813e+28
-6.261287703746443277e+29
7.361227678017002698e+29
-7.467579399299282133e+28
-8.219793221342774893e+29
3.006151870137942097e+30
-3.551765617791973475e+30
-1.435985774568982604e+30
7.061367807150800039e+29
3.593392869545853441e+29
-2.386028209627616929e+29
1.101616574016340111e+30
1.320901321953170712e+30
7.482967347754719501e+28
1.693997948096225127e+29
-1.306313145476240969e+30
5.751399588066582799e+29
5.471742929080039334e+28
-7.472450983268406254e+29
2.954812080467164707e+29
8.141717264264506475e+29
-1.895038344564317306e+30
-9.683643446959957751e+29
-3.789985760773745183e+29
5.127286291872217561e+29
-6.696808902990849745e+28
1.327449483566538754e+30
8.318096076753496925e+29
2.849165113285598603e+29
4.737183126027880611e+28
4.243513501498688321e+30
7.722192208464694621e+29
-1.062106711113500431e+30
1.738372040813992122e+29
1.482736929011018014e+30
6.998650512525231075e+29
5.256005186525685863e+29
1.792186740677345079e+30
9.140224093453163613e+28
-8.352063692709262357e+29
6.115089147269564444e+29
-7.919102289666900722e+29
4.891482976087146793e+29
-1.252108251235917971e+29
-7.702536253369397285e+28
-2.068631130291204361e+30
1.615004226604013321e+30
-3.644837737506759756e+29
-7.191680441570440319e+29
-2.296051368691799625e+27
-2.451142133046718026e+28
-1.634489195619688461e+29
-7.150934927560972152e+29
1.755620081082741702e+30
1.866889201031315550e+30
-6.261483731226836838e+29
-4.271993232974997133e+29
5.310890746429780830e+29
-5.242747087052775178e+28
1.006738970227112760e+29
-2.749995576983033752e+27
3.089757711219286605e+29
7.818707753312305393e+29
-4.335960102219439230e+29
2.538197112883244669e+29
-6.747192630860424429e+28
-2.680509988608677646e+30
6.505527435158053706e+28
-1.580581407966957157e+29
-7.811546455497567064e+29
3.180390501099061113e+30
-1.438163224746783268e+30
1.481588540772713234e+30
-3.048615734312735762e+30
-7.949704858085525088e+29
1.978705997151615664e+29
-3.763682426229312989e+28
1.051127846447371288e+30
-6.932471971990635814e+29
4.498026153851439329e+29
2.436953439991517874e+29
-6.765719210566074637e+29
2.489289619307602586e+29
1.211664428812647725e+29
-6.573180374893184117e+29
-6.712004978383460663e+28
5.641381322295977044e+29
6.808359395415684263e+29
-4.580948456493485542e+29
9.001945568110260814e+29
4.263822310111207976e+29
-3.404686501758572139e+29
-1.393538740384751023e+29
-1.232056304656060235e+29
-3.359458796035691287e+29
1.493778892689181019e+30
-7.488076871518525030e+29
6.553964505435685176e+28
-5.355694556845582373e+28
6.977959868810362837e+29
2.992433898190440562e+29
-3.914396363440200534e+29
1.736056172802566028e+29
7.301791063649711027e+28
2.596980355052702424e+29
3.875640189657721532e+29
7.983749478115967983e+29
7.260102838376132413e+30
-3.211384903974335530e+29
7.039617433005697371e+29
6.743226912102751949e+29
-2.769050833910446142e+30
5.245449248392976745e+29
-5.335888059166449002e+29
1.842076316315536883e+29
2.414627892899425803e+30
2.035281888707140687e+29
-3.851398502296062154e+29
8.727264972190093918e+29
-9.307494560712067029e+29
-2.626659897597240683e+29
3.221019467227867870e+30
-4.129934815674370774e+28
-1.715161549457532048e+30
-3.514799394180316723e+29
-1.449538535431930762e+29
-7.210613401229454430e+28
6.234827741229741481e+29
-2.229958303012365652e+29
6.427283103762203576e+29
-1.652521258919289751e+30
-3.884945065095221942e+29
3.340296366417697749e+29
3.051865663771485809e+30
-2.777981153911053652e+28
3.092020367195290153e+29
1.936702826632587513e+29
-1.446193833365575011e+29
1.875097304484102832e+29
-5.867263502358121952e+29
6.734439548049077228e+29
-6.905986962579141740e+29
7.180953267718685614e+29
1.329161400636758846e+30
2.227300227764959813e+30
-5.637698788873150751e+29
-3.597412842028675911e+28
9.127272760238444037e+29
7.253379284927912263e+29
-1.276007724057519625e+30
-2.374207959484155571e+30
3.329170919251707732e+29
-3.915643973589196979e+28
8.257112436514623293e+29
2.789218808870562887e+29
-9.762073513961974585e+29
4.717046777564347861e+29
-1.157767659563330680e+30
3.290935576673637028e+29
2.836339770691401993e+30
1.047806703431374441e+29
-1.640831276410228924e+30
8.567202326347159006e+29
-4.807395753206017361e+29
-1.924794421744352931e+30
7.162066394502084385e+29
3.019300056443342871e+29
6.180147501722960210e+28
-2.387624636002874015e+29
9.978220568301451554e+28
-1.448881017467851627e+30
1.894967965270807740e+29
-5.327579480775352444e+29
8.024656684474417239e+28
-1.427673282271486490e+28
1.150074429254308979e+30
1.697633641234597316e+30
5.854213062487364765e+29
1.180101696515281211e+30
-3.756473868347243765e+29
6.381317486886777320e+29
1.294273715598287143e+30
8.349615790851553053e+29
-9.053181333879104661e+29
-1.006548769175551409e+30
2.081576784232826051e+30
9.586638989568734627e+28
-2.731061008372254372e+29
1.521565111998812183e+29
2.396254657884140338e+29
1.778840183291130330e+30
-6.593665959932821322e+29
1.323596315765668119e+29
3.887124836679279662e+30
-3.717404213805398160e+29
-1.222763750208295559e+30
1.186199960075405162e+28
-8.452464098606733299e+28
1.062382332569254250e+30
6.377508861566068336e+28
-9.167038202438701394e+29
3.394279828014440640e+29
1.100693146043791490e+30
6.100989094814662421e+29
-2.090489749068505997e+30
2.234663150210509610e+30
-1.319817571516868466e+30
-5.423192061657306518e+29
2.084731304598387524e+30
-1.478661436335308625e+30
-4.562384878050438312e+29
-5.859340148142199834e+28
7.187549006608084824e+29
-1.268743101510979396e+30
-6.478710501949846751e+29
1.379794638939074106e+28
1.065815309297027272e+30
-5.866988263273242996e+29
5.048438109025992300e+29
-5.259897031621491828e+29
6.830671045759615948e+29
6.356127094968511097e+29
-1.547675420327058056e+30
1.427111998776438872e+29
-1.238967302968118621e+30
-1.225735080679956762e+30
-7.857249232365737154e+29
1.625786442081240649e+30
1.936824442842924263e+30
1.891672696486068824e+30
-5.686974955347854875e+30
2.389469682715975064e+29
5.067657281661239923e+29
6.065561698485799627e+28
7.431253720946995068e+29
-2.651234726835930905e+29
-1.525193918791369838e+30
-7.111936942023006411e+29
1.664824123140550687e+30
-9.536332323779105318e+29
1.335121701643395519e+29
-3.139535621198822251e+29
-4.158267263009104274e+29
-2.381754748261586649e+29
8.504459261818322489e+29
-6.260869493926767732e+29
-2.289412559450350144e+30
1.443881502037864340e+30
3.006196492483814766e+30
-1.397665109750490047e+29
1.414431759221960037e+30
-3.323912539809090386e+30
4.675813357928347755e+28
-7.440718493517397641e+29
2.111985932510910129e+30
4.547580829426164587e+29
-1.543476561293808287e+29
4.604349538647888026e+29
-1.374389510784446593e+30
-8.006614375414717209e+29
-9.217550152155204875e+29
-5.269091059880120238e+29
9.146905385486679090e+28
8.325845481827707452e+28
1.325438573802365869e+29
-1.194442169472893717e+29
2.878116655834210162e+30
2.702893353928716278e+30
-2.842719212894387553e+30
-7.067249824528424873e+29
2.170279464444470290e+29
1.599996700057234715e+27
5.501281259017877500e+29
2.958436482887078536e+30
-1.074765830190957047e+30
-1.884219157136067500e+29
2.489947216318912413e+30
-2.176524592641531621e+29
1.465662009614700281e+30
3.986160754519265431e+29
1.417999868834398308e+30
-3.778780337137818126e+29
-2.684729891636864756e+30
-2.957026532237466031e+30
5.114389686344078163e+29
-1.589007194866557514e+30
-9.675431511553698047e+29
-8.810494835712283003e+29
-8.300096073339835685e+29
-4.723799370660415267e+29
-1.137334089752765183e+30
3.869284828555236558e+29
-4.085529883342819593e+27
7.998697587958640484e+29
-2.639293350914952896e+29
-3.196663173385313309e+29
-1.459406627309723111e+30
2.948501327233839205e+29
2.269510474543871265e+29
-1.142017804967776152e+30
-1.444556826874146370e+29
-1.264536912167111325e+30
5.974540895637420534e+29
4.045048540825669482e+28
-1.396862792051279973e+30
1.123049047614185669e+30
2.598629172789515233e+29
-1.976009839610445181e+29
-9.436652938229371028e+29
1.284995789793236942e+30
1.296019621934818663e+30
-1.383168522897806384e+29
1.028113448439576512e+30
1.655064846471160250e+30
-2.978641793395043395e+29
6.808062582668768495e+28
-7.726217188387307737e+29
-2.348990719072995262e+29
-8.513196933966856234e+29
-4.485006832524251301e+29
3.224768899884230130e+29
1.203569940830418827e+30
-2.791936359663510815e+29
-9.109098811574932647e+29
3.591991549835089870e+29
1.654544649722365122e+30
-8.382831140731627482e+29
-1.264183650811898417e+29
2.383880616092929162e+29
7.548436969316973815e+29
6.254163783484435944e+29
-3.113397523386527942e+28
-7.795544689620284461e+29
-5.352664022056414498e+29
-2.240836958152725904e+30
3.458306993829692469e+30
-1.258394772729974784e+30
1.599961648958840531e+30
5.466944137012705851e+29
2.222009853020509945e+29
8.225649526800945711e+28
4.643522611319505786e+29
9.225977728029658363e+29
1.873233449374805594e+29
-1.127265839534710077e+30
7.170372019974674563e+29
-1.611274842562893409e+30
-2.782092608281273457e+30
2.435403602832151776e+30
-3.467825098874647558e+30
-5.654857739854979421e+29
1.217402434971598764e+29
3.145876271142628897e+29
-2.988797766405778552e+28
2.076202791428012943e+30
-7.703659628921529800e+29
1.489569709600449348e+29
-5.201503847074675190e+29
-3.100783299669112847e+29
1.791190759562370757e+29
-9.084605757489795072e+28
-1.335218884912965407e+30
7.316085257952047368e+29
3.281988263002693161e+30
6.775369438426463442e+29
9.206647383820209790e+29
2.996336499677298185e+28
1.636928711856053221e+30
-1.436701612901309077e+30
-1.482168006816341698e+29
2.680136369808452193e+30
-1.706212634337949088e+30
-4.154615060436599806e+30
-3.865843198009137855e+27
-3.207804787129593951e+29
-7.908391975286059029e+29
1.072108945244057124e+30
4.892871417746197244e+29
-4.323035349400391135e+29
7.854794071787634372e+28
-6.668693787187609642e+28
-4.328037408002048549e+29
-7.139348483449171978e+29
-4.186878167358138039e+29
-1.480427143608585982e+30
-1.050677008373962490e+30
-1.512861597292079580e+30
9.875271396111333650e+29
8.230875354789839788e+29
1.630816267341931238e+29
-2.748922567545589211e+29
-5.269581263650093195e+29
3.497649738317672594e+30
1.063015856872440402e+30
-2.713257683065232566e+30
1.954142916373163827e+29
-1.515399697911378698e+30
7.350912813540757410e+29
-1.312968430214574219e+29
-1.692758118901111612e+30
-1.054263444272986283e+30
2.002111016999543094e+30
6.595458159757863335e+27
9.786411369432805332e+29
5.044207029812672596e+28
-3.664393061415404737e+29
-3.725815781902480125e+28
2.396572343151011676e+28
9.974542597568172050e+29
1.312215019249188889e+30
8.481082907169927374e+29
8.943860521725912735e+29
-4.564874331656806219e+29
-1.344612986342753078e+30
-1.878202061616899723e+28
-5.570550573167872829e+29
-9.919875961058955079e+29
-9.974179066785816391e+29
6.205460505924356986e+29
-3.703418505034499306e+29
9.245508297606566091e+29
-2.151395871003087518e+30
1.237019588993550234e+30
2.696313520527675358e+29
1.073521528793485569e+30
1.295146904750982496e+30
-7.132703197188671522e+29
-6.513372296286735670e+29
-1.573555581391547984e+29
-5.928165693009134989e+29
-2.218946105940020838e+29
1.788666317845229393e+30
-7.212233142919323843e+29
1.025790086599674352e+30
7.760878453450952313e+29
-8.626688377145445462e+28
9.011012419911186320e+28
9.477741254563081432e+29
-2.610185271219932943e+29
6.332767586553587351e+29
1.670450625649640298e+30
-1.547409537420704151e+29
-2.774988201267221109e+30
-8.722532958127893711e+29
-2.498180504489001684e+28
-1.274035497992660331e+29
1.271627052120926747e+30
-1.085908480427737414e+29
-3.854961517396210566e+29
-1.628815637486854230e+30
9.585790541971703964e+29
3.807541689898116900e+29
2.724158130896632556e+30
-4.283726342749565669e+28
2.887628709818081007e+29
-9.804136114972305384e+29
-7.213143370783622416e+27
-3.216598221582884236e+29
1.073439904420499675e+30
-4.772304984289679064e+29
-4.805421044988629812e+29
-1.532904591685149149e+30
1.120220489019522799e+29
-3.056617521208370323e+29
-7.667981959471437685e+29
-5.475052147904671553e+29
4.515054990850308760e+28
1.940178971562999941e+30
-4.826520956271904636e+29
-2.374259385208758767e+29
2.465786282525621472e+30
-2.331067905203459510e+29
-8.183495469680527481e+29
-3.692542876122018155e+29
1.182881655576389517e+29
-1.965666839858965935e+30
-9.007761238453770143e+29
-1.652303447567408936e+29
-3.157934509059767380e+30
3.421373840906064725e+29
-3.532149055971180743e+29
4.577913264902628660e+29
-8.320238848513021394e+29
-4.664341033968409392e+29
5.461980831767146074e+29
-1.775075485762826487e+28
-2.166661531884602503e+29
1.540320957117972016e+30
-1.239600402634206518e+30
-5.228564855453076136e+29
-2.376143941122646618e+29
-1.414821421138658148e+29
-1.597341223237249958e+29
-8.487124849744944369e+29
-2.234751925178589394e+28
-1.322432240981188848e+29
1.205628259777013040e+30
1.090164366715648795e+30
-2.919124384978212201e+30
4.654070770517128632e+29
-3.392345469376947138e+28
3.964584231726477069e+29
-1.440744103790003199e+30
-1.129383565942118832e+28
-2.119540749137656277e+29
4.265835291892561961e+29
9.153822068458882905e+28
-1.795361234447368380e+28
-1.178915486094940679e+28
-6.394976925346446404e+29
5.188636979145394496e+29
7.771020506761275757e+29
5.054665522495565023e+29
1.591637621385592590e+29
2.351931947463415891e+29
-8.956164535471409291e+29
1.899172669996942832e+45
-1.899172669996941881e+45
-8.212254508465606677e+29
1.030989400651096327e+29
4.130938170121312449e+29
-2.050848785033322812e+30
2.802950950181166038e+30
3.492546903303728733e+29
-3.047430377373914327e+30
2.277675558910773445e+30
1.190213231194306282e+30
-7.485332357335478363e+28
-2.910965565581716253e+29
1.094520245814356202e+27
2.506893882726607702e+30
1.493278114370819867e+29
4.182836332140858954e+29
2.171462894399015212e+30
-1.100809832014805756e+30
-5.626980297111323262e+29
9.820907051163576706e+29
-1.441786944990475872e+30
5.753083510208953378e+29
3.989561900907693128e+29
-1.949152396292407945e+27
-1.642367465042039146e+30
-2.551327504523835909e+29
-5.368308347155701096e+29
-3.245507984267126140e+29
2.827468977220091772e+30
-9.502046228727637185e+29
7.224683627981877306e+29
-7.500739703429474382e+27
2.385198524795353664e+29
-5.343337494218017270e+29
-5.851906010760874437e+29
-1.161675446388593706e+45
1.161675446388594815e+45
1.265777391941151629e+28
2.296172342599874412e+30
1.061746549011550306e+29
-1.506166415698569668e+30
-9.608191734646348438e+29
-3.062647091169073422e+30
3.371085428151583788e+28
-1.441573324522874543e+30
-1.091953215585171746e+30
2.302363761357453436e+30
-1.904863463344098406e+29
-1.371756062529994184e+29
-8.304702746984158382e+29
-5.177246146553747034e+29
-1.727672716790273560e+29
9.596275956607241733e+29
1.085768050042795108e+30
7.686771379287010296e+29
-6.593786954862241903e+30
3.120630373963851411e+29
3.852989260308828782e+30
4.327752699600621303e+29
3.065968228274763769e+29
6.736004745261991055e+28
-9.539475100122636823e+29
1.340822935426422504e+30
-4.433698120620496154e+29
6.541442049465007453e+29
-5.105291786806609547e+29
1.560604579883525470e+30
9.756024127428828397e+29
-1.540166015504997212e+30
-1.095128807179877492e+30
4.891316508853783316e+29
1.585946625032905411e+30
2.524888823230214768e+30
3.995789616466067407e+29
6.611519090639779901e+29
-5.412160339058055277e+29
8.367320899056463971e+29
6.262220301628733400e+29
-2.464829627927937848e+30
-1.009207387588042790e+30
-3.538728611634349797e+29
2.845749209127297737e+30
-2.127042147802628181e+30
-4.788939927454145135e+29
8.222806227273065368e+29
-2.348958718109409199e+30
6.596703137220739748e+29
-5.602096425390061114e+29
1.487994105950261814e+30
-3.462130503588011438e+29
-6.159386693520466478e+29
-2.335071236083810384e+30
2.058855692644177349e+29
-4.063671518120721513e+29
-5.586255918286418534e+29
5.435081580372668902e+29
-1.204936870735686835e+29
-3.904034011097092594e+29
1.190478288988541247e+29
8.609616330087199508e+28
5.597294990771308128e+29
-6.421233964932482027e+29
-2.620384346820949722e+30
-2.895044168781690364e+28
1.527681135678995662e+29
1.138873947474975591e+30
3.800824704368747695e+29
-2.965681701662185438e+29
-1.077718452126510454e+30
-1.960673020582382455e+29
-1.243001975880584532e+30
1.973222848847377978e+30
-4.112883280930510328e+29
-7.438987533432150556e+28
-2.436650517579403213e+29
-4.012189845081077358e+28
-2.996358102037245374e+29
1.931433913681438490e+29
-7.705432837500846544e+29
2.459999903114036296e+29
-2.961502743992644881e+29
-1.802022617204626086e+30
7.112964593131388910e+28
-3.320276681290276759e+29
8.519519248076933523e+29
9.435356184601284412e+28
-4.390230980244844268e+29
1.151002477438379274e+30
1.505663331658781962e+30
1.057629821190496376e+29
-6.176518581073023818e+29
1.202447200792208028e+30
-5.483624493585220991e+28
6.972394405380349630e+28
-6.795957541428358154e+29
-8.392896742759698508e+29
-9.881303326329991264e+29
4.633936233199347549e+29
3.854808405633688471e+29
-6.715392499255009501e+29
1.267409254197771356e+30
7.704226249513034843e+29
4.605244414054753322e+29
4.404465046329606480e+27
1.098098709943239468e+30
1.072543448753993171e+29
-4.173888897199918416e+30
-6.301825606722905534e+29
-4.069279205956580668e+29
-3.731702103565478067e+29
-1.142792403955835649e+30
-8.467133234945674948e+29
-7.545575195604764563e+28
-6.218926369300374186e+29
-6.886319720705291710e+29
-2.589274428536927375e+30
-4.112723029141303459e+29
-8.968560701873160864e+28
3.463653320586920035e+29
-1.922106107201003738e+30
1.707900516611736942e+30
3.382582786611904765e+30
-9.056191250343391868e+29
-1.841105676080998117e+29
-1.070298173504736994e+30
-1.055454341931847855e+30
-5.365372896490774146e+29
-4.883300671829038195e+29
-2.020275817243431496e+30
2.543858440683563673e+28
-3.520602054612347453e+29
-1.283184071665432409e+30
-7.930414349963139907e+29
2.851117390212066403e+29
-2.383638846363498347e+29
-1.537247470025789388e+29
-1.547994602079691400e+30
5.429677660942492784e+29
1.179442055859044529e+30
-1.357817710715613756e+29
2.038015989618521210e+29
-6.039270992190089730e+29
-2.478029292956349380e+29
-6.688137076358659504e+29
-2.133723972748404516e+30
9.176616296738252833e+28
1.673756041670882078e+30
4.803840056716749458e+29
-1.760025171677554538e+30
9.383845227494622471e+28
2.308034702540443107e+29
-1.045365273959551301e+30
9.573847643873496752e+28
-5.868934024546155070e+28
-1.033491042392429030e+30
-1.046348219050213108e+30
-9.542584381434513348e+28
1.924426137830546301e+30
3.564402549675575755e+29
-1.210094956305017176e+30
-7.736033713735943463e+29
-1.687785773784362343e+30
8.129242007251843394e+29
-8.647650078830951058e+29
-6.042286943885505452e+29
-3.535723267461234527e+29
-2.263382163144286032e+30
1.013925720071325825e+27
1.523669217733004538e+30
-2.755372046260589232e+30
3.192649419135730215e+29
2.748320734796693331e+29
-5.939780932304984315e+29
-1.225908210866505504e+30
1.971873535874336339e+29
1.909554266601130257e+30
-6.438822304618245051e+29
-1.660805133809740464e+29
-1.004580876899168336e+30
-1.863821171278466708e+30
-2.681860414540805066e+28
-3.880759168832585044e+29
1.439801778113756101e+30
1.840653483917336435e+30
8.678763085832705847e+29
8.809336133598888274e+28
-9.247006253920043004e+29
-2.073141775622433112e+30
1.042262327282244060e+30
2.345452018229759375e+30
1.080872167639282758e+30
3.543503809868307070e+30
6.227920280163821023e+29
8.368803069339586213e+29
-4.156559930828150011e+29
1.033678319781879540e+29
-5.550383710705418457e+29
-1.963004877949117835e+29
-8.571660309772418411e+29
-2.887764236343460562e+29
1.466933312030453336e+30
-2.523218614621123122e+29
1.075102740011909921e+30
2.640583585612082398e+29
-2.836289614708250499e+30
7.467299152850341262e+29
-9.565399424589624605e+29
8.750512645807915707e+29
1.991025089773991862e+29
8.226663838535938711e+29
1.552311654750807842e+29
1.631493416993041454e+30
1.394617473356427146e+29
3.136191599966909354e+29
-3.382028082613513494e+29
1.098636141132696494e+30
-6.304345588858552253e+29
3.394070366253401611e+30
5.658824493495973118e+29
-1.904792666605732504e+30
-1.060665269397198089e+30
8.519434479084811864e+28
-4.477546311598370809e+30
-4.020145825314993349e+30
-1.893938208847999783e+29
-2.156848190926786816e+29
-8.248647368601858764e+28
3.522212852931463096e+30
4.391347219461012661e+29
-1.703615621096052231e+30
-3.417057453461339232e+30
6.973381268249345484e+29
-3.712432758520863872e+28
1.012058351814481023e+30
-1.967255147362572354e+30
-8.562963914190721459e+29
-3.652466590371238495e+29
1.001725516340531930e+29
-1.863849710139764132e+29
1.024943355428091690e+30
1.588051080573449081e+30
-7.783410983099401987e+29
-1.553840633635685890e+30
-2.192623019505701280e+28
4.230087122093398073e+29
-9.381537129784631299e+29
-1.274010778624765997e+30
2.230719216424117698e+30
1.693415061844968546e+30
-3.243204936923707094e+29
-1.232359051801995774e+30
1.777623131259224440e+30
5.683348126053300697e+29
-8.566992243601174253e+29
-1.487936516859254042e+30
1.249410274732192242e+29
-1.313904133318034452e+30
-1.594339319346223964e+30
3.876612010142853674e+29
1.243692719395090195e+30
-8.319032631581558216e+29
1.388307188808356752e+29
2.703880759070905911e+28
-1.145605274301885049e+30
-2.037072248440807371e+29
1.606659460877657197e+30
4.397741435541920526e+29
4.595826835976704720e+29
-6.280047701768312464e+29
7.450385312585630390e+29
-1.006397732894358945e+29
-8.976787280528851399e+29
-5.655113118327115775e+29
-8.674179042539589329e+27
1.430558483362566828e+30
-1.198537193921517270e+30
5.112800445444999422e+28
-6.078556011514856240e+29
2.154600460651641930e+29
-1.257768055957728801e+30
-3.907730190929575904e+29
-1.122836946019533123e+30
1.107389807372513494e+30
-6.430537609077579504e+29
-5.771531432737498731e+29
2.217458676446221420e+30
9.823748958939523307e+29
-4.154916546948429724e+29
-6.144193645927066255e+29
-4.165005386737581141e+29
2.635097958214377003e+30
1.390982032012902220e+30
2.947284391725677958e+30
1.489838857893523332e+30
6.883615305423505212e+29
4.179893384940629590e+29
8.520095460417065353e+29
6.773183847504705961e+29
4.068222353932085355e+29
7.788021382223313422e+29
8.465923525854133115e+29
-2.080499278199206571e+30
-1.328633788187205673e+30
-2.270549953097764146e+29
-6.948500424348647426e+29
-4.958338146366621078e+29
2.918431447202371951e+29
3.165210163356365422e+29
6.072560661983623704e+29
-7.920282555280486764e+29
6.204106597516966270e+29
-2.620538895854213326e+28
3.623498045891725586e+28
-8.884442359681624162e+28
-2.092387576156503823e+30
-5.357572874349403998e+29
3.724402967287625722e+29
-7.271928915844036431e+29
2.551990005356998580e+29
-7.413074808342889412e+29
1.276373838441323882e+30
-2.441351915599388903e+29
2.549294551637627380e+29
3.813722783883361503e+29
9.251984936645864840e+29
-4.774695512611580011e+29
-1.026994565078598601e+30
-6.406038416697990739e+29
-3.509546372162577315e+30
3.189167006045228182e+30
-1.202248645151317860e+30
7.190974270011335941e+29
-4.799623097795227040e+29
9.012122612659004848e+29
-4.739812581906784362e+29
1.904979835451896180e+30
-1.183335062691753366e+30
-3.709843025773861760e+30
-3.948142061998567172e+28
1.841050485834806239e+30
-4.619210563704673150e+29
3.185810435227299729e+29
-6.181442682839482227e+29
-1.468762915889256449e+30
1.564716528876309847e+30
-2.051615906540881553e+30
-2.461584084317423188e+29
3.407464997650715579e+30
7.590581883362458557e+29
-6.585030957510693210e+29
3.344624784457124285e+29
-4.776835696310836672e+28
-5.922935973596113491e+29
4.041537553186006194e+28
-6.119740913578850108e+29
8.241084727546141144e+29
9.129610301179007218e+29
3.427416448766674281e+29
-3.790212967478864475e+29
8.544106627741771878e+28
2.737777757452009439e+30
-2.298523275887923677e+28
5.592170178541974548e+28
1.407322834522010350e+30
3.181670855184815016e+29
1.311480005402011540e+28
3.267595917662538954e+29
1.036313137953846775e+30
-8.704034120974468970e+29
1.240799833585370225e+30
2.702000877117383209e+29
2.214374229795138904e+29
1.390676934394594090e+29
-9.118470455502008492e+29
3.263219926138374249e+29
-1.793356346529817250e+30
3.246728655893896298e+29
2.558945052501171713e+29
-2.899832721994533318e+29
-1.267745492931887081e+30
-1.639482243503650758e+29
3.292158829825482927e+28
-3.427390813479377290e+29
-2.455260477482674993e+29
-9.200446520602014022e+29
-4.859261322990965582e+29
1.336772363374355067e+30
1.061290751379376925e+30
9.015232688341392947e+29
1.316696337035528580e+30
-9.115266440028472439e+29
-1.536011380137130090e+29
-9.339882814475426783e+29
3.813458136101910551e+29
-4.017565625925698362e+29
1.191006926498322038e+30
1.500445326668425409e+30
-1.861890465585311925e+30
1.590194482528737527e+30
1.301895556908997100e+29
1.929472045513107582e+29
2.119919241673104983e+28
1.052672845229642204e+29
4.427718443256088444e+29
1.763859839981967317e+30
-6.200912293444635970e+30
3.881491953215325247e+29
-2.608709312246407764e+30
2.908114524161410375e+29
7.632245994097411187e+28
3.170392559150983123e+30
6.291984903382737571e+30
1.141379828186726419e+30
-2.132827381931863832e+30
1.875142400012621779e+30
2.778491829740799255e+29
2.281181610600030882e+29
1.344704029734312627e+30
4.687928107801086692e+29
1.275005614556358803e+29
1.958275063562725978e+30
-1.050678874305983394e+29
-1.263686192133953056e+30
-4.001150714656504226e+29
2.032939839330156054e+30
1.702938703171967799e+30
1.178185955308623395e+30
1.213273087661646840e+30
6.856445695104194335e+29
3.155480435939279478e+30
-4.233928735562316996e+29
-1.289954792137776657e+30
-1.215016835578590044e+30
1.473367674520274219e+29
-2.208821036558457275e+29
1.304606887528773427e+30
7.374649790018237712e+29
-3.611619471552524942e+30
-8.163766307252063752e+29
2.829010504100615905e+29
-3.508150706172959282e+28
2.407346782030436865e+30
-1.514099849379540870e+30
1.656574453613456550e+30
-1.208170431784179779e+30
1.233791769801270076e+30
3.262630290995116162e+30
-7.509229710754396920e+28
6.054162502619256541e+28
-3.183175311795960948e+30
-3.096306839273680838e+29
1.208041863888509330e+30
3.406159222258185135e+29
5.243635089404171438e+29
-1.017044535199416626e+29
2.319062210534441651e+30
-3.828615213278108269e+29
3.012329935252534749e+29
3.366248863826471483e+30
6.762614349700629302e+29
1.862073439802526209e+30
6.827587452665521249e+29
2.835230338537124572e+29
3.265277617858103743e+29
1.926743038987545567e+30
-1.715907265638221983e+30
5.444458542297078092e+29
-5.051647576981346854e+29
-2.345425490814898908e+29
7.728286271431129570e+29
1.275503583438048507e+30
-1.173498023234261109e+30
1.775934222745072282e+30
-2.584683435057676637e+30
3.239829817974248591e+28
-1.230687985441092200e+30
-1.167835628432857908e+30
1.319479387089020441e+30
-2.884814579456797770e+30
5.509589620053338390e+29
-1.289374981560010549e+29
-2.173912735557367602e+30
1.651167368899921517e+30
-5.952377157785183063e+29
7.322783482807108588e+27
-4.959894792274495702e+29
9.630237358934700519e+29
9.260882944938512604e+29
2.741826561326716853e+29
-9.740042044710469429e+29
2.201714334635747877e+30
-3.286719225885996998e+29
1.422579656707027394e+30
-6.229762324858803882e+29
-2.630764619725483681e+30
-4.011871265224795248e+29
1.099288472708263955e+30
6.581992598034112899e+29
8.355932481126397229e+29
8.572698972662956602e+28
-5.734796680383564793e+29
6.728556831090300574e+27
4.722527749242135704e+29
6.851019655067264444e+29
6.509226765650093552e+29
2.285404984854255453e+29
-3.043668965412475935e+30
2.508007250638450089e+30
-1.117457852238471313e+30
1.565397952596185647e+29
-5.479030405368974001e+29
1.386487162651021194e+30
-2.570007384507788274e+30
3.270791229006324270e+29
-4.642231697676558925e+29
-7.890922044609696399e+29
5.415169754090311631e+29
-1.352619448670663427e+30
5.004788862426435555e+30
1.004520356960921837e+30
-1.942970651665420302e+30
6.343604962203077854e+28
-1.440580513968470712e+30
-1.306149094567996787e+29
-1.435691422972674659e+30
-3.164013131800635511e+30
-8.814865605805080837e+28
1.699288588986393095e+30
-5.557715088492572833e+27
-5.751572838613309327e+29
-2.975655720449991982e+30
-5.797995587140261840e+28
-1.099819698533701907e+30
1.714043667846891840e+30
-3.714832400375815822e+29
-5.025172565954679557e+29
-1.640850664796340933e+30
-2.826367269627000990e+30
-3.379294575153928026e+29
-2.736187067770536632e+29
9.209155524781312659e+28
2.443245367315128121e+29
-1.067735174062759076e+30
-1.313339184157900991e+30
1.774504451869229282e+30
1.820956654863656453e+29
7.709022770036672544e+29
-1.240574952440677088e+29
3.139886723625904102e+29
-3.068318541697237825e+30
-3.577214229923339937e+29
-3.771595592529832128e+29
2.506965731793609685e+30
2.402149616551395505e+30
-2.364572731966137233e+29
1.029931796877813760e+30
1.359368783409477735e+30
-2.609234755104983837e+29
-1.009764651377479921e+30
-2.706460417408115127e+30
2.625071558696247905e+30
7.354834045888009501e+28
4.514548194890806361e+29
1.398135205137058956e+29
2.181982862935386455e+30
5.925702535892585547e+29
-4.558264594140282934e+28
-1.953377113362552279e+29
-1.605540120477419920e+30
2.666526539683796896e+30
-6.190178358481341420e+29
2.131068089340904948e+30
1.586471148411155714e+29
3.646319951144701420e+29
-1.909711204464032918e+30
8.571597847404464537e+29
7.573902040402903636e+29
7.940848681291090030e+28
6.363497433695658598e+29
2.313409740921751070e+30
1.129707838355767105e+30
4.551393319288262221e+29
-1.227386906903051910e+30
1.950433540613268677e+30
9.339983140685916771e+29
4.447469054530743242e+29
-2.095322295092352093e+30
6.031620550801125422e+29
-5.382559167873429564e+28
1.355832845373791067e+30
-3.070858635239699947e+30
-1.104456586954239343e+30
-2.380256934772051482e+30
-7.285256407922461202e+29
-1.984938630350019029e+29
2.417788423317522724e+30
5.285302140089319696e+28
-1.916393924889432895e+30
7.088937731282053166e+29
4.034095638742833188e+29
1.628278781383480046e+29
-1.011662698190626064e+30
1.602448656575058048e+29
1.902400792110110456e+29
2.718792458475675424e+29
2.899463036576243520e+29
-9.351873330396179961e+29
2.862866103510414391e+30
-4.713481156581070520e+29
2.052568022069970591e+30
-5.679857294800434367e+27
-1.803555869773860186e+30
-2.017039135325417659e+30
-2.432571756680496150e+29
-6.918763893733779824e+29
3.882724084280140732e+29
-8.414861324221094659e+29
-1.031401151161675861e+30
-1.562078313121284653e+30
-3.091387480974526889e+29
2.211134319314043641e+29
1.344693867378750332e+30
-1.777878383470149632e+30
-1.297486438729864597e+30
7.425722691513023213e+29
1.357118665166769808e+30
2.008769011111199809e+29
-2.747331328067223074e+30
6.083064510995574439e+29
5.949080882922117999e+29
-1.914807220926702847e+30
-1.919653388238858149e+30
7.855351673087737268e+29
1.173155392906849111e+30
-1.114514445067223808e+30
1.910756546885769782e+30
-9.251437105129528820e+29
-9.492809458418022902e+29
2.054546610717917958e+29
1.381156061466829889e+30
-7.092315645853228743e+29
6.833163539680571251e+29
-1.719344559073477658e+29
-6.179155468249528693e+29
-1.368278503569297145e+30
-5.235188241019477097e+29
9.250080383559611205e+29
-4.759333107265075647e+30
-7.934295652797537082e+29
-7.470445376246516800e+29
-3.742810129124214922e+29
-2.553248964685094891e+29
1.151069485735101872e+30
3.102484919602646329e+30
4.292872548822385437e+29
1.704802962998206858e+29
-1.405288479665580164e+29
-1.056067070852008392e+30
-1.583996669404112389e+30
-1.696787347933723679e+30
-2.676070871761357511e+30
7.225316048417602818e+29
-1.457205719421732265e+30
-2.305603486805048554e+29
-1.989355729123390644e+30
1.193940811421048788e+29
1.490532514021238651e+30
-1.737523889599561902e+30
-1.640078670521869030e+30
4.283250616179438399e+29
9.257798036806131008e+29
-9.737212983451762548e+28
-5.327336375804089575e+28
8.542612987698301187e+29
-5.477015644680809509e+30
6.682663955815724279e+29
-1.087182173261077433e+30
-6.362263277813894614e+29
4.798157006044064004e+30
1.276489977238214576e+29
3.493700997875256894e+29
1.690576381524404972e+30
8.396085592499582422e+28
2.275082698518815787e+30
-8.024752731999463701e+29
6.664401784546801347e+29
4.038291647947221314e+29
-2.707645107362103492e+30
1.883218597964386750e+30
-5.924058748830384345e+29
-1.190151912376987163e+29
-8.052976069778159638e+29
1.968606641334710608e+30
1.193270891129154778e+30
1.748900441939875649e+29
2.087473993808246072e+30
-5.087264023735181347e+29
-1.686255753004315059e+30
-1.621750742243950407e+30
1.501963439135008411e+30
-2.547094496627200614e+30
-1.563628325038956340e+30
3.047535715002862898e+30
-5.544428664852100333e+29
6.188085351404153473e+28
-1.204999970902560911e+29
-1.226233517969950780e+30
-1.111799790312421072e+30
-2.617408548492037253e+28
1.340390995287364321e+30
2.832861089652494666e+30
-3.648081999981401532e+30
-6.910812593457129729e+29
1.054533527558982177e+30
-6.949150746471691426e+29
1.539669306607801991e+29
1.749910681470192733e+30
9.833435487187813353e+28
-1.058987660302542580e+29
-1.212280641619230206e+30
9.945446693862886543e+29
4.851487151538369771e+29
-1.693945377793178061e+30
1.152767801217098898e+30
1.815980314556890692e+30
6.148106024119363444e+29
-3.056065767910558317e+29
-5.487184656705100113e+29
-3.055228788860516362e+30
8.756478637721280353e+28
3.136730221858087502e+29
-2.021285787056441436e+30
-1.655046965427921086e+29
2.114604356466266924e+30
-5.432649785752789926e+29
-6.133411315353344538e+29
1.842946075408780790e+28
8.865355688329585825e+28
2.591744609163135052e+30
4.741594354335009491e+29
7.717469282316508611e+29
2.650653695289960052e+30
3.098960074387420866e+30
-1.117595969473843675e+30
-1.780955386474148233e+28
-4.160261290518659296e+28
-3.869073329701053720e+30
-1.740947313703064775e+30
9.623324654411251058e+29
-9.958916592786233887e+28
1.616560950097830669e+30
1.431100847173900075e+30
-4.180585424248868356e+30
-5.239873699643169565e+30
1.103955344631465041e+30
2.239358531644240883e+30
-1.268708872089785494e+30
6.998484263524726364e+29
2.427783367130749161e+30
-6.144349040025564617e+28
3.391784451069116354e+30
-2.944378999290456436e+29
-2.593139996777604948e+30
1.283306900927446660e+30
6.545638842749737915e+29
1.132071112627140487e+30
1.358515218183515669e+29
1.399288318541882339e+30
-2.045693079085068417e+29
1.875645313324907402e+30
1.345243855093492576e+30
2.513339827291959477e+30
-4.395310598934335170e+29
-8.359883216430867052e+29
-1.163797930503895838e+30
4.934540249378440326e+29
-5.915958059524572691e+29
-9.706436327529904226e+29
-4.646834477828599922e+28
-9.642602009437101514e+28
-1.087967836911339112e+30
8.993627093010397714e+29
-7.646885157038768640e+28
1.067826308509717750e+30
1.762268131008745119e+30
-1.033450752941144336e+30
3.633664849781329018e+29
-4.458352190005222095e+29
6.553590173011855355e+29
-2.265861947384195213e+29
-3.209632549837472763e+29
-5.661559474868332995e+29
5.893972571821078225e+29
1.619846493644574354e+30
1.143353131365322133e+30
9.000392720024218980e+29
-6.533998779977021808e+29
5.794185745075532069e+29
-3.348834529213795637e+29
-3.609673548545451267e+28
-5.198963585683653936e+29
-1.488389196392763196e+30
1.673879086542228097e+29
1.968320340141479236e+30
-2.059650010216682666e+28
1.995516795013044941e+29
9.083974759244911704e+29
9.109144423587695440e+29
5.684792031174127085e+29
3.040580742047551880e+29
4.915436498996268400e+28
6.005842002586554315e+29
2.674515069203220900e+29
-6.805275003331381898e+28
-8.623272407320411263e+28
-9.677054358555011027e+29
1.347102371558965045e+29
4.521534281923093552e+29
-7.063146294528413113e+29
4.463748201941074187e+29
-9.224166499448666278e+29
-2.105566417070279489e+29
2.990853277290633150e+29
-1.408593626708541778e+30
6.462863288291894805e+29
1.219566282444731832e+30
-2.087667525552941620e+29
1.590550768509942354e+29
2.010691449314123317e+29
7.157185730792076561e+29
-2.546768956019926716e+29
2.683823879206160233e+29
3.606987515002242081e+29
-4.827417694117585219e+29
1.543575839195300080e+30
3.990059066077508853e+29
6.063860141872630334e+29
3.366462948103678644e+28
-7.770528328834423974e+29
9.725750077285764604e+29
6.541350214267863123e+28
-1.771218873531256927e+30
3.134506632547319657e+30
1.844046551875744142e+29
6.195909482700118031e+29
3.670841221705973681e+29
5.575950174294164532e+28
3.838373545627975571e+28
-4.056424794931825261e+29
-7.712866375923388456e+28
-1.168922363112468097e+30
7.470630641986591433e+28
6.434780865100244630e+29
-6.351023217660301701e+29
-3.576336460760498792e+29
5.218558493474981092e+29
-6.670430248276544167e+29
-3.372584229447670871e+29
1.080218387418158674e+29
4.941726844107169018e+29
2.051321816930203932e+29
3.759602170021068039e+29
1.981263276952085669e+29
-2.437970419069707653e+29
1.036662234117438754e+30
1.298851663774450961e+30
1.068112410392196549e+30
1.309728179689327718e+29
6.724144822946822854e+25
2.916923775465702561e+29
-6.387856899321244603e+29
3.836955700033123636e+29
-8.229831729471872825e+28
-3.091624500230916643e+29
-3.760024493092260924e+29
-7.625593677980754849e+28
-1.108738614509355546e+30
6.672704165752358756e+29
-6.102036741708356906e+28
1.055227126377654210e+30
6.303299495084141395e+29
-3.619135681205919016e+29
-5.089788811655066149e+29
-1.226503700229263071e+30
-2.719744513666498454e+29
-4.715061754906312122e+29
-4.050646544472276968e+29
-1.853233082431833871e+29
1.772525634285891243e+30
1.727592474089097033e+29
7.552004347311875748e+29
-8.031896358366932124e+29
-1.382172043441591374e+29
5.687622250776092686e+29
-3.457655610998541597e+29
-3.199342784250985206e+29
8.110367389753103646e+29
-6.854111321908119587e+29
7.054668667213926316e+29
-3.368063535090036183e+29
-5.133763867612642792e+29
-4.793212383586029314e+29
6.580727551926011550e+29
-7.428669658980642187e+29
3.043888115711031199e+29
6.811579458084586830e+29
9.833198899555177619e+28
-8.531256580736389187e+29
-4.383741133026558987e+28
-1.507927756245343684e+30
-3.438681430505646653e+29
-4.701089763874010754e+29
-1.360954784175783270e+29
2.513109393239328642e+29
3.227263768162731563e+29
2.112874013791306753e+29
-6.741638197536108160e+29
3.456342017298441297e+29
3.532510648122458461e+28
-1.191090977924257471e+29
1.184491839906824650e+30
3.201886411565942678e+29
-5.605966373797012951e+29
5.473061801378452919e+29
8.143584028453575373e+29
5.920651088019320200e+29
4.104473655375761194e+29
-5.886766811407682541e+29
-3.608090165433257853e+29
1.433510866193945392e+29
1.360860655009190352e+29
-1.119773023535817472e+30
3.922239176083065255e+29
3.517661664728815663e+29
-5.103919112735458141e+28
-4.548891571603787731e+29
4.420953201752307199e+29
-5.053254021443291063e+29
1.583371357457491648e+29
2.328563001625725692e+29
-1.068056594466667208e+30
9.181360392768569028e+29
-1.302206644130312215e+29
-1.329129666260059001e+29
-2.316565640120216733e+29
-6.027775616373577634e+29
-2.482373512359710401e+29
4.522904064206889372e+29
-1.381157882802562993e+28
1.742283754979288535e+29
-3.534020344679246111e+28
3.351928217805863906e+29
-1.153707870728612028e+29
5.127478059977933591e+29
-2.126978419671053364e+29
-1.250310416086727099e+29
-1.515577219639791931e+29
5.520469087729102839e+28
8.017624045003962321e+29
3.840076436567521427e+29
-9.024563362341985258e+28
1.590229216973452099e+30
-8.169605964132412089e+27
6.146617440134868090e+29
-5.026369187342178436e+29
8.031236166781327934e+28
6.321780051595908313e+29
6.038346214770676559e+29
-2.870008901949459381e+28
6.870325138313717451e+28
-2.376340555303011581e+29
-1.010676653376048329e+29
8.631462836601942378e+28
1.592311409439628553e+28
-2.067816862082852087e+29
-1.002139770479688986e+30
5.833868396829298712e+27
-2.135961628047392772e+29
2.104639985519158472e+29
-2.747310875743734812e+29
7.436417962163174569e+28
8.435983378692336803e+28
-4.607555707225833398e+28
9.514921470606350541e+29
-1.668989734478719415e+29
1.001590299958773453e+28
-6.233932378394724338e+29
3.927802668735648196e+29
-9.942123356092763990e+28
-1.861094483003673576e+29
2.195655524252130244e+28
-2.476618903783585249e+29
-2.077791285292099930e+29
4.372518541454260093e+29
-3.273294083799726076e+29
6.470963470775134254e+29
-1.268644704761667184e+30
-1.023240566697554483e+29
-4.438230406047467002e+28
6.892467461442180816e+28
-1.024965112003674808e+30
5.369642293018363484e+29
4.543322640937190943e+29
1.073850903022982114e+29
1.667372357980266607e+29
-3.607276759004118542e+29
6.217196499428834193e+29
-1.076167432150628259e+30
1.136002401475185181e+29
-1.023433602066945599e+29
-8.177045018573862150e+28
-4.909764812808596028e+29
2.118839942035902480e+29
5.596073032748996227e+29
-3.140268024525331599e+29
-5.549554086966195505e+29
2.056040239834098341e+29
-1.895882280147261298e+28
-1.812318702359308434e+29
-3.677575581983047250e+29
9.393982787356346623e+43
-9.393982787356338700e+43
-6.493359735435986209e+29
-5.227598916576295150e+29
2.571864370729725586e+29
6.340778816470068958e+29
-9.387668295864433943e+28
5.030526553205364674e+29
-2.047402820971290327e+29
-1.831173774387905709e+29
-3.987374549372432699e+29
-2.525823932774958035e+28
1.715718859607251175e+29
2.650582975036338438e+29
-2.320612742664943049e+29
-1.176554044799670532e+29
-6.836396705688521808e+28
-2.540450132823430222e+28
-9.958315575658387359e+28
-8.282731504796190047e+28
-1.807096158080852624e+29
-3.135439738906141826e+29
-3.022674399243668120e+29
3.242316411321497352e+29
3.341717005657694935e+28
1.966551203553359200e+29
-1.683576030841301892e+44
1.683576030841297138e+44
2.307563094335198379e+29
7.942772388433115823e+28
-1.521427729743183920e+29
-8.030758296956037944e+28
5.834851579120145364e+28
-8.034375247117271393e+29
-3.779189500560798582e+29
3.014772139789341645e+27
-1.362956065022375947e+28
1.522010211830080502e+29
2.013964145928917954e+29
4.815068138462536758e+28
-1.776379128289618491e+29
-5.017717893656525383e+29
-1.808918677044702775e+29
4.112846601622449611e+28
2.876052033067391879e+29
7.707342830010434428e+28
2.396968873646095352e+28
-8.992343002424447296e+28
-4.193951860348719260e+28
-9.717874480800675277e+28
3.202849021155906778e+29
-2.758437471745602205e+29
-5.300646019730089458e+28
-1.389046376936906322e+29
-1.876975416096109458e+29
2.467999292742105130e+29
-1.122125425420063588e+29
-2.406617200913044756e+29
-3.179118467188281029e+28
-2.409197569047170477e+28
-6.786534504252769521e+28
2.667406136167279720e+29
6.443609405427810993e+28
1.539205973983184492e+29
2.681236892352747741e+28
1.041956271978890853e+29
2.404409196790775537e+29
-1.548513081990897132e+29
2.430938974209483626e+28
2.037382700315663323e+29
1.654916541363200525e+29
3.908107112332687308e+28
3.989572798664298459e+28
5.127408401149650656e+29
2.007602862026943308e+29
2.594464584571596597e+28
2.966861987831428467e+29
-6.688461141264678040e+28
3.718100307383633674e+29
-1.281845631536390309e+29
8.260725132232241867e+28
7.531060788447345176e+28
2.759710874546059325e+28
-4.707973133354055047e+28
-1.246917287522265859e+28
-1.060132522981344250e+29
-5.695971196460451967e+27
5.167917129804327820e+28
1.875163184046237807e+28
3.790616015079150904e+28
-1.202922331584705475e+28
-4.929632651474651001e+28
1.447054158319741831e+29
8.688249463741985509e+28
-1.559642673997722056e+29
-1.346606205481119827e+29
6.797308205860432546e+28
-1.876899387689915198e+29
-6.097363928682136261e+28
-1.426328752248017365e+28
-3.990762754149462578e+28
-5.198518941620839718e+29
-1.040028154599324566e+29
-1.400269115177526098e+28
-9.167228200687944921e+27
2.286389904222706406e+29
1.133010362332615522e+29
-2.548344142877684047e+29
-1.332464911542170716e+29
-9.949973138454587208e+28
1.235928241115336418e+29
-1.899654475335576269e+28
2.392248836078823644e+28
4.518723654885500743e+28
1.308168809065179444e+29
3.117588515105616259e+29
1.793621569201075137e+28
-1.500095745298414486e+29
8.197443198872655634e+28
-2.210865598523023774e+27
2.123964741213024038e+27
-1.296689684822399341e+28
1.563860964475356454e+29
-2.555961888443380740e+29
-7.285323996014277560e+28
-3.742513260299200820e+27
4.972515365678013401e+28
2.773931736116842567e+28
-9.443761744380946619e+28
-1.593598140432753327e+28
-3.735215515206384093e+28
1.066734446164845137e+28
1.328983786795687448e+28
1.815639829781080061e+28
-1.155766371884983126e+28
-7.336790405590705602e+26
-1.700753237331802549e+27
3.572256631472615888e+27
3.879312431365983163e+27
1.598140159449641280e+17
-1.395241573629091018e+33
1.395241573629089577e+33
5.596078167097345280e+17
1.023100898754805120e+17
-7.601966165440844800e+17
-2.241591939867233280e+17
1.062744984214074800e+16
1.736504587376323840e+17
-2.996547502350991360e+17
-3.491542806284599040e+17
4.641894654092896640e+17
1.107677826156850800e+16
-1.186493224116621056e+18
-8.686269594507249600e+16
-1.761813925265274624e+18
6.251710701396230400e+17
-2.338338859756317440e+17
2.680966864610108500e+15
1.139087246362701952e+18
1.652748426199399040e+17
3.507117822099414400e+17
-7.790026432591869440e+17
1.221170364442870400e+17
5.506128750599730560e+17
7.819288992944105600e+16
2.159909094513195520e+17
4.550338251333776000e+17
6.958585467311690240e+17
-5.577468639063050240e+17
-4.598481995195249600e+16
2.960174307931251200e+17
-1.271871076320707072e+18
2.668146286520645120e+17
1.206917567190569984e+18
7.217894383742252800e+17
-4.900523606256398080e+17
-6.308015803085629440e+17
-6.290170129848496640e+17
-5.519158907489088640e+17
1.678366157879190080e+17
4.748305305684654720e+17
7.307742251498387200e+16
-1.372683217367745440e+17
-7.311761572283934720e+17
-7.346647937807830000e+14
1.084803876284147328e+18
-2.950870290075744000e+17
4.035475963841454720e+17
-6.918132861058472960e+17
3.072941678484267520e+17
-1.484838563811812480e+17
3.275620034606561280e+17
2.623974724995299520e+17
1.644911021705788928e+18
-6.240572114032389120e+17
-4.907599701732247040e+17
7.407359161206844800e+16
-3.453539624685875200e+17
-9.480749046248884800e+16
-1.114216426773866112e+18
-2.731161224838952960e+17
-1.876631034590257920e+17
1.168118350820751680e+17
-1.901300360007432800e+16
4.216573468240972160e+17
5.899795050719808000e+17
-3.463664692199522000e+16
-9.728694409586072000e+16
-5.471264606018696320e+17
-5.623671297047498240e+17
-4.223332761444910080e+17
-2.229316533361894000e+16
-1.005348942466522880e+18
-5.584352888566268800e+17
6.674021906684102400e+16
-1.448042105256083840e+17
-1.095929518638973312e+18
6.651122453762510080e+17
-9.285830603426385600e+16
6.549846467576616000e+16
-2.423300685637393920e+17
9.351516194271816000e+16
-6.880750031546748160e+17
2.159371016797167360e+17
6.233686927402577920e+17
-5.956525559340056000e+16
-8.038348540158748800e+16
7.635071034704750080e+17
6.573207783805589000e+15
-4.126184796769193600e+17
3.735707094101300480e+17
1.475457281542146816e+18
-7.179741831777277440e+17
1.911691945457045804e+05
1.394163950949684640e+17
6.100906611885108800e+16
-2.198256299740319680e+17
8.562470443008748800e+16
1.966115789599666240e+17
4.037217165002910400e+16
-7.691703461030177600e+16
-2.057393671668627520e+17
-1.774173387792229760e+17
-4.044388925452712960e+17
1.588883958623287680e+17
2.941347115006612480e+17
4.861745135228832000e+17
