1.254966951261554942e-01
-8.716020891482541277e-02
-1.219469504186187353e-01
-1.073990278534744103e-01
-1.184373087711686201e-01
-1.072403818678870913e-01
-1.012113528800648449e-01
-1.001434074529217455e-01
9.274331823268200381e-02
3.763711206452736990e-02
4.296128300965250391e-02
-4.982249314356643893e-02
-3.211851687240015185e-02
-2.448876500478251381e-02
-1.028707133899589288e-01
4.145455304038654643e-02
1.047826812768905443e-02
3.358485771125578612e-02
-1.284292613519953385e-01
8.730592557475613802e-02
-5.044125213986078160e-02
-5.968501735751120807e-03
-3.038931464394490495e-02
8.156459629202843925e-03
8.497256823989715602e-02
-5.762135057902278978e-02
-3.170104190347463463e-02
2.908491540852699980e-02
1.064375994778840456e-01
8.375895720569586089e-01
8.446360348371551030e-01
9.842483670927170553e-03
-4.441688935271072280e-02
-8.429533192520644730e-03
9.416542825734643823e-03
-1.658409319006330651e-01
1.221634854655331698e-01
1.633631681741272990e-01
1.552604259456694391e-01
1.552604259456694391e-01
1.552604259456694391e-01
1.391902947969528570e-01
1.552604259456694391e-01
-5.872594335341233159e-03
-1.007130346843378155e-01
5.423547778909443284e-02
1.123705676805197319e-02
-8.443991475641340200e-03
-2.381638314108443580e-02
1.306746536743010403e-03
9.667845457691212618e-02
2.938545303840106593e-02
9.450498749491999251e-02
-1.263935400270950471e-02
1.626560383432602841e-02
-1.478758372187857252e-02
3.445866176664635211e-02
2.738833869890871034e-02
-5.289384137050547746e-02
9.200466735327252066e-02
-1.242555816994176526e-02
1.368885556510259227e-01
-3.097512833763304066e-02
-1.753161716340815440e-02
1.568201496768567658e-03
1.064976527545263563e-01
-8.679295822582377279e-03
-9.338427709439831026e-02
-2.396659199526084832e-02
-9.716990421311007264e-02
-1.288605041191915636e-02
1.946037890684060856e-01
2.112480936489496280e-02
2.796841344438879412e-02
-6.101640986089061636e-02
-1.068048419300770928e-02
-2.246522463767976485e-01
-6.447259803796004385e-02
4.894089840044162365e-01
-3.599627982648508084e-02
3.805910961076225396e-02
-1.725343435609493978e-02
-5.207841837511646352e-03
2.497444505136496139e-03
-2.532246725263023746e-02
4.886621582722248947e-02
-1.331606532691727296e-02
-1.571824625457552815e-03
6.558899141437228575e-02
-1.475271192730210831e-02
-1.161629999151104070e-01
1.220371271388770856e-01
-1.497754735185360953e-01
-8.498796371309583209e-02
-1.126528005112953784e-01
2.863600088979352809e-01
8.779245997641868526e-02
1.707316521715770696e-01
1.047039474243120633e-01
1.982384304829427554e-02
3.491352760582128872e-02
-4.457664044932015124e-02
1.307744464301739407e-01
-8.103068837468151153e-02
3.265669908232265994e-02
-7.780372010301586649e-02
-8.243807821232742097e-03
3.625989443744496166e-01
7.848687498573894000e-03
7.142671910508188726e-02
3.423449217589287219e-01
5.871413480674290974e-02
1.932264094735436366e-01
2.671334051742543791e-02
-6.982197805078245445e-02
1.678011836106397536e-01
4.623637410845370804e-02
1.983101626258978317e-02
4.623637410845370804e-02
1.838713147593566966e-01
-8.858428330594112637e-03
6.255355197022596792e-02
1.838713147593566966e-01
1.838713147593566966e-01
-1.114566755473657828e-01
2.763695943707694669e-02
7.935340236916577084e-02
1.811497937259469726e-01
-4.679648172855361415e-02
2.483582309412156186e-01
2.483582309412156186e-01
2.483582309412156186e-01
9.100814456246055784e-01
3.106771252880776713e-01
5.163584279598338878e-01
-6.641364885077795099e-01
-2.009405534877090338e-01
2.135907625137611551e-02
1.384443696910011845e-01
-6.180063061737468832e-03
3.127332170402091216e-01
-2.000920513303552917e-01
-4.793174179113858513e-02
-1.676635457546189062e-02
1.229442056777705012e-03
3.839346031841129880e-01
-5.023476894550924637e-02
-7.595571207585963269e-02
5.950231679686164565e-02
4.211887030776184093e-01
-6.914948243406768280e-02
-2.511911977347205949e-02
7.691863122588961377e-02
2.164842553036599310e-02
-1.146565413434039345e-02
-1.146565413434039345e-02
-1.146565413434039345e-02
-1.146565413434039345e-02
-1.636120297557934131e-02
-1.991861590574310267e-02
-1.546120860753995296e-02
-6.984120718433356467e-02
5.513513227363849370e-03
1.405479045369420477e-02
-1.559583295102552961e-02
-1.857804766606451982e-02
-6.084176706768917864e-02
-3.612137029158796111e-03
4.761206950213833222e-01
8.971392622578823473e-03
-1.551562106967137589e-01
3.578721379261409763e-01
4.390676679726609674e-03
3.066059750340997536e-01
-9.450279272735989666e-02
2.737197806931890298e-01
9.902511006234449020e-02
2.737197806931890298e-01
-1.184049940774328444e-02
9.783386658399283176e-02
-5.914998968949834734e-02
6.099892790922619573e-02
8.681899212764822987e-03
-3.129186215890635003e-02
-2.136024249255707649e-02
1.022105138513393699e-02
7.425888280776712924e-03
-9.947666028747879918e-03
1.111245729550089517e-01
-2.268051514542857028e-01
4.545193000019507462e-02
-1.810963549036158620e-03
-1.720451201694402424e-02
-2.123421702523612953e-01
1.109351649029993309e-01
7.981964007410639883e-02
1.068282094842867977e-03
-1.962094899974691498e-01
9.480573081033336069e-02
1.609121951139372633e-02
-2.663290887070101851e-03
-3.603426891882680061e-02
6.307736782775272277e-02
3.335185429606186188e-03
-2.466809585053469228e-02
-1.014533408667592923e-02
2.155842548432746093e-03
-5.144516483014023762e-03
-4.868058668121419061e-03
-2.891449872242859986e-02
7.353300877883430994e-03
-1.756031464511362966e-02
1.274864180866171984e-03
-1.276088299574455395e-02
-8.181703024540815106e-02
4.518672325080281410e-02
-6.615312519876737074e-03
-7.918873320766094126e-03
-3.839989289183739270e-03
-5.114665316263214412e-03
2.155515048917030357e-02
-2.592251637322903757e-02
-2.590294493772145670e-02
1.576862674914228379e-01
6.895018175783267436e-03
-4.117065439266404808e-02
-1.012149222222636230e-01
6.951879851373177210e-02
3.110481713012069188e-02
-9.974651334463265420e-03
1.104582818368380834e-02
-6.198014617121163500e-02
-6.677591595731580121e-02
2.936980804505966679e-03
-1.148253508394558517e-02
4.734407214242718209e-02
-7.995577378487580059e-03
-2.355135812584542229e-02
-2.066061315740794213e-02
-4.593194296599529755e-03
-1.088867019865608909e-01
-1.727068015090744979e-02
6.513401822277550563e-04
5.771993259779223742e-03
-4.371655147689963022e-02
1.913852867104230693e-02
-1.644611956535109443e-02
-7.272868375888264783e-04
-6.848975605546031922e-03
6.538659915088367025e-02
-3.628987853879856590e-02
-1.221339968612762845e-02
-1.221339968612762845e-02
-2.822141153577867323e-02
-1.706881426458458084e-01
-6.398899056243649575e-02
-1.451427714903719655e-02
6.960122463509395285e-02
-2.568974394636054301e-02
-9.507006812356526282e-02
2.459778458694440728e-02
-4.246571856215727164e-02
-2.821721186544101645e-02
3.359790246554675980e-02
-3.653982908537621588e-02
2.351463458614474339e-02
-8.752613848981287414e-03
-1.385324656109404931e-02
2.382276507363985663e-01
3.051426663183061105e-01
5.014769695566363428e-01
-1.347149974503773426e-02
7.050307180551373953e-02
9.376108786131934214e-02
-1.147373076339098102e-01
9.594406280743000837e-02
-1.353935334924520313e-03
8.808150448036797253e-02
5.426596491064813454e-01
-4.224398149912389488e-02
2.251908019525102334e-01
2.251908019525102334e-01
3.107085486672561125e-01
4.462726277183222123e-01
8.365189644664780544e-02
1.448440764689510295e-02
2.178076502001630946e-03
-4.380693004490025279e-03
1.065307142122600553e-01
-2.179678712221530534e-02
1.853795996289964859e-02
5.718468130658770250e-03
-1.367082573700468054e-02
-1.151594607173372703e-03
-2.702069935982235813e-02
1.249969335861311343e-01
-2.528317167201328819e-01
4.568959548546730476e-02
-2.645342111042613964e-01
-3.089395170707519567e-01
4.612625514163852525e-02
-4.486133497935797243e-02
-1.101265361444389024e-01
4.240413117529533149e-02
-5.347470247941034371e-02
3.290177707532237344e-02
-2.519709762645615594e-02
9.112420251069848487e-02
4.316549122497705809e-02
-8.887468227922484809e-02
7.424339417115219386e-02
-3.371474158528183808e-03
-1.918872889617556088e-01
-1.307427680042260731e-01
-2.838325748011866906e-02
-2.305459366391652415e-02
-8.527561829959534601e-03
-4.773724439345801429e-02
-2.807127707023977098e-03
-9.403893103915740570e-03
-7.317986931183874215e-03
-5.121352540728143360e-02
-1.804203518628858666e-02
1.411504756831288843e-02
-1.068437183240889335e-02
4.110150195356127890e-03
-3.085042920635306871e-02
7.124648555886878287e-02
1.987108648948449074e-01
2.763040032238399668e-01
8.892893447230175441e-02
-4.089914272832995135e-02
3.529562068987932566e-01
-7.373733056637984951e-02
8.247182553042086556e-03
8.247182553042086556e-03
8.247182553042086556e-03
-1.360738569676843146e-01
-2.368617928461828198e-02
-2.944687866005270618e-02
-4.992183091034675668e-02
-2.236838232152423694e-02
-1.791405810590575602e-03
-1.535772676847472519e-02
-1.715702299117122936e-02
-5.114153475010493194e-02
1.465020537491150757e-02
2.161498399269005249e-02
-4.025146663376348577e-02
-2.856174374562018420e-02
5.531287851712655447e-03
-3.202003163083996795e-02
-2.510625276170768555e-02
7.312055130573728509e-03
-5.852372372500706799e-02
-3.710194047758635927e-02
2.866771217048997428e-02
-3.086550941531365083e-02
-2.605470251753258526e-01
-3.183357431718844555e-02
2.989142112138603105e-02
8.772589700893210218e-02
1.420940713754887397e-01
6.224896924119903419e-02
-4.728848140217122714e-02
-7.309517999339823317e-03
-2.011098280898992313e-02
3.124730802371033025e-02
6.733798470255690505e-02
-1.207587148017310180e-01
-5.462076021132405979e-02
3.002174512652781499e-02
-7.418117934249661254e-03
2.125325702634012562e-02
1.391590171853281446e-02
-1.984551762035179079e-02
-1.891573993600505210e-02
1.106732967130787254e-01
9.297776843468202185e-04
1.025526001655485339e-02
1.025526001655485339e-02
1.266616486064153224e-01
6.589792629945783386e-04
8.590884223437984801e-02
8.590884223437984801e-02
-2.498202724492195985e-03
-2.498202724492195985e-03
7.081127022907439394e-02
-3.012982819446861221e-02
4.285029265632515905e-02
2.863375598778498607e-02
-6.242899854585694415e-03
1.089026682308851246e-01
6.163924634409760628e-02
-1.160766207929115057e-01
-2.561497569482020231e-01
7.026391973139314850e-02
9.104651548091754337e-03
-1.019528283924739237e-01
-4.089382428352948684e-02
1.603577429799222381e-02
3.484368590725174346e-03
-3.797606678734426894e-02
1.385410213922136716e-02
8.472204941737594697e-02
-3.312646510032316114e-03
-3.312646510032316114e-03
-3.312646510032316114e-03
-3.312646510032316114e-03
-3.312646510032316114e-03
-5.532055978957842873e-02
7.747739111961540748e-03
-5.836929729097765224e-02
-5.836929729097765224e-02
4.465949681063847987e-02
-2.718010805862332898e-03
3.148080833891015451e-01
1.401637105263291508e-02
-2.814199970375158566e-02
-2.059099953781913170e-02
-2.814199970375158566e-02
-2.977744127490311327e-03
-1.616621105855024429e-02
-1.318846693105989523e-02
-1.318846693105989523e-02
1.197578864520128586e-02
-7.504882216684619078e-03
1.970477431675259766e-02
-3.133519477999294200e-02
1.970477431675259766e-02
-1.423018052285899074e-02
-3.133519477999294200e-02
-4.867408989335973712e-02
2.407343445907275947e-01
1.361645531015085175e-01
1.674248716371617429e-01
1.674248716371617429e-01
9.949582692990097121e-02
-2.405185004994952330e-02
4.491720722707108204e-01
3.294755739032115827e-01
2.466538478550685531e-01
-4.162885768667411168e-02
-1.464343013202097921e-01
2.425371206229812449e-01
3.937837630083041440e-01
